{"learner":{"attributes":{"scikit_learn":"{\"_estimator_type\": \"regressor\"}"},"feature_names":["dia_semana","dia_mes","mes","trimestre","semana_año","dia_semana_sin","dia_semana_cos","mes_sin","mes_cos","es_fin_semana","es_lunes","es_viernes","es_feriado","dia_antes_feriado","dia_despues_feriado","lluvia_simulada","temperatura_simulada","clima_caluroso","clima_frio","precio_venta","stock_actual_pz","cantidad_minima","cantidad_maxima","stock_ratio","deficit"],"feature_types":["int","int","int","int","int","float","float","float","float","int","int","int","int","int","int","int","float","int","int","float","int","int","int","float","int"],"gradient_booster":{"model":{"cats":{"enc":[],"feature_segments":[],"sorted_idx":[]},"gbtree_model_param":{"num_parallel_tree":"1","num_trees":"100"},"iteration_indptr":[0,1,2,3,4,5,6,7,8,9,10,11,12,13,14,15,16,17,18,19,20,21,22,23,24,25,26,27,28,29,30,31,32,33,34,35,36,37,38,39,40,41,42,43,44,45,46,47,48,49,50,51,52,53,54,55,56,57,58,59,60,61,62,63,64,65,66,67,68,69,70,71,72,73,74,75,76,77,78,79,80,81,82,83,84,85,86,87,88,89,90,91,92,93,94,95,96,97,98,99,100],"tree_info":[0,0,0,0,0,0,0,0,0,0,0,0,0,0,0,0,0,0,0,0,0,0,0,0,0,0,0,0,0,0,0,0,0,0,0,0,0,0,0,0,0,0,0,0,0,0,0,0,0,0,0,0,0,0,0,0,0,0,0,0,0,0,0,0,0,0,0,0,0,0,0,0,0,0,0,0,0,0,0,0,0,0,0,0,0,0,0,0,0,0,0,0,0,0,0,0,0,0,0,0],"trees":[{"base_weights":[1.677152E-2,1.0824599E0,-1.5299289E-1,2.2667499E-1,6.5998405E-1,7.841835E-1,4.5654852E-2,6.998492E-2,8.956044E-2],"categories":[],"categories_nodes":[],"categories_segments":[],"categories_sizes":[],"default_left":[0,0,0,0,0,0,0,0,0],"id":0,"left_children":[1,3,-1,-1,5,7,-1,-1,-1],"loss_changes":[7.878955E2,1.4009848E2,0E0,0E0,4.9479675E0,5.8538055E-1,0E0,0E0,0E0],"parents":[2147483647,0,0,1,1,4,4,5,5],"right_children":[2,4,-1,-1,6,8,-1,-1,-1],"split_conditions":[8.4313726E-1,6E0,-1.5299289E-1,2.2667499E-1,5.7425743E-1,7.818315E-1,4.5654852E-2,6.998492E-2,8.956044E-2],"split_indices":[23,20,0,0,23,5,0,0,0],"split_type":[0,0,0,0,0,0,0,0,0],"sum_hessian":[4.76E2,2.82E2,1.94E2,7.3E1,2.09E2,1.28E2,8.1E1,7.7E1,5.1E1],"tree_param":{"num_deleted":"0","num_feature":"25","num_nodes":"9","size_leaf_vector":"1"}},{"base_weights":[1.7053219E-2,9.3500715E-1,-1.3773367E-1,1.9645873E-1,5.841295E-1,6.864803E-1,4.113878E-2,6.2087274E-1,7.658494E-2,5.2772354E-2,6.78741E-2],"categories":[],"categories_nodes":[],"categories_segments":[],"categories_sizes":[],"default_left":[0,0,0,0,0,0,0,0,0,0,0],"id":1,"left_children":[1,3,-1,-1,5,7,-1,9,-1,-1,-1],"loss_changes":[5.9648114E2,1.0036554E2,0E0,0E0,3.4481277E0,2.0664978E-1,0E0,5.6869507E-2,0E0,0E0,0E0],"parents":[2147483647,0,0,1,1,4,4,5,5,7,7],"right_children":[2,4,-1,-1,6,8,-1,10,-1,-1,-1],"split_conditions":[8.4313726E-1,6E0,-1.3773367E-1,1.9645873E-1,5.7425743E-1,7.818315E-1,4.113878E-2,3E0,7.658494E-2,5.2772354E-2,6.78741E-2],"split_indices":[23,20,0,0,23,5,0,1,0,0,0],"split_type":[0,0,0,0,0,0,0,0,0,0,0],"sum_hessian":[4.64E2,2.8E2,1.84E2,7E1,2.1E2,1.3E2,8E1,7.6E1,5.4E1,3.3E1,4.3E1],"tree_param":{"num_deleted":"0","num_feature":"25","num_nodes":"11","size_leaf_vector":"1"}},{"base_weights":[2.4117937E-2,8.508465E-1,-1.2404195E-1,1.8162864E-1,5.23579E-1,6.131552E-1,3.708133E-2,5.0289195E-2,6.6884995E-1,6.729032E-1,1.6216291E-2,5.5135276E-2,7.116877E-2],"categories":[],"categories_nodes":[],"categories_segments":[],"categories_sizes":[],"default_left":[0,0,0,0,0,0,0,0,0,0,0,0,0],"id":2,"left_children":[1,3,-1,-1,5,7,-1,-1,9,11,-1,-1,-1],"loss_changes":[4.9449805E2,8.9412766E1,0E0,0E0,2.7147331E0,4.8654938E-1,0E0,0E0,6.749725E-2,8.323669E-3,0E0,0E0,0E0],"parents":[2147483647,0,0,1,1,4,4,5,5,8,8,9,9],"right_children":[2,4,-1,-1,6,8,-1,-1,10,12,-1,-1,-1],"split_conditions":[8.4313726E-1,6E0,-1.2404195E-1,1.8162864E-1,5.7425743E-1,3E0,3.708133E-2,5.0289195E-2,6E0,1E0,1.6216291E-2,5.5135276E-2,7.116877E-2],"split_indices":[23,20,0,0,23,1,0,0,0,0,0,0,0],"split_type":[0,0,0,0,0,0,0,0,0,0,0,0,0],"sum_hessian":[4.71E2,2.85E2,1.86E2,7.1E1,2.14E2,1.33E2,8.1E1,4.8E1,8.5E1,8.4E1,1E0,2.4E1,6E1],"tree_param":{"num_deleted":"0","num_feature":"25","num_nodes":"13","size_leaf_vector":"1"}},{"base_weights":[1.7237194E-2,7.787415E-1,-1.1172575E-1,1.631379E-1,4.5581678E-1,5.275766E-1,3.3413332E-2,4.7111502E-1,6.4424895E-2,4.976925E-1,3.7997972E-2,4.3616813E-2,5.653919E-2],"categories":[],"categories_nodes":[],"categories_segments":[],"categories_sizes":[],"default_left":[0,0,0,0,0,0,0,0,0,0,0,0,0],"id":3,"left_children":[1,3,-1,-1,5,7,-1,9,-1,11,-1,-1,-1],"loss_changes":[4.1728073E2,7.8828964E1,0E0,0E0,1.6661682E0,5.5944824E-1,0E0,3.372383E-2,0E0,3.662491E-2,0E0,0E0,0E0],"parents":[2147483647,0,0,1,1,4,4,5,5,7,7,9,9],"right_children":[2,4,-1,-1,6,8,-1,10,-1,12,-1,-1,-1],"split_conditions":[8.4313726E-1,6E0,-1.1172575E-1,1.631379E-1,5.7425743E-1,3E1,3.3413332E-2,5E0,6.4424895E-2,4.3E1,3.7997972E-2,4.3616813E-2,5.653919E-2],"split_indices":[23,20,0,0,23,1,0,1,0,20,0,0,0],"split_type":[0,0,0,0,0,0,0,0,0,0,0,0,0],"sum_hessian":[4.81E2,2.88E2,1.93E2,7.8E1,2.1E2,1.3E2,8E1,9.1E1,3.9E1,6.7E1,2.4E1,3.9E1,2.8E1],"tree_param":{"num_deleted":"0","num_feature":"25","num_nodes":"13","size_leaf_vector":"1"}},{"base_weights":[1.0936529E-2,6.7973524E-1,-1.00610755E-1,1.4546143E-1,3.9936697E-1,4.5744877E-2,3.0126689E-2],"categories":[],"categories_nodes":[],"categories_segments":[],"categories_sizes":[],"default_left":[0,0,0,0,0,0,0],"id":4,"left_children":[1,3,-1,-1,5,-1,-1],"loss_changes":[3.3262042E2,6.3508255E1,0E0,0E0,1.1043129E0,0E0,0E0],"parents":[2147483647,0,0,1,1,4,4],"right_children":[2,4,-1,-1,6,-1,-1],"split_conditions":[8.4313726E-1,6E0,-1.00610755E-1,1.4546143E-1,5.7425743E-1,4.5744877E-2,3.0126689E-2],"split_indices":[23,20,0,0,23,0,0],"split_type":[0,0,0,0,0,0,0],"sum_hessian":[4.87E2,2.94E2,1.93E2,7.7E1,2.17E2,1.34E2,8.3E1],"tree_param":{"num_deleted":"0","num_feature":"25","num_nodes":"7","size_leaf_vector":"1"}},{"base_weights":[-2.5752483E-2,3.579901E-1,-9.0455644E-2,1.3234779E-1,1.108438E-1,-1.4754154E-1,3.5727838E-1,4.248347E-1,-8.95008E-2,2.7120158E-2,4.5681226E-1,3.5716385E-1,5.115452E-2,3.2626697E-1,4.979645E-1,1.6613893E-2,3.9913915E-2,5.0053276E-2,1.6986761E-2,3.8621362E-2,5.56011E-2],"categories":[],"categories_nodes":[],"categories_segments":[],"categories_sizes":[],"default_left":[0,0,0,0,0,0,0,0,0,0,0,0,0,0,0,0,0,0,0,0,0],"id":5,"left_children":[1,3,-1,-1,5,7,9,11,-1,-1,13,15,-1,17,19,-1,-1,-1,-1,-1,-1],"loss_changes":[1.6421977E2,8.074436E1,0E0,0E0,1.7308659E1,5.728189E1,1.0670013E0,2.6324558E-1,0E0,0E0,1.7598152E-1,3.025303E-1,0E0,4.055668E-1,8.365154E-2,0E0,0E0,0E0,0E0,0E0,0E0],"parents":[2147483647,0,0,1,1,4,4,5,5,6,6,7,7,10,10,11,11,13,13,14,14],"right_children":[2,4,-1,-1,6,8,10,12,-1,-1,14,16,-1,18,20,-1,-1,-1,-1,-1,-1],"split_conditions":[9.3E1,6E0,-9.0455644E-2,1.3234779E-1,5.8E1,4.3E1,7.5E1,7.818315E-1,-8.95008E-2,2.7120158E-2,3E0,3.5E1,5.115452E-2,3E0,1E0,1.6613893E-2,3.9913915E-2,5.0053276E-2,1.6986761E-2,3.8621362E-2,5.56011E-2],"split_indices":[20,20,0,0,20,20,20,5,0,0,1,19,0,0,0,0,0,0,0,0,0],"split_type":[0,0,0,0,0,0,0,0,0,0,0,0,0,0,0,0,0,0,0,0,0],"sum_hessian":[4.85E2,3.38E2,1.47E2,6.8E1,2.7E2,1.32E2,1.38E2,7.5E1,5.7E1,7.6E1,6.2E1,4.5E1,3E1,1.7E1,4.5E1,9E0,3.6E1,7E0,1E1,1.8E1,2.7E1],"tree_param":{"num_deleted":"0","num_feature":"25","num_nodes":"21","size_leaf_vector":"1"}},{"base_weights":[1.6313294E-2,5.7711536E-1,-8.163017E-2,1.2188282E-1,3.371594E-1,3.8652122E-1,2.4439136E-2,3.4148344E-1,4.4476304E-2,3.024694E-1,4.3854877E-1,1.2210862E-2,3.065137E-2,5.873325E-2,2.1615341E-2],"categories":[],"categories_nodes":[],"categories_segments":[],"categories_sizes":[],"default_left":[0,0,0,0,0,0,0,0,0,0,0,0,0,0,0],"id":6,"left_children":[1,3,-1,-1,5,7,-1,9,-1,11,13,-1,-1,-1,-1],"loss_changes":[2.250655E2,4.393611E1,0E0,0E0,8.717499E-1,2.0486069E-1,0E0,1.7409134E-1,0E0,7.068157E-3,5.6791115E-1,0E0,0E0,0E0,0E0],"parents":[2147483647,0,0,1,1,4,4,5,5,7,7,9,9,10,10],"right_children":[2,4,-1,-1,6,8,-1,10,-1,12,14,-1,-1,-1,-1],"split_conditions":[8.4313726E-1,6E0,-8.163017E-2,1.2188282E-1,5.7425743E-1,7.818315E-1,2.4439136E-2,1E0,4.4476304E-2,1E1,3.4E1,1.2210862E-2,3.065137E-2,5.873325E-2,2.1615341E-2],"split_indices":[23,20,0,0,23,5,0,11,0,20,19,0,0,0,0],"split_type":[0,0,0,0,0,0,0,0,0,0,0,0,0,0,0],"sum_hessian":[4.8E2,2.87E2,1.93E2,7.7E1,2.1E2,1.35E2,7.5E1,8E1,5.5E1,6E1,2E1,2E0,5.8E1,1.1E1,9E0],"tree_param":{"num_deleted":"0","num_feature":"25","num_nodes":"15","size_leaf_vector":"1"}},{"base_weights":[9.983692E-3,5.1269436E-1,-7.351106E-2,1.0608816E-1,3.2251588E-1,3.7977937E-1,2.2042068E-2,4.3869726E-2,3.1535745E-1,1.1396806E-2,3.1966805E-1,3.5588365E-2,2.6613107E-2],"categories":[],"categories_nodes":[],"categories_segments":[],"categories_sizes":[],"default_left":[0,0,0,0,0,0,0,0,0,0,0,0,0],"id":7,"left_children":[1,3,-1,-1,5,7,-1,-1,9,-1,11,-1,-1],"loss_changes":[1.8129265E2,2.9787094E1,0E0,0E0,1.1790943E0,3.8165092E-1,0E0,0E0,2.346754E-2,0E0,3.519249E-2,0E0,0E0],"parents":[2147483647,0,0,1,1,4,4,5,5,8,8,10,10],"right_children":[2,4,-1,-1,6,8,-1,-1,10,-1,12,-1,-1],"split_conditions":[8.4313726E-1,6E0,-7.351106E-2,1.0608816E-1,5.7425743E-1,2E0,2.2042068E-2,4.3869726E-2,1E1,1.1396806E-2,3.5E1,3.5588365E-2,2.6613107E-2],"split_indices":[23,20,0,0,23,0,0,0,20,0,19,0,0],"split_type":[0,0,0,0,0,0,0,0,0,0,0,0,0],"sum_hessian":[4.82E2,2.88E2,1.94E2,7.3E1,2.15E2,1.36E2,7.9E1,6.8E1,6.8E1,2E0,6.6E1,3.6E1,3E1],"tree_param":{"num_deleted":"0","num_feature":"25","num_nodes":"13","size_leaf_vector":"1"}},{"base_weights":[1.7492613E-2,4.512137E-1,-6.618668E-2,1.0078398E-1,2.6779887E-1,3.070208E-1,1.9877391E-2,2.651199E-1,3.736374E-2,2.6694682E-1,5.1262975E-3,2.2139335E-2,2.8983736E-2],"categories":[],"categories_nodes":[],"categories_segments":[],"categories_sizes":[],"default_left":[0,0,0,0,0,0,0,0,0,0,0,0,0],"id":8,"left_children":[1,3,-1,-1,5,7,-1,9,-1,11,-1,-1,-1],"loss_changes":[1.4291043E2,2.9949776E1,0E0,0E0,5.4540443E-1,2.9451466E-1,0E0,2.14777E-2,0E0,2.8636456E-2,0E0,0E0,0E0],"parents":[2147483647,0,0,1,1,4,4,5,5,7,7,9,9],"right_children":[2,4,-1,-1,6,8,-1,10,-1,12,-1,-1,-1],"split_conditions":[8.4313726E-1,6E0,-6.618668E-2,1.0078398E-1,5.7425743E-1,7.818315E-1,1.9877391E-2,6E0,3.736374E-2,3E0,5.1262975E-3,2.2139335E-2,2.8983736E-2],"split_indices":[23,20,0,0,23,5,0,0,0,1,0,0,0],"split_type":[0,0,0,0,0,0,0,0,0,0,0,0,0],"sum_hessian":[4.83E2,2.95E2,1.88E2,7.2E1,2.23E2,1.4E2,8.3E1,8.9E1,5.1E1,8.8E1,1E0,3.3E1,5.5E1],"tree_param":{"num_deleted":"0","num_feature":"25","num_nodes":"13","size_leaf_vector":"1"}},{"base_weights":[-5.6770276E-3,-2.6522923E-1,5.4739285E-1,2.8720948E-1,-4.146669E-1,8.742698E-2,2.9601476E-1,1.765485E-1,3.34251E-1,-2.0756526E-1,-5.9455473E-2,1.7305082E-2,3.3197284E-1,1.0924068E-1,2.8909558E-2,3.452901E-1,1.7025681E-1,-5.900472E-2,1.7831935E-2,2.8324693E-1,5.1258445E-2,1.42486E-1,4.6141557E-3,5.0266504E-1,3.019309E-2,2.9189095E-2,-8.129597E-4,3.4531713E-2,7.6804506E-3,4.355256E-3,1.617753E-2,6.315201E-2,7.739997E-3],"categories":[],"categories_nodes":[],"categories_segments":[],"categories_sizes":[],"default_left":[0,0,0,0,0,0,0,0,0,0,0,0,0,0,0,0,0,0,0,0,0,0,0,0,0,0,0,0,0,0,0,0,0],"id":9,"left_children":[1,3,5,7,9,-1,11,13,15,17,-1,-1,19,21,-1,23,25,-1,-1,27,-1,29,-1,31,-1,-1,-1,-1,-1,-1,-1,-1,-1],"loss_changes":[6.876232E1,2.7032078E1,1.2313171E1,3.053851E-1,9.451138E0,0E0,3.3164835E-1,1.4265084E-1,2.8108597E-2,1.7964077E1,0E0,0E0,4.4444275E-1,2.698949E-2,0E0,1.484704E-1,1.10862345E-1,0E0,0E0,6.7824364E-1,0E0,1.2037829E-2,0E0,3.8950062E-1,0E0,0E0,0E0,0E0,0E0,0E0,0E0,0E0,0E0],"parents":[2147483647,0,0,1,1,2,2,3,3,4,4,6,6,7,7,8,8,9,9,12,12,13,13,15,15,16,16,19,19,21,21,23,23],"right_children":[2,4,6,8,10,-1,12,14,16,18,-1,-1,20,22,-1,24,26,-1,-1,28,-1,30,-1,32,-1,-1,-1,-1,-1,-1,-1,-1,-1],"split_conditions":[1E1,4.3E1,6E0,4.3388373E-1,6.8E1,8.742698E-2,7.5E1,4E1,2.5E1,5.8E1,-5.9455473E-2,1.7305082E-2,1E0,1E0,2.8909558E-2,3.5E1,2E0,-5.900472E-2,1.7831935E-2,3E0,5.1258445E-2,3.5E1,4.6141557E-3,3E0,3.019309E-2,2.9189095E-2,-8.129597E-4,3.4531713E-2,7.6804506E-3,4.355256E-3,1.617753E-2,6.315201E-2,7.739997E-3],"split_indices":[21,20,20,5,20,0,20,19,20,20,0,0,11,0,0,19,0,0,0,0,0,19,0,0,0,0,0,0,0,0,0,0,0],"split_type":[0,0,0,0,0,0,0,0,0,0,0,0,0,0,0,0,0,0,0,0,0,0,0,0,0,0,0,0,0,0,0,0,0],"sum_hessian":[4.77E2,3.25E2,1.52E2,6.9E1,2.56E2,6.5E1,8.7E1,2.2E1,4.7E1,1.2E2,1.36E2,2.1E1,6.6E1,1.5E1,7E0,4.3E1,4E0,6E1,6E1,5.4E1,1.2E1,9E0,6E0,7E0,3.6E1,2E0,2E0,4.1E1,1.3E1,2E0,7E0,5E0,2E0],"tree_param":{"num_deleted":"0","num_feature":"25","num_nodes":"33","size_leaf_vector":"1"}},{"base_weights":[-1.2001624E-2,3.6957747E-1,-5.373062E-2,8.013369E-2,2.252775E-1,2.6560387E-1,1.6169954E-2,2.98267E-1,2.1853936E-1,3.3196622E-1,2.3104812E-1,9.576431E-2,2.338126E-2,2.7949667E-2,5.5281818E-2,1.3731909E-2,3.1496864E-2,1.3882316E-2,-2.2274812E-3],"categories":[],"categories_nodes":[],"categories_segments":[],"categories_sizes":[],"default_left":[0,0,0,0,0,0,0,0,0,0,0,0,0,0,0,0,0,0,0],"id":10,"left_children":[1,3,-1,-1,5,7,-1,9,11,13,15,17,-1,-1,-1,-1,-1,-1,-1],"loss_changes":[9.861719E1,1.7575794E1,0E0,0E0,5.082836E-1,1.3466263E-1,0E0,9.092617E-2,8.44934E-2,3.9012575E-1,1.7699087E-1,4.3753274E-2,0E0,0E0,0E0,0E0,0E0,0E0,0E0],"parents":[2147483647,0,0,1,1,4,4,5,5,7,7,8,8,9,9,10,10,11,11],"right_children":[2,4,-1,-1,6,8,-1,10,12,14,16,18,-1,-1,-1,-1,-1,-1,-1],"split_conditions":[8.4313726E-1,1E1,-5.373062E-2,8.013369E-2,5.7425743E-1,3.5E1,1.6169954E-2,3E0,2E0,3.4E1,4E0,4E1,2.338126E-2,2.7949667E-2,5.5281818E-2,1.3731909E-2,3.1496864E-2,1.3882316E-2,-2.2274812E-3],"split_indices":[23,20,0,0,23,19,0,0,1,19,0,19,0,0,0,0,0,0,0],"split_type":[0,0,0,0,0,0,0,0,0,0,0,0,0,0,0,0,0,0,0],"sum_hessian":[4.9E2,2.84E2,2.06E2,7E1,2.14E2,1.29E2,8.5E1,7.3E1,5.6E1,4.6E1,2.7E1,7E0,4.9E1,3.9E1,7E0,1.4E1,1.3E1,5E0,2E0],"tree_param":{"num_deleted":"0","num_feature":"25","num_nodes":"19","size_leaf_vector":"1"}},{"base_weights":[1.0015102E-2,3.3117497E-1,-4.834429E-2,7.026569E-2,2.1746735E-1,2.566109E-1,1.4550644E-2,2.150384E-1,3.1575733E-1,1.6599183E-1,3.0064264E-1,-1.02724675E-2,3.2559142E-1,1.3537976E-2,1.998916E-2,3.821173E-2,1.9912513E-2,3.802332E-2,2.4372296E-2],"categories":[],"categories_nodes":[],"categories_segments":[],"categories_sizes":[],"default_left":[0,0,0,0,0,0,0,0,0,0,0,0,0,0,0,0,0,0,0],"id":11,"left_children":[1,3,-1,-1,5,7,-1,9,11,13,15,-1,17,-1,-1,-1,-1,-1,-1],"loss_changes":[7.195105E1,1.1463284E1,0E0,0E0,5.5982494E-1,2.665062E-1,0E0,2.9857898E-1,2.556777E-1,3.0014634E-2,1.6377306E-1,0E0,1.4442062E-1,0E0,0E0,0E0,0E0,0E0,0E0],"parents":[2147483647,0,0,1,1,4,4,5,5,7,7,8,8,9,9,10,10,12,12],"right_children":[2,4,-1,-1,6,8,-1,10,12,14,16,-1,18,-1,-1,-1,-1,-1,-1],"split_conditions":[8.4313726E-1,6E0,-4.834429E-2,7.026569E-2,5.7425743E-1,7.818315E-1,1.4550644E-2,2.9E1,1E1,1E0,3.4E1,-1.02724675E-2,3.5E1,1.3537976E-2,1.998916E-2,3.821173E-2,1.9912513E-2,3.802332E-2,2.4372296E-2],"split_indices":[23,20,0,0,23,5,0,1,20,11,19,0,19,0,0,0,0,0,0],"split_type":[0,0,0,0,0,0,0,0,0,0,0,0,0,0,0,0,0,0,0],"sum_hessian":[4.52E2,2.74E2,1.78E2,6.3E1,2.11E2,1.35E2,7.6E1,8.2E1,5.3E1,5.4E1,2.8E1,1E0,5.2E1,3.1E1,2.3E1,1.4E1,1.4E1,2.9E1,2.3E1],"tree_param":{"num_deleted":"0","num_feature":"25","num_nodes":"19","size_leaf_vector":"1"}},{"base_weights":[1.8664266E-3,3.0270052E-1,-4.3558042E-2,6.4621866E-2,1.9415952E-1,2.2899202E-1,1.31211085E-2,1.91034E-1,2.802468E-1,1.5179358E-1,2.712229E-1,3.1306958E-1,2.137983E-1,9.212217E-3,2.0828836E-2,3.4460735E-2,1.5689038E-2,4.2547654E-2,2.4659147E-2,1.3683319E-2,3.962331E-2],"categories":[],"categories_nodes":[],"categories_segments":[],"categories_sizes":[],"default_left":[0,0,0,0,0,0,0,0,0,0,0,0,0,0,0,0,0,0,0,0,0],"id":12,"left_children":[1,3,-1,-1,5,7,-1,9,11,13,15,17,19,-1,-1,-1,-1,-1,-1,-1,-1],"loss_changes":[6.329933E1,1.0500984E1,0E0,0E0,4.4795132E-1,2.1689177E-1,0E0,2.200017E-1,5.7384968E-2,1.7633712E-1,1.640805E-1,1.6409445E-1,2.546866E-1,0E0,0E0,0E0,0E0,0E0,0E0,0E0,0E0],"parents":[2147483647,0,0,1,1,4,4,5,5,7,7,8,8,9,9,10,10,11,11,12,12],"right_children":[2,4,-1,-1,6,8,-1,10,12,14,16,18,20,-1,-1,-1,-1,-1,-1,-1,-1],"split_conditions":[8.4313726E-1,9.90099E-2,-4.3558042E-2,6.4621866E-2,5.7425743E-1,7.818315E-1,1.31211085E-2,1E0,1E1,3.5E1,3.4E1,3.5E1,2E0,9.212217E-3,2.0828836E-2,3.4460735E-2,1.5689038E-2,4.2547654E-2,2.4659147E-2,1.3683319E-2,3.962331E-2],"split_indices":[23,23,0,0,23,5,0,11,21,19,19,19,0,0,0,0,0,0,0,0,0],"split_type":[0,0,0,0,0,0,0,0,0,0,0,0,0,0,0,0,0,0,0,0,0],"sum_hessian":[4.79E2,2.84E2,1.95E2,6.7E1,2.17E2,1.38E2,7.9E1,8.2E1,5.6E1,5.7E1,2.5E1,3.5E1,2.1E1,2.9E1,2.8E1,1.4E1,1.1E1,1.1E1,2.4E1,1.6E1,5E0],"tree_param":{"num_deleted":"0","num_feature":"25","num_nodes":"21","size_leaf_vector":"1"}},{"base_weights":[1.254498E-2,2.8712964E-1,-3.9217215E-2,5.9444673E-2,1.8957184E-1,2.2646491E-1,1.1817712E-2,3.326448E-1,2.1391177E-1,3.9102387E-2,1.9936526E-1,1.3576406E-1,2.3854679E-1,-7.36171E-3,2.6868517E-2,1.6282538E-2,9.683484E-3,1.6638998E-2,2.8499812E-2],"categories":[],"categories_nodes":[],"categories_segments":[],"categories_sizes":[],"default_left":[0,0,0,0,0,0,0,0,0,0,0,0,0,0,0,0,0,0,0],"id":13,"left_children":[1,3,-1,-1,5,7,-1,9,11,-1,13,15,17,-1,-1,-1,-1,-1,-1],"loss_changes":[5.223216E1,8.28204E0,0E0,0E0,5.369067E-1,1.15448E-1,0E0,2.3192883E-2,2.1403599E-1,0E0,1.3331847E-1,1.899749E-2,2.7435017E-1,0E0,0E0,0E0,0E0,0E0,0E0],"parents":[2147483647,0,0,1,1,4,4,5,5,7,7,8,8,10,10,11,11,12,12],"right_children":[2,4,-1,-1,6,8,-1,10,12,-1,14,16,18,-1,-1,-1,-1,-1,-1],"split_conditions":[8.4313726E-1,6E0,-3.9217215E-2,5.9444673E-2,5.7425743E-1,2E0,1.1817712E-2,2.5E1,3E0,3.9102387E-2,4.3E1,2.4752475E-1,2.4752475E-1,-7.36171E-3,2.6868517E-2,1.6282538E-2,9.683484E-3,1.6638998E-2,2.8499812E-2],"split_indices":[23,20,0,0,23,1,0,20,1,0,20,23,23,0,0,0,0,0,0],"split_type":[0,0,0,0,0,0,0,0,0,0,0,0,0,0,0,0,0,0,0],"sum_hessian":[4.68E2,2.79E2,1.89E2,6.6E1,2.13E2,1.39E2,7.4E1,1.2E1,1.27E2,7E0,5E0,3.2E1,9.5E1,1E0,4E0,1.7E1,1.5E1,3.9E1,5.6E1],"tree_param":{"num_deleted":"0","num_feature":"25","num_nodes":"19","size_leaf_vector":"1"}},{"base_weights":[2.2622088E-2,2.757365E-1,-3.531308E-2,5.320659E-2,1.7888962E-1,2.201515E-1,1.0649921E-2,1.6884902E-1,3.0904838E-1,2.2166431E-1,1.4530121E-1,2.4699444E-2,3.7116047E-2,1.116205E-2,3.224064E-2,1.9415444E-2,9.176087E-3],"categories":[],"categories_nodes":[],"categories_segments":[],"categories_sizes":[],"default_left":[0,0,0,0,0,0,0,0,0,0,0,0,0,0,0,0,0],"id":14,"left_children":[1,3,-1,-1,5,7,-1,9,11,13,15,-1,-1,-1,-1,-1,-1],"loss_changes":[4.4417927E1,6.8309097E0,0E0,0E0,5.858946E-1,5.3613853E-1,0E0,7.226157E-2,8.5623264E-2,2.3007786E-1,1.4173698E-1,0E0,0E0,0E0,0E0,0E0,0E0],"parents":[2147483647,0,0,1,1,4,4,5,5,7,7,8,8,9,9,10,10],"right_children":[2,4,-1,-1,6,8,-1,10,12,14,16,-1,-1,-1,-1,-1,-1],"split_conditions":[8.4313726E-1,6E0,-3.531308E-2,5.320659E-2,5.7425743E-1,7.818315E-1,1.0649921E-2,0E0,2.5E1,4.3E1,2.4752475E-1,2.4699444E-2,3.7116047E-2,1.116205E-2,3.224064E-2,1.9415444E-2,9.176087E-3],"split_indices":[23,20,0,0,23,5,0,5,20,20,23,0,0,0,0,0,0],"split_type":[0,0,0,0,0,0,0,0,0,0,0,0,0,0,0,0,0],"sum_hessian":[4.65E2,2.78E2,1.87E2,7.5E1,2.03E2,1.28E2,7.5E1,8.3E1,4.5E1,2.3E1,6E1,2.5E1,2E1,1.2E1,1.1E1,3E1,3E1],"tree_param":{"num_deleted":"0","num_feature":"25","num_nodes":"17","size_leaf_vector":"1"}},{"base_weights":[2.595932E-3,2.1896447E-1,-3.1804655E-2,4.47649E-2,1.2484792E-1,-6.876463E-2,1.2807977E-1,-1.4546192E-2,5.2884425E-4,1.4526129E-1,9.596339E-3,8.337959E-2,1.5206967E-1,4.1440744E-3,2.3732139E-2,1.5362526E-2,-1.2634039E-3],"categories":[],"categories_nodes":[],"categories_segments":[],"categories_sizes":[],"default_left":[0,0,0,0,0,0,0,0,0,0,0,0,0,0,0,0,0],"id":15,"left_children":[1,3,-1,-1,5,7,9,-1,-1,11,-1,13,15,-1,-1,-1,-1],"loss_changes":[3.3231823E1,6.0996876E0,0E0,0E0,1.3645554E-1,2.348795E-2,9.6973896E-2,0E0,0E0,4.1670084E-2,0E0,8.700733E-2,3.140521E-2,0E0,0E0,0E0,0E0],"parents":[2147483647,0,0,1,1,4,4,5,5,6,6,9,9,11,11,12,12],"right_children":[2,4,-1,-1,6,8,10,-1,-1,12,-1,14,16,-1,-1,-1,-1],"split_conditions":[8.4313726E-1,6E0,-3.1804655E-2,4.47649E-2,1E1,2E0,5.7425743E-1,-1.4546192E-2,5.2884425E-4,2E0,9.596339E-3,4E1,6E0,4.1440744E-3,2.3732139E-2,1.5362526E-2,-1.2634039E-3],"split_indices":[23,20,0,0,20,0,23,0,0,1,0,19,0,0,0,0,0],"split_type":[0,0,0,0,0,0,0,0,0,0,0,0,0,0,0,0,0],"sum_hessian":[4.77E2,2.85E2,1.92E2,8.2E1,2.03E2,3E0,2E2,1E0,2E0,1.28E2,7.2E1,1.4E1,1.14E2,1.2E1,2E0,1.13E2,1E0],"tree_param":{"num_deleted":"0","num_feature":"25","num_nodes":"17","size_leaf_vector":"1"}},{"base_weights":[2.3311414E-3,1.9513088E-1,-2.8635442E-2,4.137751E-2,1.151499E-1,7.298189E-2,1.3600396E-1,1.1181665E-1,5.113371E-2,1.6126446E-1,8.581398E-3,2.881425E-1,6.214436E-2,-1.207552E-2,6.169128E-2,1.6339399E-1,-1.2002349E-3,4.8056986E-2,-3.3235552E-5,9.976271E-3,1.4549757E-3,2.0461013E-3,8.452068E-3,1.8337198E-2,1.3144071E-2],"categories":[],"categories_nodes":[],"categories_segments":[],"categories_sizes":[],"default_left":[0,0,0,0,0,0,0,0,0,0,0,0,0,0,0,0,0,0,0,0,0,0,0,0,0],"id":16,"left_children":[1,3,-1,-1,5,7,9,11,13,15,-1,17,19,-1,21,23,-1,-1,-1,-1,-1,-1,-1,-1,-1],"loss_changes":[2.5436155E1,4.7438946E0,0E0,0E0,1.6770768E-1,5.2826762E-2,1.5604949E-1,1.9229776E-1,9.092707E-2,3.443122E-2,0E0,2.7771196E-1,3.4357086E-2,0E0,3.9686173E-2,3.1435013E-2,0E0,0E0,0E0,0E0,0E0,0E0,0E0,0E0,0E0],"parents":[2147483647,0,0,1,1,4,4,5,5,6,6,7,7,8,8,9,9,11,11,12,12,14,14,15,15],"right_children":[2,4,-1,-1,6,8,10,12,14,16,-1,18,20,-1,22,24,-1,-1,-1,-1,-1,-1,-1,-1,-1],"split_conditions":[8.4313726E-1,6E0,-2.8635442E-2,4.137751E-2,3E0,2.4752475E-1,5.7425743E-1,3.5E1,2.857143E-1,6E0,8.581398E-3,3E0,4E1,-1.207552E-2,5.7425743E-1,3E1,-1.2002349E-3,4.8056986E-2,-3.3235552E-5,9.976271E-3,1.4549757E-3,2.0461013E-3,8.452068E-3,1.8337198E-2,1.3144071E-2],"split_indices":[23,20,0,0,1,23,23,19,23,0,0,0,19,0,23,1,0,0,0,0,0,0,0,0,0],"split_type":[0,0,0,0,0,0,0,0,0,0,0,0,0,0,0,0,0,0,0,0,0,0,0,0,0],"sum_hessian":[4.55E2,2.73E2,1.82E2,7.2E1,2.01E2,6.8E1,1.33E2,2.3E1,4.5E1,8.7E1,4.6E1,4E0,1.9E1,2E0,4.3E1,8.6E1,1E0,2E0,2E0,1E1,9E0,1.6E1,2.7E1,5E1,3.6E1],"tree_param":{"num_deleted":"0","num_feature":"25","num_nodes":"25","size_leaf_vector":"1"}},{"base_weights":[-5.753184E-4,1.836805E-1,-2.5796065E-2,3.9511893E-2,1.0807948E-1,-6.970155E-2,1.1112516E-1,-1.4476085E-2,3.571828E-4,1.3372532E-1,7.820053E-3,1.5030612E-1,4.6622146E-2,1.39548555E-2,1.9981094E-2,1.025077E-2,8.228024E-5],"categories":[],"categories_nodes":[],"categories_segments":[],"categories_sizes":[],"default_left":[0,0,0,0,0,0,0,0,0,0,0,0,0,0,0,0,0],"id":17,"left_children":[1,3,-1,-1,5,7,9,-1,-1,11,-1,13,15,-1,-1,-1,-1],"loss_changes":[2.2052462E1,4.289221E0,0E0,0E0,1.1658001E-1,2.2516452E-2,1.3687491E-1,0E0,0E0,1.6052437E-1,0E0,2.3774147E-2,5.110608E-2,0E0,0E0,0E0,0E0],"parents":[2147483647,0,0,1,1,4,4,5,5,6,6,9,9,11,11,12,12],"right_children":[2,4,-1,-1,6,8,10,-1,-1,12,-1,14,16,-1,-1,-1,-1],"split_conditions":[8.4313726E-1,6E0,-2.5796065E-2,3.9511893E-2,1E1,2E0,5.7425743E-1,-1.4476085E-2,3.571828E-4,4E0,7.820053E-3,9.749279E-1,3.4E1,1.39548555E-2,1.9981094E-2,1.025077E-2,8.228024E-5],"split_indices":[23,20,0,0,20,0,23,0,0,0,0,5,19,0,0,0,0],"split_type":[0,0,0,0,0,0,0,0,0,0,0,0,0,0,0,0,0],"sum_hessian":[4.63E2,2.7E2,1.93E2,7E1,2E2,3E0,1.97E2,1E0,2E0,1.15E2,8.2E1,9.6E1,1.9E1,8.2E1,1.4E1,8E0,1.1E1],"tree_param":{"num_deleted":"0","num_feature":"25","num_nodes":"17","size_leaf_vector":"1"}},{"base_weights":[6.277507E-3,1.6722965E-1,-2.3226442E-2,3.4268256E-2,9.74291E-2,1.1203904E-1,7.0416555E-3,7.519931E-2,1.3152453E-1,-8.257021E-2,1.0881747E-1,1.3348383E-1,-1.6527653E-3,2.5002958E-4,-9.351656E-3,1.618304E-2,4.771303E-3,1.1093012E-2,1.4590231E-2],"categories":[],"categories_nodes":[],"categories_segments":[],"categories_sizes":[],"default_left":[0,0,0,0,0,0,0,0,0,0,0,0,0,0,0,0,0,0,0],"id":18,"left_children":[1,3,-1,-1,5,7,-1,9,11,13,15,17,-1,-1,-1,-1,-1,-1,-1],"loss_changes":[1.8391094E1,3.469171E0,0E0,0E0,7.340884E-2,8.486426E-2,0E0,2.635733E-1,2.686274E-2,8.614726E-3,1.2185162E-1,7.341981E-3,0E0,0E0,0E0,0E0,0E0,0E0,0E0],"parents":[2147483647,0,0,1,1,4,4,5,5,7,7,8,8,9,9,10,10,11,11],"right_children":[2,4,-1,-1,6,8,-1,10,12,14,16,18,-1,-1,-1,-1,-1,-1,-1],"split_conditions":[8.4313726E-1,6E0,-2.3226442E-2,3.4268256E-2,5.7425743E-1,3E0,7.0416555E-3,2.3E1,6E0,3.4E1,2.5E1,2.4752475E-1,-1.6527653E-3,2.5002958E-4,-9.351656E-3,1.618304E-2,4.771303E-3,1.1093012E-2,1.4590231E-2],"split_indices":[23,20,0,0,23,1,0,20,0,19,20,23,0,0,0,0,0,0,0],"split_type":[0,0,0,0,0,0,0,0,0,0,0,0,0,0,0,0,0,0,0],"sum_hessian":[4.77E2,2.85E2,1.92E2,8E1,2.05E2,1.31E2,7.4E1,4.7E1,8.4E1,8E0,3.9E1,8.3E1,1E0,1E0,7E0,2E1,1.9E1,3.3E1,5E1],"tree_param":{"num_deleted":"0","num_feature":"25","num_nodes":"19","size_leaf_vector":"1"}},{"base_weights":[1.0047686E-2,1.5507373E-1,-2.0908765E-2,3.0537343E-1,1.0541767E-1,2.2894112E-2,3.5385143E-2,1.3179687E-1,6.3522467E-3,1.19467854E-1,2.0255852E-1,1.6465083E-1,6.8005204E-2,2.297028E-2,3.439321E-2,1.3823837E-2,2.0711973E-2,9.11907E-3,-1.3916438E-3,1.6451836E-2,-7.5223483E-3],"categories":[],"categories_nodes":[],"categories_segments":[],"categories_sizes":[],"default_left":[0,0,0,0,0,0,0,0,0,0,0,0,0,0,0,0,0,0,0,0,0],"id":19,"left_children":[1,3,-1,5,7,-1,-1,9,-1,11,13,15,17,19,-1,-1,-1,-1,-1,-1,-1],"loss_changes":[1.500096E1,2.0873833E0,0E0,1.7835855E-1,2.2923756E-1,0E0,0E0,9.008789E-2,0E0,2.5387955E-1,4.4910234E-1,3.867066E-2,1.0573569E-1,1.3746789E-1,0E0,0E0,0E0,0E0,0E0,0E0,0E0],"parents":[2147483647,0,0,1,1,3,3,4,4,7,7,9,9,10,10,11,11,12,12,13,13],"right_children":[2,4,-1,6,8,-1,-1,10,-1,12,14,16,18,20,-1,-1,-1,-1,-1,-1,-1],"split_conditions":[8.4313726E-1,6E0,-2.0908765E-2,3E0,5.7425743E-1,2.2894112E-2,3.5385143E-2,1E0,6.3522467E-3,2.857143E-1,4.3E1,3E1,3E0,2.3E1,3.439321E-2,1.3823837E-2,2.0711973E-2,9.11907E-3,-1.3916438E-3,1.6451836E-2,-7.5223483E-3],"split_indices":[23,20,0,1,23,0,0,11,0,23,20,1,0,20,0,0,0,0,0,0,0],"split_type":[0,0,0,0,0,0,0,0,0,0,0,0,0,0,0,0,0,0,0,0,0],"sum_hessian":[4.7E2,2.83E2,1.87E2,6.9E1,2.14E2,2.9E1,4E1,1.3E2,8.4E1,1.13E2,1.7E1,5.9E1,5.4E1,8E0,9E0,3.9E1,2E1,4.2E1,1.2E1,3E0,5E0],"tree_param":{"num_deleted":"0","num_feature":"25","num_nodes":"21","size_leaf_vector":"1"}},{"base_weights":[-6.249005E-3,1.1687767E-1,-1.8836811E-2,2.3227628E-1,7.928693E-2,2.0810355E-1,3.4301143E-2,6.9611974E-2,1.3540325E-1,3.1316674E-1,1.8591756E-1,9.902426E-3,6.4703934E-2,1.0071148E-1,2.9565811E-2,1.8185005E-2,3.8185008E-2,1.5651889E-1,2.7086986E-2,7.1587086E-2,3.0193156E-2,1.7151086E-2,1.8938027E-1,1.121584E-2,1.753666E-2,1.8948434E-2,6.372069E-3,-5.60385E-4,9.876786E-3,-6.4484454E-3,5.269896E-3,2.0766288E-2,-1.5005469E-3],"categories":[],"categories_nodes":[],"categories_segments":[],"categories_sizes":[],"default_left":[0,0,0,0,0,0,0,0,0,0,0,0,0,0,0,0,0,0,0,0,0,0,0,0,0,0,0,0,0,0,0,0,0],"id":20,"left_children":[1,3,-1,5,7,9,-1,11,13,15,17,-1,19,21,-1,-1,-1,23,-1,25,27,29,31,-1,-1,-1,-1,-1,-1,-1,-1,-1,-1],"loss_changes":[1.0785401E1,1.2265658E0,0E0,1.1599231E-1,1.0893154E-1,8.1632614E-2,0E0,2.0731747E-2,1.4256907E-1,1.173389E-2,8.7472916E-2,0E0,3.6795616E-2,1.9680029E-1,0E0,0E0,0E0,1.4611006E-2,0E0,1.1405593E-1,7.1741775E-2,4.692781E-2,5.16932E-2,0E0,0E0,0E0,0E0,0E0,0E0,0E0,0E0,0E0,0E0],"parents":[2147483647,0,0,1,1,3,3,4,4,5,5,7,7,8,8,9,9,10,10,12,12,13,13,17,17,19,19,20,20,21,21,22,22],"right_children":[2,4,-1,6,8,10,-1,12,14,16,18,-1,20,22,-1,-1,-1,24,-1,26,28,30,32,-1,-1,-1,-1,-1,-1,-1,-1,-1,-1],"split_conditions":[8.4313726E-1,6E0,-1.8836811E-2,4E0,4E0,9E0,3.4301143E-2,2.3E1,4E1,6E0,3E1,9.902426E-3,3.5E1,7.5E1,2.9565811E-2,1.8185005E-2,3.8185008E-2,1E0,2.7086986E-2,2.5E1,3E0,2.5E1,6E0,1.121584E-2,1.753666E-2,1.8948434E-2,6.372069E-3,-5.60385E-4,9.876786E-3,-6.4484454E-3,5.269896E-3,2.0766288E-2,-1.5005469E-3],"split_indices":[23,20,0,0,0,2,0,20,19,1,1,0,19,20,0,0,0,0,0,20,0,20,0,0,0,0,0,0,0,0,0,0,0],"split_type":[0,0,0,0,0,0,0,0,0,0,0,0,0,0,0,0,0,0,0,0,0,0,0,0,0,0,0,0,0,0,0,0,0],"sum_hessian":[4.79E2,2.86E2,1.93E2,6.9E1,2.17E2,5.9E1,1E1,1.87E2,3E1,8E0,5.1E1,2.4E1,1.63E2,2.6E1,4E0,4E0,4E0,4E1,1.1E1,1.35E2,2.8E1,1.4E1,1.2E1,1.4E1,2.6E1,7E0,1.28E2,1.9E1,9E0,4E0,1E1,1.1E1,1E0],"tree_param":{"num_deleted":"0","num_feature":"25","num_nodes":"33","size_leaf_vector":"1"}},{"base_weights":[3.8478004E-3,1.2293487E-1,-1.6966408E-2,2.6344791E-2,7.4654005E-2,8.906125E-2,5.11253E-3,1.1067952E-1,5.4749504E-2,7.5506814E-2,1.4396456E-1,7.928032E-2,1.0309637E-2,-7.897547E-3,1.096348E-2,2.3013718E-2,8.871249E-3,1.0554399E-2,5.693102E-4,-1.0459713E-3,5.037553E-3],"categories":[],"categories_nodes":[],"categories_segments":[],"categories_sizes":[],"default_left":[0,0,0,0,0,0,0,0,0,0,0,0,0,0,0,0,0,0,0,0,0],"id":21,"left_children":[1,3,-1,-1,5,7,-1,9,11,13,15,17,19,-1,-1,-1,-1,-1,-1,-1,-1],"loss_changes":[1.0001097E1,1.9273663E0,0E0,0E0,6.832826E-2,9.1852784E-2,0E0,8.278763E-2,5.6960404E-2,2.248174E-1,1.7003262E-1,6.510991E-2,1.7169764E-2,0E0,0E0,0E0,0E0,0E0,0E0,0E0,0E0],"parents":[2147483647,0,0,1,1,4,4,5,5,7,7,8,8,9,9,10,10,11,11,12,12],"right_children":[2,4,-1,-1,6,8,-1,10,12,14,16,18,20,-1,-1,-1,-1,-1,-1,-1,-1],"split_conditions":[8.4313726E-1,9.90099E-2,-1.6966408E-2,2.6344791E-2,5.7425743E-1,7.818315E-1,5.11253E-3,1E1,1E1,3.5E1,1E0,2E0,2E0,-7.897547E-3,1.096348E-2,2.3013718E-2,8.871249E-3,1.0554399E-2,5.693102E-4,-1.0459713E-3,5.037553E-3],"split_indices":[23,23,0,0,23,5,0,21,21,19,0,0,0,0,0,0,0,0,0,0,0],"split_type":[0,0,0,0,0,0,0,0,0,0,0,0,0,0,0,0,0,0,0,0,0],"sum_hessian":[4.82E2,2.86E2,1.96E2,7.2E1,2.14E2,1.31E2,8.3E1,7.9E1,5.2E1,4E1,3.9E1,3.3E1,1.9E1,7E0,3.3E1,1.4E1,2.5E1,2.4E1,9E0,1.3E1,6E0],"tree_param":{"num_deleted":"0","num_feature":"25","num_nodes":"21","size_leaf_vector":"1"}},{"base_weights":[6.472849E-3,-6.326149E-2,1.6224837E-1,-1.4084958E-1,-4.5094308E-2,7.6372646E-2,2.557293E-1,1.2052552E-2,-1.5175255E-2,-1.3921174E-2,-4.084082E-2,4.7076948E-2,1.7699999E-1,1.819873E-1,3.110981E-1,-2.8455969E-2,-4.8964497E-2,6.2143035E-2,-3.2685916E-3,3.8321875E-3,2.1672234E-2,2.4322106E-2,1.0555223E-2,3.910763E-2,2.4814929E-1,-4.8026677E-2,3.568566E-3,-3.2665238E-2,-5.551404E-2,4.213326E-3,6.5773427E-3,3.9108E-3,-2.8367687E-3,1.9405553E-2,2.944369E-2,-2.188204E-3,-6.9064177E-3,-3.5353724E-3,2.588648E-3,-9.192614E-4,-6.0171094E-3,-8.085281E-3,-3.854825E-3],"categories":[],"categories_nodes":[],"categories_segments":[],"categories_sizes":[],"default_left":[0,0,0,0,0,0,0,0,0,0,0,0,0,0,0,0,0,0,0,0,0,0,0,0,0,0,0,0,0,0,0,0,0,0,0,0,0,0,0,0,0,0,0],"id":22,"left_children":[1,3,5,7,9,11,13,-1,-1,-1,15,17,19,21,23,25,27,29,31,-1,-1,-1,-1,-1,33,35,37,39,41,-1,-1,-1,-1,-1,-1,-1,-1,-1,-1,-1,-1,-1,-1],"loss_changes":[5.094103E0,4.503448E-1,1.1444919E0,1.9212592E-1,1.0000092E-1,2.1865943E-1,2.2511148E-1,0E0,0E0,0E0,2.4161756E-2,4.647225E-2,8.5341334E-2,1.2410045E-1,9.426689E-2,6.472589E-2,1.4413029E-2,6.429851E-4,1.7063614E-2,0E0,0E0,0E0,0E0,0E0,2.9556751E-3,3.3689857E-2,3.566176E-2,2.9146064E-2,4.2881757E-2,0E0,0E0,0E0,0E0,0E0,0E0,0E0,0E0,0E0,0E0,0E0,0E0,0E0,0E0],"parents":[2147483647,0,0,1,1,2,2,3,3,4,4,5,5,6,6,10,10,11,11,12,12,13,13,14,14,15,15,16,16,17,17,18,18,24,24,25,25,26,26,27,27,28,28],"right_children":[2,4,6,8,10,12,14,-1,-1,-1,16,18,20,22,24,26,28,30,32,-1,-1,-1,-1,-1,34,36,38,40,42,-1,-1,-1,-1,-1,-1,-1,-1,-1,-1,-1,-1,-1,-1],"split_conditions":[1E1,1E2,1E1,5E0,2.8E1,4E0,3E0,1.2052552E-2,-1.5175255E-2,-1.3921174E-2,3E0,3E0,1E2,3E0,2.8E1,3.5E1,3.4E1,1E2,1E2,3.8321875E-3,2.1672234E-2,2.4322106E-2,1.0555223E-2,3.910763E-2,1E0,3E0,3E0,1E0,1E0,4.213326E-3,6.5773427E-3,3.9108E-3,-2.8367687E-3,1.9405553E-2,2.944369E-2,-2.188204E-3,-6.9064177E-3,-3.5353724E-3,2.588648E-3,-9.192614E-4,-6.0171094E-3,-8.085281E-3,-3.854825E-3],"split_indices":[21,22,24,21,19,0,1,0,0,0,1,0,22,0,1,19,19,22,22,0,0,0,0,0,0,0,0,0,0,0,0,0,0,0,0,0,0,0,0,0,0,0,0],"split_type":[0,0,0,0,0,0,0,0,0,0,0,0,0,0,0,0,0,0,0,0,0,0,0,0,0,0,0,0,0,0,0,0,0,0,0,0,0,0,0,0,0,0,0],"sum_hessian":[4.67E2,3.23E2,1.44E2,6E1,2.63E2,7.6E1,6.8E1,2E0,5.8E1,1E1,2.53E2,6E1,1.6E1,3.1E1,3.7E1,1.02E2,1.51E2,4.6E1,1.4E1,4E0,1.2E1,1.6E1,1.5E1,1.4E1,2.3E1,6.3E1,3.9E1,4.5E1,1.06E2,9E0,3.7E1,5E0,9E0,1.3E1,1E1,2.9E1,3.4E1,1.4E1,2.5E1,2.5E1,2E1,4.1E1,6.5E1],"tree_param":{"num_deleted":"0","num_feature":"25","num_nodes":"43","size_leaf_vector":"1"}},{"base_weights":[4.9738406E-4,9.433689E-2,-1.449319E-2,2.0079915E-1,5.9220456E-2,1.8593604E-2,2.6766986E-2,4.201724E-2,8.685845E-2,8.293817E-3,5.843196E-2,1.6805133E-1,5.5837903E-2,-6.1041832E-2,2.6321782E-2,4.539398E-2,9.078537E-2,4.010197E-2,1.2676768E-1,-1.6563212E-2,6.2081486E-2,-5.276839E-4,-7.4323476E-3,6.9102305E-3,1.3118172E-4,3.669704E-3,5.547677E-3,4.529518E-3,1.2112516E-2,8.714688E-3,1.6163588E-2,3.8161364E-3,7.944383E-3],"categories":[],"categories_nodes":[],"categories_segments":[],"categories_sizes":[],"default_left":[0,0,0,0,0,0,0,0,0,0,0,0,0,0,0,0,0,0,0,0,0,0,0,0,0,0,0,0,0,0,0,0,0],"id":23,"left_children":[1,3,-1,5,7,-1,-1,9,11,13,15,17,19,21,23,25,27,-1,29,-1,31,-1,-1,-1,-1,-1,-1,-1,-1,-1,-1,-1,-1],"loss_changes":[6.64612E0,1.0947273E0,0E0,2.2785664E-2,1.02853954E-1,0E0,0E0,7.701385E-2,2.0470142E-1,6.035582E-2,3.553027E-2,1.7037272E-1,9.7396985E-2,7.0143156E-3,4.0567048E-2,4.0147305E-3,3.0397832E-2,0E0,1.49255395E-2,0E0,2.271749E-2,0E0,0E0,0E0,0E0,0E0,0E0,0E0,0E0,0E0,0E0,0E0,0E0],"parents":[2147483647,0,0,1,1,3,3,4,4,7,7,8,8,9,9,10,10,11,11,12,12,13,13,14,14,15,15,16,16,18,18,20,20],"right_children":[2,4,-1,6,8,-1,-1,10,12,14,16,18,20,22,24,26,28,-1,30,-1,32,-1,-1,-1,-1,-1,-1,-1,-1,-1,-1,-1,-1],"split_conditions":[8.4313726E-1,6E0,-1.449319E-2,3E1,7.818315E-1,1.8593604E-2,2.6766986E-2,4.3E1,2.4752475E-1,3.5E1,4E0,3.5E1,1E1,3.4E1,1E0,1E0,7.5E1,4.010197E-2,4E1,-1.6563212E-2,1.1E1,-5.276839E-4,-7.4323476E-3,6.9102305E-3,1.3118172E-4,3.669704E-3,5.547677E-3,4.529518E-3,1.2112516E-2,8.714688E-3,1.6163588E-2,3.8161364E-3,7.944383E-3],"split_indices":[23,20,0,1,5,0,0,20,23,19,0,19,20,19,0,0,20,0,19,0,1,0,0,0,0,0,0,0,0,0,0,0,0],"split_type":[0,0,0,0,0,0,0,0,0,0,0,0,0,0,0,0,0,0,0,0,0,0,0,0,0,0,0,0,0,0,0,0,0],"sum_hessian":[4.85E2,2.95E2,1.9E2,7.2E1,2.23E2,6.2E1,1E1,1.39E2,8.4E1,4.6E1,9.3E1,2.2E1,6.2E1,9E0,3.7E1,6.8E1,2.5E1,2E0,2E1,1E0,6.1E1,2E0,7E0,1.3E1,2.4E1,3.9E1,2.9E1,1.1E1,1.4E1,1.1E1,9E0,2.7E1,3.4E1],"tree_param":{"num_deleted":"0","num_feature":"25","num_nodes":"33","size_leaf_vector":"1"}},{"base_weights":[1.4522553E-2,1.0309405E-1,-1.3044779E-2,2.3529263E-1,6.050195E-2,2.2007142E-1,3.1907994E-2,7.069926E-2,4.3359683E-3,1.8705202E-2,2.4827732E-1,6.353469E-2,1.1373652E-1,1.4256756E-2,2.6257291E-2,6.462982E-2,-3.5583258E-3,1.7803583E-1,2.2511085E-2,8.80945E-3,5.805157E-3,3.769188E-2,9.195975E-3,-2.4520794E-3,8.743114E-3],"categories":[],"categories_nodes":[],"categories_segments":[],"categories_sizes":[],"default_left":[0,0,0,0,0,0,0,0,0,0,0,0,0,0,0,0,0,0,0,0,0,0,0,0,0],"id":24,"left_children":[1,3,-1,5,7,9,-1,11,-1,-1,13,15,17,-1,-1,19,-1,21,23,-1,-1,-1,-1,-1,-1],"loss_changes":[6.2281246E0,1.6805792E0,0E0,2.28796E-2,3.6964834E-2,1.40964985E-2,0E0,3.655857E-2,0E0,0E0,1.0923505E-2,1.5759647E-2,1.0744114E-1,0E0,0E0,1.3871849E-2,0E0,1.5364835E-1,2.962369E-2,0E0,0E0,0E0,0E0,0E0,0E0],"parents":[2147483647,0,0,1,1,3,3,4,4,5,5,7,7,10,10,11,11,12,12,15,15,17,17,18,18],"right_children":[2,4,-1,6,8,10,-1,12,-1,-1,14,16,18,-1,-1,20,-1,22,24,-1,-1,-1,-1,-1,-1],"split_conditions":[8.4313726E-1,6E0,-1.3044779E-2,4E0,5.7425743E-1,7.818315E-1,3.1907994E-2,9.749279E-1,4.3359683E-3,1.8705202E-2,9E0,6E0,3.5E1,1.4256756E-2,2.6257291E-2,2.3E1,-3.5583258E-3,2.5E1,4E1,8.80945E-3,5.805157E-3,3.769188E-2,9.195975E-3,-2.4520794E-3,8.743114E-3],"split_indices":[23,20,0,0,23,5,0,5,0,0,2,0,19,0,0,20,0,20,19,0,0,0,0,0,0],"split_type":[0,0,0,0,0,0,0,0,0,0,0,0,0,0,0,0,0,0,0,0,0,0,0,0,0],"sum_hessian":[4.83E2,3E2,1.83E2,7.2E1,2.28E2,6.4E1,8E0,1.41E2,8.7E1,3.3E1,3.1E1,1.23E2,1.8E1,5E0,2.6E1,1.22E2,1E0,1E1,8E0,2.4E1,9.8E1,2E0,8E0,5E0,3E0],"tree_param":{"num_deleted":"0","num_feature":"25","num_nodes":"25","size_leaf_vector":"1"}},{"base_weights":[-4.1620806E-3,7.3299706E-2,-1.1702518E-2,1.4501616E-1,4.894832E-2,1.20187394E-1,2.2595692E-2,3.8049374E-2,8.7792374E-2,6.0688704E-3,1.3953139E-1,6.0263243E-2,1.7140482E-2,1.173504E-1,5.1847033E-2,1.8216686E-1,1.12667136E-1,4.926358E-2,1.2123927E-1,4.096521E-2,-7.404483E-2,2.130689E-2,5.977294E-3,3.3255578E-3,5.790232E-3,2.0810967E-2,8.865929E-3,8.398938E-3,1.4629483E-2,3.66428E-3,7.62816E-3,4.7869137E-3,1.8663121E-2,1.577158E-2,3.177818E-3,-3.6890325E-4,-1.9412776E-2],"categories":[],"categories_nodes":[],"categories_segments":[],"categories_sizes":[],"default_left":[0,0,0,0,0,0,0,0,0,0,0,0,0,0,0,0,0,0,0,0,0,0,0,0,0,0,0,0,0,0,0,0,0,0,0,0,0],"id":25,"left_children":[1,3,-1,5,7,9,-1,11,13,-1,15,17,19,21,23,25,27,29,31,33,35,-1,-1,-1,-1,-1,-1,-1,-1,-1,-1,-1,-1,-1,-1,-1,-1],"loss_changes":[4.2749553E0,4.9935627E-1,0E0,1.1954796E-1,8.8951886E-2,5.8286786E-2,0E0,7.885544E-2,4.385194E-2,0E0,2.8726637E-2,4.9696684E-2,1.9855514E-1,1.2504494E-1,6.6369027E-4,1.7936915E-2,1.5679419E-2,2.1756008E-2,4.863991E-2,7.2214656E-2,1.5980592E-1,0E0,0E0,0E0,0E0,0E0,0E0,0E0,0E0,0E0,0E0,0E0,0E0,0E0,0E0,0E0,0E0],"parents":[2147483647,0,0,1,1,3,3,4,4,5,5,7,7,8,8,10,10,11,11,12,12,13,13,14,14,15,15,16,16,17,17,18,18,19,19,20,20],"right_children":[2,4,-1,6,8,10,-1,12,14,-1,16,18,20,22,24,26,28,30,32,34,36,-1,-1,-1,-1,-1,-1,-1,-1,-1,-1,-1,-1,-1,-1,-1,-1],"split_conditions":[8.4313726E-1,6E0,-1.1702518E-2,9.749279E-1,3E1,3E0,2.2595692E-2,-2.2252093E-1,4.3E1,6.0688704E-3,2.7E1,4E1,3.5E1,3.5E1,7.5E1,4.3388373E-1,1E0,7.5E1,4E0,2.5E1,1E0,2.130689E-2,5.977294E-3,3.3255578E-3,5.790232E-3,2.0810967E-2,8.865929E-3,8.398938E-3,1.4629483E-2,3.66428E-3,7.62816E-3,4.7869137E-3,1.8663121E-2,1.577158E-2,3.177818E-3,-3.6890325E-4,-1.9412776E-2],"split_indices":[23,20,0,5,1,1,0,6,20,0,1,19,19,19,20,5,0,20,0,20,0,0,0,0,0,0,0,0,0,0,0,0,0,0,0,0,0],"split_type":[0,0,0,0,0,0,0,0,0,0,0,0,0,0,0,0,0,0,0,0,0,0,0,0,0,0,0,0,0,0,0,0,0,0,0,0,0],"sum_hessian":[4.87E2,2.89E2,1.98E2,7.2E1,2.17E2,5.7E1,1.5E1,1.71E2,4.6E1,1.5E1,4.2E1,8.2E1,8.9E1,2.4E1,2.2E1,1.4E1,2.8E1,7.1E1,1.1E1,7.1E1,1.8E1,8E0,1.6E1,7E0,1.5E1,1E1,4E0,1.7E1,1.1E1,5E1,2.1E1,6E0,5E0,4E0,6.7E1,1.2E1,6E0],"tree_param":{"num_deleted":"0","num_feature":"25","num_nodes":"37","size_leaf_vector":"1"}},{"base_weights":[1.3112971E-2,9.023704E-2,-1.0535377E-2,1.7609392E-1,5.7449237E-2,1.12255765E-2,1.9204464E-2,8.584425E-2,4.2629674E-2,1.3453823E-1,7.44854E-2,3.5613046E-3,5.2268077E-2,-3.4436226E-2,3.0925205E-2,9.423205E-2,1.5526772E-2,2.65428E-3,5.482425E-2,7.574034E-3,-1.3600374E-2,6.6463905E-3,1.3442476E-2,6.043498E-3,-3.6935806E-3,3.977516E-3,6.013743E-3],"categories":[],"categories_nodes":[],"categories_segments":[],"categories_sizes":[],"default_left":[0,0,0,0,0,0,0,0,0,0,0,0,0,0,0,0,0,0,0,0,0,0,0,0,0,0,0],"id":26,"left_children":[1,3,-1,5,7,-1,-1,9,11,13,15,-1,17,19,-1,21,23,-1,25,-1,-1,-1,-1,-1,-1,-1,-1],"loss_changes":[4.2854533E0,7.893598E-1,0E0,5.7866335E-2,8.344644E-2,0E0,0E0,2.8696418E-2,7.4713826E-3,3.6491555E-1,6.722677E-2,0E0,2.2272915E-3,8.863348E-2,0E0,4.0172994E-2,3.992822E-2,0E0,1.6059428E-3,0E0,0E0,0E0,0E0,0E0,0E0,0E0,0E0],"parents":[2147483647,0,0,1,1,3,3,4,4,7,7,8,8,9,9,10,10,12,12,13,13,15,15,16,16,18,18],"right_children":[2,4,-1,6,8,-1,-1,10,12,14,16,-1,18,20,-1,22,24,-1,26,-1,-1,-1,-1,-1,-1,-1,-1],"split_conditions":[8.4313726E-1,1E1,-1.0535377E-2,2E0,4.3E1,1.12255765E-2,1.9204464E-2,3.5E1,7.5E1,3E1,3E1,3.5613046E-3,2E0,2.5E1,3.0925205E-2,4E1,4E1,2.65428E-3,1E0,7.574034E-3,-1.3600374E-2,6.6463905E-3,1.3442476E-2,6.043498E-3,-3.6935806E-3,3.977516E-3,6.013743E-3],"split_indices":[23,20,0,1,20,0,0,19,20,1,1,0,1,20,0,19,19,0,0,0,0,0,0,0,0,0,0],"split_type":[0,0,0,0,0,0,0,0,0,0,0,0,0,0,0,0,0,0,0,0,0,0,0,0,0,0,0],"sum_hessian":[4.67E2,2.83E2,1.84E2,7.7E1,2.06E2,1.7E1,6E1,6.9E1,1.37E2,1.1E1,5.8E1,8.2E1,5.5E1,6E0,5E0,4.3E1,1.5E1,6E0,4.9E1,3E0,3E0,2.7E1,1.6E1,8E0,7E0,1.5E1,3.4E1],"tree_param":{"num_deleted":"0","num_feature":"25","num_nodes":"27","size_leaf_vector":"1"}},{"base_weights":[6.5062023E-3,7.8194655E-2,-9.508434E-3,1.364211E-1,5.8960535E-2,1.7307797E-1,7.394527E-2,2.999734E-2,7.323667E-2,1.2652786E-1,2.7434919E-2,4.041784E-3,1.1528036E-2,-1.376356E-2,3.551023E-2,9.395357E-2,3.1581149E-3,1.0165371E-2,1.4794165E-2,8.535153E-3,-7.754636E-2,6.498615E-2,2.221175E-2,9.573225E-2,-3.8399815E-3,-2.6043893E-3,-9.678662E-3,1.1720613E-2,2.785184E-3,-1.4331753E-2,3.2753441E-3,7.3232264E-3,1.0583798E-2],"categories":[],"categories_nodes":[],"categories_segments":[],"categories_sizes":[],"default_left":[0,0,0,0,0,0,0,0,0,0,0,0,0,0,0,0,0,0,0,0,0,0,0,0,0,0,0,0,0,0,0,0,0],"id":27,"left_children":[1,3,-1,5,7,9,11,13,15,17,-1,-1,-1,19,21,23,-1,-1,-1,-1,25,27,29,31,-1,-1,-1,-1,-1,-1,-1,-1,-1],"loss_changes":[3.5906062E0,3.156178E-1,0E0,1.4980364E-1,8.835572E-2,1.7271137E-1,3.414467E-2,1.8341176E-2,1.2302697E-1,2.0059943E-3,0E0,0E0,0E0,6.351523E-2,2.4427548E-2,2.6511312E-2,0E0,0E0,0E0,0E0,3.424827E-3,3.5518646E-2,8.670721E-2,1.4077604E-2,0E0,0E0,0E0,0E0,0E0,0E0,0E0,0E0,0E0],"parents":[2147483647,0,0,1,1,3,3,4,4,5,5,6,6,7,7,8,8,9,9,13,13,14,14,15,15,20,20,21,21,22,22,23,23],"right_children":[2,4,-1,6,8,10,12,14,16,18,-1,-1,-1,20,22,24,-1,-1,-1,-1,26,28,30,32,-1,-1,-1,-1,-1,-1,-1,-1,-1],"split_conditions":[8.4313726E-1,6E0,-9.508434E-3,2.8E1,3E0,3E0,1E0,2.3E1,5.7425743E-1,3E0,2.7434919E-2,4.041784E-3,1.1528036E-2,3E0,2.5E1,6E0,3.1581149E-3,1.0165371E-2,1.4794165E-2,8.535153E-3,1E1,3E0,4.3E1,1E0,-3.8399815E-3,-2.6043893E-3,-9.678662E-3,1.1720613E-2,2.785184E-3,-1.4331753E-2,3.2753441E-3,7.3232264E-3,1.0583798E-2],"split_indices":[23,20,0,1,1,1,0,20,23,0,0,0,0,0,20,0,0,0,0,0,20,0,20,0,0,0,0,0,0,0,0,0,0],"split_type":[0,0,0,0,0,0,0,0,0,0,0,0,0,0,0,0,0,0,0,0,0,0,0,0,0,0,0,0,0,0,0,0,0],"sum_hessian":[4.91E2,2.88E2,2.03E2,7E1,2.18E2,4.3E1,2.7E1,7.3E1,1.45E2,3.1E1,1.2E1,1.6E1,1.1E1,8E0,6.5E1,9.6E1,4.9E1,1.7E1,1.4E1,3E0,5E0,1.9E1,4.6E1,9.5E1,1E0,2E0,3E0,7E0,1.2E1,2E0,4.4E1,3.2E1,6.3E1],"tree_param":{"num_deleted":"0","num_feature":"25","num_nodes":"33","size_leaf_vector":"1"}},{"base_weights":[-1.447893E-3,5.691774E-2,-8.54746E-3,1.2439337E-1,3.237272E-2,1.03138015E-1,1.8834407E-2,-2.4912383E-2,4.0928226E-2,4.6714544E-3,1.18746884E-1,-1.1320699E-1,3.3684857E-2,3.163145E-2,5.8985654E-2,4.4255066E-3,1.2508969E-1,-2.430757E-3,-1.3026158E-2,-1.8730296E-2,5.920303E-2,2.0398969E-2,8.022926E-2,1.1881143E-1,1.116845E-3,1.634304E-2,1.0282117E-2,3.2329664E-3,8.203519E-3,-2.5455817E-3,2.7711536E-3,1.1685271E-2,2.4595857E-3,-3.647983E-3,1.2566039E-2,1.5336284E-2,-2.7118223E-3],"categories":[],"categories_nodes":[],"categories_segments":[],"categories_sizes":[],"default_left":[0,0,0,0,0,0,0,0,0,0,0,0,0,0,0,0,0,0,0,0,0,0,0,0,0,0,0,0,0,0,0,0,0,0,0,0,0],"id":28,"left_children":[1,3,-1,5,7,9,-1,11,13,-1,15,17,19,21,23,-1,25,-1,-1,-1,27,29,31,33,35,-1,-1,-1,-1,-1,-1,-1,-1,-1,-1,-1,-1],"loss_changes":[2.285351E0,4.5142543E-1,0E0,7.980311E-2,1.0051057E-1,4.4653118E-2,0E0,1.4350653E-1,2.7848244E-2,0E0,1.5253603E-2,1.3511226E-2,1.0695537E-1,6.332241E-2,2.04128E-1,0E0,1.7347515E-2,0E0,0E0,0E0,7.1650594E-3,3.3566393E-2,4.195063E-2,3.5428017E-2,1.374179E-1,0E0,0E0,0E0,0E0,0E0,0E0,0E0,0E0,0E0,0E0,0E0,0E0],"parents":[2147483647,0,0,1,1,3,3,4,4,5,5,7,7,8,8,10,10,11,11,12,12,13,13,14,14,16,16,20,20,21,21,22,22,23,23,24,24],"right_children":[2,4,-1,6,8,10,-1,12,14,-1,16,18,20,22,24,-1,26,-1,-1,-1,28,30,32,34,36,-1,-1,-1,-1,-1,-1,-1,-1,-1,-1,-1,-1],"split_conditions":[8.4313726E-1,6E0,-8.54746E-3,9.749279E-1,2.3E1,3E0,1.8834407E-2,3E0,7.5E1,4.6714544E-3,3.3E1,3.4E1,3.4E1,3E1,4.3388373E-1,4.4255066E-3,2.7E1,-2.430757E-3,-1.3026158E-2,-1.8730296E-2,3E1,0E0,4.3E1,4E1,2E0,1.634304E-2,1.0282117E-2,3.2329664E-3,8.203519E-3,-2.5455817E-3,2.7711536E-3,1.1685271E-2,2.4595857E-3,-3.647983E-3,1.2566039E-2,1.5336284E-2,-2.7118223E-3],"split_indices":[23,20,0,5,20,1,0,1,20,0,4,19,19,1,5,0,1,0,0,0,1,5,20,4,1,0,0,0,0,0,0,0,0,0,0,0,0],"split_type":[0,0,0,0,0,0,0,0,0,0,0,0,0,0,0,0,0,0,0,0,0,0,0,0,0,0,0,0,0,0,0,0,0,0,0,0,0],"sum_hessian":[4.64E2,2.74E2,1.9E2,7.2E1,2.02E2,5.6E1,1.6E1,2.6E1,1.76E2,1.3E1,4.3E1,1E1,1.6E1,1.18E2,5.8E1,4E0,3.9E1,2E0,8E0,1E0,1.5E1,9.7E1,2.1E1,2.8E1,3E1,1.2E1,2.7E1,8E0,7E0,1.3E1,8.4E1,1.2E1,9E0,1E0,2.7E1,4E0,2.6E1],"tree_param":{"num_deleted":"0","num_feature":"25","num_nodes":"37","size_leaf_vector":"1"}},{"base_weights":[5.3656613E-3,6.0423177E-2,-7.69618E-3,1.12388775E-1,3.412567E-2,5.4168537E-2,1.4798166E-1,5.92599E-2,2.9473122E-2,8.0744445E-2,-2.8318454E-2,1.0983405E-2,1.6617286E-1,1.4029195E-2,2.3030607E-2,2.1028794E-2,6.2357303E-2,9.299914E-3,6.310679E-3,8.871985E-3,-9.1152E-3,3.1086827E-2,1.8115103E-2,4.9479656E-2,-5.364948E-4,1.1310872E-2,6.021299E-2,8.5731186E-2,-8.568267E-3,-2.433002E-3,1.2637711E-2,2.4492443E-2,-2.3915211E-3,-1.3561042E-2,2.4823397E-3,2.6220388E-3,-1.4318079E-3,1.5986506E-3,1.10478345E-2,1.2082006E-2,2.595361E-3],"categories":[],"categories_nodes":[],"categories_segments":[],"categories_sizes":[],"default_left":[0,0,0,0,0,0,0,0,0,0,0,0,0,0,0,0,0,0,0,0,0,0,0,0,0,0,0,0,0,0,0,0,0,0,0,0,0,0,0,0,0],"id":29,"left_children":[1,3,-1,5,7,9,11,13,15,17,19,-1,21,23,-1,25,27,-1,-1,-1,-1,29,-1,31,33,35,37,39,-1,-1,-1,-1,-1,-1,-1,-1,-1,-1,-1,-1,-1],"loss_changes":[2.1713026E0,3.8836896E-1,0E0,1.9091773E-1,2.070558E-2,8.5588895E-2,2.2691846E-2,2.2112861E-1,4.4229E-2,3.9929152E-4,8.162629E-2,0E0,7.1255445E-2,1.2419194E-2,0E0,4.958308E-2,1.2153457E-1,0E0,0E0,0E0,0E0,2.9478189E-2,0E0,1.0626992E-1,6.50246E-2,4.1261755E-2,5.6033403E-2,5.7692587E-2,0E0,0E0,0E0,0E0,0E0,0E0,0E0,0E0,0E0,0E0,0E0,0E0,0E0],"parents":[2147483647,0,0,1,1,3,3,4,4,5,5,6,6,7,7,8,8,9,9,10,10,12,12,13,13,15,15,16,16,21,21,23,23,24,24,25,25,26,26,27,27],"right_children":[2,4,-1,6,8,10,12,14,16,18,20,-1,22,24,-1,26,28,-1,-1,-1,-1,30,-1,32,34,36,38,40,-1,-1,-1,-1,-1,-1,-1,-1,-1,-1,-1,-1,-1],"split_conditions":[8.4313726E-1,2.2772278E-1,-7.69618E-3,3E0,2E0,3.4E1,1E0,2E2,3.5E1,3E0,3E0,1.0983405E-2,9E0,2.4752475E-1,2.3030607E-2,1E0,4E0,9.299914E-3,6.310679E-3,8.871985E-3,-9.1152E-3,2E0,1.8115103E-2,3.5E1,2.857143E-1,2E2,2E2,3E1,-8.568267E-3,-2.433002E-3,1.2637711E-2,2.4492443E-2,-2.3915211E-3,-1.3561042E-2,2.4823397E-3,2.6220388E-3,-1.4318079E-3,1.5986506E-3,1.10478345E-2,1.2082006E-2,2.595361E-3],"split_indices":[23,23,0,1,1,19,0,22,19,0,0,0,2,23,0,11,0,0,0,0,0,0,0,19,23,22,22,1,0,0,0,0,0,0,0,0,0,0,0,0,0],"split_type":[0,0,0,0,0,0,0,0,0,0,0,0,0,0,0,0,0,0,0,0,0,0,0,0,0,0,0,0,0,0,0,0,0,0,0,0,0,0,0,0,0],"sum_hessian":[4.77E2,2.86E2,1.91E2,9.5E1,1.91E2,3.7E1,5.8E1,2.8E1,1.63E2,2.8E1,9E0,2.1E1,3.7E1,2.3E1,5E0,1.31E2,3.2E1,1.4E1,1.4E1,3E0,6E0,4E0,3.3E1,6E0,1.7E1,1.06E2,2.5E1,2.8E1,4E0,3E0,1E0,1E0,5E0,2E0,1.5E1,6.7E1,3.9E1,1.4E1,1.1E1,1.7E1,1.1E1],"tree_param":{"num_deleted":"0","num_feature":"25","num_nodes":"41","size_leaf_vector":"1"}},{"base_weights":[5.670457E-3,5.6041475E-2,-6.9275624E-3,9.187067E-2,4.28437E-2,1.2825534E-2,6.377144E-2,3.4764417E-2,9.1776446E-2,3.531467E-2,1.1023802E-2,4.710178E-2,1.6919872E-2,1.5191115E-1,2.1514322E-3,7.868234E-3,6.065896E-3,7.365058E-2,3.2636628E-2,2.5885796E-2,-1.5199184E-5,2.230602E-1,5.2879572E-2,-2.2505403E-3,1.2829602E-3,1.2154451E-2,5.4595764E-3,4.16572E-3,2.323196E-3,2.0550664E-3,3.452517E-3,-4.1581965E-3,2.1862846E-3,3.1023756E-2,1.5383275E-2,1.8954659E-3,8.206583E-3],"categories":[],"categories_nodes":[],"categories_segments":[],"categories_sizes":[],"default_left":[0,0,0,0,0,0,0,0,0,0,0,0,0,0,0,0,0,0,0,0,0,0,0,0,0,0,0,0,0,0,0,0,0,0,0,0,0],"id":30,"left_children":[1,3,-1,5,7,-1,9,11,13,15,-1,17,19,21,-1,-1,23,25,27,29,31,33,35,-1,-1,-1,-1,-1,-1,-1,-1,-1,-1,-1,-1,-1,-1],"loss_changes":[1.8499113E0,1.3461363E-1,0E0,7.15667E-2,8.220318E-2,0E0,5.693227E-2,4.0371984E-2,1.234875E-1,3.7576262E-2,0E0,3.9839864E-2,1.1843802E-2,1.00940704E-1,0E0,0E0,3.9604446E-3,2.8043374E-2,5.225219E-3,1.6411878E-3,2.637229E-2,6.5909326E-3,6.3655972E-3,0E0,0E0,0E0,0E0,0E0,0E0,0E0,0E0,0E0,0E0,0E0,0E0,0E0,0E0],"parents":[2147483647,0,0,1,1,3,3,4,4,6,6,7,7,8,8,9,9,11,11,12,12,13,13,16,16,17,17,18,18,19,19,20,20,21,21,22,22],"right_children":[2,4,-1,6,8,-1,10,12,14,16,-1,18,20,22,-1,-1,24,26,28,30,32,34,36,-1,-1,-1,-1,-1,-1,-1,-1,-1,-1,-1,-1,-1,-1],"split_conditions":[8.4313726E-1,9.90099E-2,-6.9275624E-3,4.3388373E-1,9.749279E-1,1.2825534E-2,9.749279E-1,-8.660254E-1,5.7425743E-1,-8.660254E-1,1.1023802E-2,3.7313432E-1,4E0,3.5E1,2.1514322E-3,7.868234E-3,2E0,3.5E1,5.7425743E-1,3.5E1,2.857143E-1,2.4752475E-1,4E1,-2.2505403E-3,1.2829602E-3,1.2154451E-2,5.4595764E-3,4.16572E-3,2.323196E-3,2.0550664E-3,3.452517E-3,-4.1581965E-3,2.1862846E-3,3.1023756E-2,1.5383275E-2,1.8954659E-3,8.206583E-3],"split_indices":[23,23,0,5,5,0,5,7,23,7,0,23,0,19,0,0,0,19,23,19,23,23,19,0,0,0,0,0,0,0,0,0,0,0,0,0,0],"split_type":[0,0,0,0,0,0,0,0,0,0,0,0,0,0,0,0,0,0,0,0,0,0,0,0,0,0,0,0,0,0,0,0,0,0,0,0,0],"sum_hessian":[4.88E2,2.92E2,1.96E2,7.7E1,2.15E2,3.2E1,4.5E1,1.86E2,2.9E1,2.9E1,1.6E1,1.09E2,7.7E1,1.5E1,1.4E1,1.1E1,1.8E1,3.7E1,7.2E1,5E1,2.7E1,8E0,7E0,3E0,1.5E1,9E0,2.8E1,3.5E1,3.7E1,3.3E1,1.7E1,9E0,1.8E1,2E0,6E0,4E0,3E0],"tree_param":{"num_deleted":"0","num_feature":"25","num_nodes":"37","size_leaf_vector":"1"}},{"base_weights":[-3.3490758E-3,3.721789E-2,-6.2543536E-3,1.1443638E-1,1.2940541E-2,1.9109044E-2,9.9753425E-2,2.6686793E-2,-3.0065218E-2,2.9164601E-2,1.0427469E-1,-1.12016976E-1,2.988757E-2,-7.922207E-2,2.202578E-3,-2.08174E-3,1.145463E-2,8.0852255E-2,1.34365475E-2,-2.5805316E-3,-1.8532598E-2,5.9150763E-2,1.7016474E-2,-6.776206E-3,-1.5213474E-2,1.0470039E-2,4.7479332E-3,2.7828906E-2,2.294352E-3,1.1083017E-4,7.487789E-3],"categories":[],"categories_nodes":[],"categories_segments":[],"categories_sizes":[],"default_left":[0,0,0,0,0,0,0,0,0,0,0,0,0,0,0,0,0,0,0,0,0,0,0,0,0,0,0,0,0,0,0],"id":31,"left_children":[1,3,-1,5,7,-1,9,11,13,15,17,19,21,23,-1,-1,-1,25,-1,-1,-1,27,29,-1,-1,-1,-1,-1,-1,-1,-1],"loss_changes":[1.1693788E0,5.402959E-1,0E0,5.859804E-2,1.3145049E-1,0E0,1.6107857E-2,7.793318E-2,1.400189E-1,2.3722295E-2,2.8605044E-2,2.0497974E-2,6.114061E-2,1.3087258E-2,0E0,0E0,0E0,2.2088885E-2,0E0,0E0,0E0,3.9033473E-1,1.06691465E-1,0E0,0E0,0E0,0E0,0E0,0E0,0E0,0E0],"parents":[2147483647,0,0,1,1,3,3,4,4,6,6,7,7,8,8,9,9,10,10,11,11,12,12,13,13,17,17,21,21,22,22],"right_children":[2,4,-1,6,8,-1,10,12,14,16,18,20,22,24,-1,-1,-1,26,-1,-1,-1,28,30,-1,-1,-1,-1,-1,-1,-1,-1],"split_conditions":[8.4313726E-1,6E0,-6.2543536E-3,0E0,1E0,1.9109044E-2,3.3E1,1E1,5.7425743E-1,6E0,7.818315E-1,3E0,2.5E1,4E1,2.202578E-3,-2.08174E-3,1.145463E-2,2.7E1,1.34365475E-2,-2.5805316E-3,-1.8532598E-2,2E0,1E0,-6.776206E-3,-1.5213474E-2,1.0470039E-2,4.7479332E-3,2.7828906E-2,2.294352E-3,1.1083017E-4,7.487789E-3],"split_indices":[23,20,0,5,6,0,4,20,23,1,5,1,20,19,0,0,0,1,0,0,0,1,11,0,0,0,0,0,0,0,0],"split_type":[0,0,0,0,0,0,0,0,0,0,0,0,0,0,0,0,0,0,0,0,0,0,0,0,0,0,0,0,0,0,0],"sum_hessian":[4.85E2,2.88E2,1.97E2,6.8E1,2.2E2,9E0,5.9E1,1.67E2,5.3E1,4E0,5.5E1,3E0,1.64E2,2.7E1,2.6E1,3E0,1E0,3.3E1,2.2E1,2E0,1E0,4.9E1,1.15E2,2.5E1,2E0,1.8E1,1.5E1,6E0,4.3E1,9.1E1,2.4E1],"tree_param":{"num_deleted":"0","num_feature":"25","num_nodes":"31","size_leaf_vector":"1"}},{"base_weights":[-4.5777857E-3,6.813078E-2,-3.351902E-2,9.476256E-2,2.8868752E-2,6.3752953E-4,-5.6405365E-2,1.4287588E-1,7.743421E-2,1.0097403E-2,4.3681215E-2,-1.4978866E-1,7.470254E-3,-4.971559E-3,-5.9196088E-3,2.0141644E-2,-7.302904E-3,7.271513E-2,1.4443143E-2,-4.9934343E-2,9.649836E-2,1.0116327E-1,-3.4537846E-3,-4.311383E-3,-1.6250087E-2,-1.4326365E-3,6.393482E-2,7.798602E-3,-1.9255996E-3,-4.160748E-3,-8.741868E-3,5.416213E-3,1.9134093E-2,7.3552798E-3,2.3004973E-2,-1.1105346E-3,5.4317055E-4,2.0298898E-2,-2.815159E-2,1.7968707E-3,9.891083E-3,2.1855647E-3,1.4262677E-3,-1.3513112E-2,-1.3895659E-3],"categories":[],"categories_nodes":[],"categories_segments":[],"categories_sizes":[],"default_left":[0,0,0,0,0,0,0,0,0,0,0,0,0,0,0,0,0,0,0,0,0,0,0,0,0,0,0,0,0,0,0,0,0,0,0,0,0,0,0,0,0,0,0,0,0],"id":32,"left_children":[1,3,5,7,9,11,13,15,17,19,21,23,25,-1,-1,-1,-1,27,-1,29,31,33,35,-1,-1,37,39,-1,-1,-1,-1,-1,-1,-1,-1,-1,-1,41,43,-1,-1,-1,-1,-1,-1],"loss_changes":[9.9760604E-1,1.3842273E-1,2.650385E-1,5.563444E-2,1.512973E-2,1.4193039E-1,8.469224E-4,2.6749313E-1,8.783728E-3,1.3967538E-1,8.43413E-2,1.1304021E-3,6.644771E-2,0E0,0E0,0E0,0E0,3.0103087E-2,0E0,1.3567619E-3,3.380461E-2,3.2899827E-2,1.2841028E-3,0E0,0E0,6.7345485E-2,2.7161501E-2,0E0,0E0,0E0,0E0,0E0,0E0,0E0,0E0,0E0,0E0,2.8968044E-4,7.742709E-2,0E0,0E0,0E0,0E0,0E0,0E0],"parents":[2147483647,0,0,1,1,2,2,3,3,4,4,5,5,6,6,7,7,8,8,9,9,10,10,11,11,12,12,17,17,19,19,20,20,21,21,22,22,25,25,26,26,37,37,38,38],"right_children":[2,4,6,8,10,12,14,16,18,20,22,24,26,-1,-1,-1,-1,28,-1,30,32,34,36,-1,-1,38,40,-1,-1,-1,-1,-1,-1,-1,-1,-1,-1,42,44,-1,-1,-1,-1,-1,-1],"split_conditions":[2.4752475E-1,2.8E1,8.4313726E-1,4.3388373E-1,3E1,4.3E1,1E2,2.3E1,6E0,3.5E1,3.5E1,5E0,1E0,-4.971559E-3,-5.9196088E-3,2.0141644E-2,-7.302904E-3,3E0,1.4443143E-2,3.4E1,4E1,3.4E1,4E1,-4.311383E-3,-1.6250087E-2,7.5E1,7.5E1,7.798602E-3,-1.9255996E-3,-4.160748E-3,-8.741868E-3,5.416213E-3,1.9134093E-2,7.3552798E-3,2.3004973E-2,-1.1105346E-3,5.4317055E-4,6.8E1,2E0,1.7968707E-3,9.891083E-3,2.1855647E-3,1.4262677E-3,-1.3513112E-2,-1.3895659E-3],"split_indices":[23,1,23,5,1,20,22,20,1,19,19,1,11,0,0,0,0,1,0,19,19,19,19,0,0,20,20,0,0,0,0,0,0,0,0,0,0,20,1,0,0,0,0,0,0],"split_type":[0,0,0,0,0,0,0,0,0,0,0,0,0,0,0,0,0,0,0,0,0,0,0,0,0,0,0,0,0,0,0,0,0,0,0,0,0,0,0,0,0,0,0,0,0],"sum_hessian":[4.72E2,1.34E2,3.38E2,7.9E1,5.5E1,1.36E2,2.02E2,1.9E1,6E1,2.5E1,3E1,5E0,1.31E2,6.5E1,1.37E2,1.5E1,4E0,5.8E1,2E0,1.5E1,1E1,1.3E1,1.7E1,1E0,4E0,1.14E2,1.7E1,5.5E1,3E0,1.4E1,1E0,8E0,2E0,1.2E1,1E0,9E0,8E0,6.3E1,5.1E1,8E0,9E0,4.8E1,1.5E1,5E0,4.6E1],"tree_param":{"num_deleted":"0","num_feature":"25","num_nodes":"45","size_leaf_vector":"1"}},{"base_weights":[7.6715276E-3,4.8097283E-2,-5.037779E-2,9.0706386E-2,3.34063E-2,-4.4836546E-3,-5.2892705E-3,7.7928565E-2,1.4368645E-2,4.1997403E-2,1.8959781E-2,1.0511333E-1,7.2458074E-3,2.862394E-2,6.0113586E-2,2.028614E-3,1.3494166E-3,4.7667315E-3,1.5064252E-2,3.5796873E-2,-1.4408012E-2,8.706123E-2,2.5671648E-2,1.2210226E-3,4.838481E-3,-1.74092E-2,5.816354E-3,2.7859984E-2,6.424478E-3,-6.431243E-4,7.7679395E-3],"categories":[],"categories_nodes":[],"categories_segments":[],"categories_sizes":[],"default_left":[0,0,0,0,0,0,0,0,0,0,0,0,0,0,0,0,0,0,0,0,0,0,0,0,0,0,0,0,0,0,0],"id":33,"left_children":[1,3,5,7,9,-1,-1,11,-1,13,15,17,-1,19,21,-1,-1,-1,-1,23,25,27,29,-1,-1,-1,-1,-1,-1,-1,-1],"loss_changes":[1.1429132E0,1.7662317E-1,4.156232E-4,3.822148E-2,2.5887728E-2,0E0,0E0,1.4552474E-3,0E0,3.0744314E-2,3.2070093E-4,1.37430355E-2,0E0,2.4900317E-2,4.974021E-2,0E0,0E0,0E0,0E0,1.9598909E-2,1.4918798E-1,1.1757855E-1,4.390915E-2,0E0,0E0,0E0,0E0,0E0,0E0,0E0,0E0],"parents":[2147483647,0,0,1,1,2,2,3,3,4,4,7,7,9,9,10,10,11,11,13,13,14,14,19,19,20,20,21,21,22,22],"right_children":[2,4,6,8,10,-1,-1,12,-1,14,16,18,-1,20,22,-1,-1,-1,-1,24,26,28,30,-1,-1,-1,-1,-1,-1,-1,-1],"split_conditions":[8.4313726E-1,9.90099E-2,1E2,3E1,5.7425743E-1,-4.4836546E-3,-5.2892705E-3,3.9E1,1.4368645E-2,7.818315E-1,1E1,6E0,7.2458074E-3,4E1,3.5E1,2.028614E-3,1.3494166E-3,4.7667315E-3,1.5064252E-2,3E0,1E0,2.4752475E-1,4E1,1.2210226E-3,4.838481E-3,-1.74092E-2,5.816354E-3,2.7859984E-2,6.424478E-3,-6.431243E-4,7.7679395E-3],"split_indices":[23,23,22,1,23,0,0,4,0,5,21,1,0,19,19,0,0,0,0,1,0,23,19,0,0,0,0,0,0,0,0],"split_type":[0,0,0,0,0,0,0,0,0,0,0,0,0,0,0,0,0,0,0,0,0,0,0,0,0,0,0,0,0,0,0],"sum_hessian":[4.85E2,2.86E2,1.99E2,7.2E1,2.14E2,6.8E1,1.31E2,6E1,1.2E1,1.33E2,8.1E1,7E0,5.3E1,7.8E1,5.5E1,6.3E1,1.8E1,4E0,3E0,6.7E1,1.1E1,3E1,2.5E1,2.4E1,4.3E1,3E0,8E0,2E0,2.8E1,1.6E1,9E0],"tree_param":{"num_deleted":"0","num_feature":"25","num_nodes":"31","size_leaf_vector":"1"}},{"base_weights":[1.4886903E-3,6.049393E-2,-2.3778046E-2,7.2525255E-2,-1.5320254E-2,-7.6850764E-3,-4.749353E-3,8.117164E-2,4.8013274E-2,-7.810676E-2,1.8866062E-2,-4.2447776E-2,9.100622E-3,4.6475206E-2,9.069301E-2,6.1776485E-2,-7.065493E-3,-1.5401316E-1,-1.9558801E-4,-4.767682E-2,-1.8266384E-2,2.8253943E-2,-2.5405342E-2,6.936038E-2,-1.1395598E-2,8.215334E-2,1.652441E-1,-1.0549355E-3,7.288214E-2,-1.9143557E-2,-9.327259E-3,-4.0357476E-3,-1.2541962E-2,-3.662067E-3,1.8424606E-3,4.5611687E-2,1.1425517E-2,1.7217232E-2,-7.24828E-2,1.2206491E-2,5.597956E-3,6.105271E-3,8.747536E-3,2.8773118E-2,-5.3153355E-3,4.5046913E-3,8.223134E-3,1.5455604E-3,8.130297E-3,2.3189045E-3,1.9372061E-4,1.9706404E-3,1.1263919E-3,-5.023992E-3,-8.868545E-3],"categories":[],"categories_nodes":[],"categories_segments":[],"categories_sizes":[],"default_left":[0,0,0,0,0,0,0,0,0,0,0,0,0,0,0,0,0,0,0,0,0,0,0,0,0,0,0,0,0,0,0,0,0,0,0,0,0,0,0,0,0,0,0,0,0,0,0,0,0,0,0,0,0,0,0],"id":34,"left_children":[1,3,5,7,9,11,-1,13,15,17,-1,19,21,23,25,27,-1,29,-1,31,33,35,37,39,-1,41,43,-1,45,-1,-1,-1,-1,-1,-1,47,49,51,53,-1,-1,-1,-1,-1,-1,-1,-1,-1,-1,-1,-1,-1,-1,-1,-1],"loss_changes":[6.9618374E-1,1.2881142E-1,1.24435425E-1,2.174747E-2,2.708806E-1,1.1475546E-1,0E0,2.4856508E-2,5.98955E-2,9.218419E-2,0E0,7.221639E-3,8.8618E-2,8.500545E-2,2.9716253E-2,2.566886E-2,0E0,3.2877922E-4,0E0,2.4527766E-2,9.429401E-3,2.4599768E-2,9.7562954E-2,6.5662265E-3,0E0,1.7341375E-3,1.7579907E-1,0E0,3.3221394E-3,0E0,0E0,0E0,0E0,0E0,0E0,4.3948412E-2,4.977798E-3,1.6331766E-4,3.8335025E-3,0E0,0E0,0E0,0E0,0E0,0E0,0E0,0E0,0E0,0E0,0E0,0E0,0E0,0E0,0E0,0E0],"parents":[2147483647,0,0,1,1,2,2,3,3,4,4,5,5,7,7,8,8,9,9,11,11,12,12,13,13,14,14,15,15,17,17,19,19,20,20,21,21,22,22,23,23,25,25,26,26,28,28,35,35,36,36,37,37,38,38],"right_children":[2,4,6,8,10,12,-1,14,16,18,-1,20,22,24,26,28,-1,30,-1,32,34,36,38,40,-1,42,44,-1,46,-1,-1,-1,-1,-1,-1,48,50,52,54,-1,-1,-1,-1,-1,-1,-1,-1,-1,-1,-1,-1,-1,-1,-1,-1],"split_conditions":[2.5E1,4E1,9.3E1,3.5E1,4E0,5.8E1,-4.749353E-3,1E0,4E0,3E1,1.8866062E-2,3E1,3E0,3.4E1,3.4E1,2E0,-7.065493E-3,3E0,-1.9558801E-4,3.4E1,3.4E1,1E0,7.5E1,2.7E1,-1.1395598E-2,2E0,3E0,-1.0549355E-3,1E0,-1.9143557E-2,-9.327259E-3,-4.0357476E-3,-1.2541962E-2,-3.662067E-3,1.8424606E-3,7.5E1,1.1E1,6.8E1,4E0,1.2206491E-2,5.597956E-3,6.105271E-3,8.747536E-3,2.8773118E-2,-5.3153355E-3,4.5046913E-3,8.223134E-3,1.5455604E-3,8.130297E-3,2.3189045E-3,1.9372061E-4,1.9706404E-3,1.1263919E-3,-5.023992E-3,-8.868545E-3],"split_indices":[20,19,20,19,0,20,0,0,0,1,0,1,0,19,19,1,0,0,0,19,19,0,20,1,0,1,0,0,0,0,0,0,0,0,0,20,1,20,0,0,0,0,0,0,0,0,0,0,0,0,0,0,0,0,0],"split_type":[0,0,0,0,0,0,0,0,0,0,0,0,0,0,0,0,0,0,0,0,0,0,0,0,0,0,0,0,0,0,0,0,0,0,0,0,0,0,0,0,0,0,0,0,0,0,0,0,0,0,0,0,0,0,0],"sum_hessian":[4.65E2,1.39E2,3.26E2,1.2E2,1.9E1,1.95E2,1.31E2,8.7E1,3.3E1,1.5E1,4E0,6.3E1,1.32E2,2E1,6.7E1,3E1,3E0,7E0,8E0,5.1E1,1.2E1,8.5E1,4.7E1,1.8E1,2E0,6.2E1,5E0,4E0,2.6E1,3E0,4E0,4.8E1,3E0,8E0,4E0,4.1E1,4.4E1,2.5E1,2.2E1,2E0,1.6E1,1.5E1,4.7E1,3E0,2E0,8E0,1.8E1,2.3E1,1.8E1,1.9E1,2.5E1,1.6E1,9E0,1.1E1,1.1E1],"tree_param":{"num_deleted":"0","num_feature":"25","num_nodes":"55","size_leaf_vector":"1"}},{"base_weights":[5.9354235E-3,3.778223E-2,-4.1068293E-2,5.055541E-2,1.0777866E-2,-3.6376552E-3,-4.3057823E-3,6.573667E-2,1.403687E-2,1.8704295E-2,-2.2329468E-2,8.836345E-2,3.713315E-2,1.5454245E-3,1.0668687E-3,-1.381491E-2,2.603373E-2,-4.279866E-2,4.3544006E-3,-2.785635E-3,9.178839E-2,9.930579E-3,3.3525873E-2,3.99784E-2,-8.100418E-2,1.832723E-2,4.626186E-2,-7.458649E-2,1.7314156E-3,8.220728E-3,1.1029239E-2,-3.3368468E-3,3.5169527E-3,2.2804802E-2,-4.633406E-3,-5.177641E-3,-1.28185395E-2,-4.654254E-3,3.6623029E-3,9.531643E-3,-3.743274E-3,-1.0635885E-2,-5.334854E-3],"categories":[],"categories_nodes":[],"categories_segments":[],"categories_sizes":[],"default_left":[0,0,0,0,0,0,0,0,0,0,0,0,0,0,0,0,0,0,0,0,0,0,0,0,0,0,0,0,0,0,0,0,0,0,0,0,0,0,0,0,0,0,0],"id":35,"left_children":[1,3,5,7,9,-1,-1,11,13,15,17,19,21,-1,-1,23,25,27,-1,-1,29,-1,31,33,35,37,39,41,-1,-1,-1,-1,-1,-1,-1,-1,-1,-1,-1,-1,-1,-1,-1],"loss_changes":[7.4102926E-1,1.0121E-1,3.0061603E-4,1.0995674E-1,2.561026E-2,0E0,0E0,8.797473E-2,1.2156181E-4,1.895075E-2,2.7482785E-2,3.3604503E-2,1.1024222E-2,0E0,0E0,5.7453405E-2,9.128984E-3,2.9954236E-2,0E0,0E0,4.4071674E-3,0E0,7.990509E-3,1.5666114E-1,3.0160323E-3,5.867304E-2,7.33632E-2,1.0737069E-3,0E0,0E0,0E0,0E0,0E0,0E0,0E0,0E0,0E0,0E0,0E0,0E0,0E0,0E0,0E0],"parents":[2147483647,0,0,1,1,2,2,3,3,4,4,7,7,8,8,9,9,10,10,11,11,12,12,15,15,16,16,17,17,20,20,22,22,23,23,24,24,25,25,26,26,27,27],"right_children":[2,4,6,8,10,-1,-1,12,14,16,18,20,22,-1,-1,24,26,28,-1,-1,30,-1,32,34,36,38,40,42,-1,-1,-1,-1,-1,-1,-1,-1,-1,-1,-1,-1,-1,-1,-1],"split_conditions":[8.4313726E-1,3.4E1,1E2,5.7425743E-1,1E0,-3.6376552E-3,-4.3057823E-3,2.7E1,6.8E1,2E0,4E1,5E1,5E1,1.5454245E-3,1.0668687E-3,3.5E1,4E1,2.5E1,4.3544006E-3,-2.785635E-3,9.749279E-1,9.930579E-3,2.9E1,2.5E1,4E1,0E0,5E0,3.5E1,1.7314156E-3,8.220728E-3,1.1029239E-2,-3.3368468E-3,3.5169527E-3,2.2804802E-2,-4.633406E-3,-5.177641E-3,-1.28185395E-2,-4.654254E-3,3.6623029E-3,9.531643E-3,-3.743274E-3,-1.0635885E-2,-5.334854E-3],"split_indices":[23,19,22,23,6,0,0,1,20,1,19,22,22,0,0,19,19,20,0,0,5,0,1,20,19,5,1,19,0,0,0,0,0,0,0,0,0,0,0,0,0,0,0],"split_type":[0,0,0,0,0,0,0,0,0,0,0,0,0,0,0,0,0,0,0,0,0,0,0,0,0,0,0,0,0,0,0,0,0,0,0,0,0,0,0,0,0,0,0],"sum_hessian":[4.93E2,2.94E2,1.99E2,1.99E2,9.5E1,6.5E1,1.34E2,1.4E2,5.9E1,7.7E1,1.8E1,7.7E1,6.3E1,3.9E1,2E1,1.4E1,6.3E1,1.4E1,4E0,2E0,7.5E1,2E0,6.1E1,8E0,6E0,4.7E1,1.6E1,9E0,5E0,5.3E1,2.2E1,1E0,6E1,2E0,6E0,5E0,1E0,1E1,3.7E1,1E1,6E0,2E0,7E0],"tree_param":{"num_deleted":"0","num_feature":"25","num_nodes":"43","size_leaf_vector":"1"}},{"base_weights":[-1.3080703E-3,1.0305959E-1,-1.9556336E-2,3.8611438E-2,1.3724639E-1,3.8932913E-3,-4.3025143E-2,4.171585E-2,-1.9499421E-3,1.6765898E-2,1.1363695E-2,-7.5821863E-3,5.422254E-2,-3.0035654E-2,-9.6877456E-2,5.0119734E-3,2.120675E-3,-2.3819124E-2,1.41723715E-2,8.6235106E-2,-7.660398E-3,-9.028365E-3,-3.8326455E-3,-2.002537E-2,-3.7487273E-3,-9.631368E-3,-3.723123E-2,1.555168E-3,9.808588E-4,1.9479549E-1,-2.9915837E-3,-5.5063623E-3,6.1459993E-3,-3.2001014E-3,8.952468E-4,-4.7798785E-3,-2.8295023E-3,3.8587537E-2,7.9776E-3,-2.9055835E-3,1.2461861E-3,-3.007153E-3,1.4125893E-3],"categories":[],"categories_nodes":[],"categories_segments":[],"categories_sizes":[],"default_left":[0,0,0,0,0,0,0,0,0,0,0,0,0,0,0,0,0,0,0,0,0,0,0,0,0,0,0,0,0,0,0,0,0,0,0,0,0,0,0,0,0,0,0],"id":36,"left_children":[1,3,5,7,9,11,13,15,-1,-1,-1,17,19,21,23,-1,-1,25,27,29,-1,31,-1,-1,-1,33,35,-1,-1,37,39,-1,41,-1,-1,-1,-1,-1,-1,-1,-1,-1,-1],"loss_changes":[9.0857124E-1,1.5113324E-1,2.2360343E-1,5.5038407E-3,1.3976812E-2,1.1823176E-1,1.3909149E-1,3.2460243E-3,0E0,0E0,0E0,5.9326548E-2,1.6575348E-1,2.8391585E-2,2.3193488E-1,0E0,0E0,1.7909031E-2,2.8082728E-4,3.0086377E-1,0E0,3.3869103E-2,0E0,0E0,0E0,2.0240748E-2,3.274791E-3,0E0,0E0,2.7690715E-1,7.6121734E-3,0E0,1.1118233E-2,0E0,0E0,0E0,0E0,0E0,0E0,0E0,0E0,0E0,0E0],"parents":[2147483647,0,0,1,1,2,2,3,3,4,4,5,5,6,6,7,7,11,11,12,12,13,13,14,14,17,17,18,18,19,19,21,21,25,25,26,26,29,29,30,30,32,32],"right_children":[2,4,6,8,10,12,14,16,-1,-1,-1,18,20,22,24,-1,-1,26,28,30,-1,32,-1,-1,-1,34,36,-1,-1,38,40,-1,42,-1,-1,-1,-1,-1,-1,-1,-1,-1,-1],"split_conditions":[1E1,-2.2252093E-1,7.5E1,6E0,2.8E1,3E1,3E1,3E0,-1.9499421E-3,1.6765898E-2,1.1363695E-2,5.8E1,4E1,9.3E1,9.3E1,5.0119734E-3,2.120675E-3,3E0,6.8E1,4.3E1,-7.660398E-3,0E0,-3.8326455E-3,-2.002537E-2,-3.7487273E-3,3.4E1,5E0,1.555168E-3,9.808588E-4,3.5E1,5.8E1,-5.5063623E-3,2E0,-3.2001014E-3,8.952468E-4,-4.7798785E-3,-2.8295023E-3,3.8587537E-2,7.9776E-3,-2.9055835E-3,1.2461861E-3,-3.007153E-3,1.4125893E-3],"split_indices":[20,6,20,20,1,1,1,1,0,0,0,20,19,20,20,0,0,1,20,20,0,5,0,0,0,19,1,0,0,19,20,0,1,0,0,0,0,0,0,0,0,0,0],"split_type":[0,0,0,0,0,0,0,0,0,0,0,0,0,0,0,0,0,0,0,0,0,0,0,0,0,0,0,0,0,0,0,0,0,0,0,0,0,0,0,0,0,0,0],"sum_hessian":[4.75E2,7E1,4.05E2,2.5E1,4.5E1,2.03E2,2.02E2,2.4E1,1E0,1.7E1,2.8E1,1.66E2,3.7E1,1.64E2,3.8E1,1.6E1,8E0,9.5E1,7.1E1,3E1,7E0,4.7E1,1.17E2,1.3E1,2.5E1,4.7E1,4.8E1,5.2E1,1.9E1,1.3E1,1.7E1,1.1E1,3.6E1,2.1E1,2.6E1,2E1,2.8E1,4E0,9E0,6E0,1.1E1,6E0,3E1],"tree_param":{"num_deleted":"0","num_feature":"25","num_nodes":"43","size_leaf_vector":"1"}},{"base_weights":[3.801058E-3,-1.3483676E-2,4.1321535E-2,2.895836E-2,-2.428571E-2,3.0570754E-3,6.321204E-2,4.241595E-2,-5.199151E-2,-1.1420364E-2,-3.5077408E-3,1.2221966E-2,-4.198529E-3,-7.188916E-4,6.824838E-2,6.922645E-2,-1.1985314E-2,-6.145771E-3,-3.0233765E-3,-3.4834534E-2,1.3774775E-3,2.6210885E-2,-2.7493953E-3,-3.2899827E-3,2.306143E-2,-2.7846495E-2,5.3775948E-2,8.970202E-2,5.0504465E-2,-8.534738E-3,8.362348E-2,1.4838505E-2,-4.9014498E-2,-2.9699767E-3,-6.6423595E-2,2.9270768E-3,7.418633E-4,7.6043606E-4,2.8868178E-3,-4.6687843E-3,6.557465E-4,7.5793983E-3,4.8699378E-4,1.3664725E-2,6.3776456E-2,7.597338E-2,3.1622157E-2,1.5918601E-2,-6.3019195E-3,6.2095965E-3,1.2103341E-2,-2.7403736E-3,-6.9901138E-3,-1.2745445E-2,-2.4837574E-3,5.0721806E-3,8.089719E-3,6.2971114E-4,8.723625E-3,3.4606021E-3,-2.8946877E-3],"categories":[],"categories_nodes":[],"categories_segments":[],"categories_sizes":[],"default_left":[0,0,0,0,0,0,0,0,0,0,0,0,0,0,0,0,0,0,0,0,0,0,0,0,0,0,0,0,0,0,0,0,0,0,0,0,0,0,0,0,0,0,0,0,0,0,0,0,0,0,0,0,0,0,0,0,0,0,0,0,0],"id":37,"left_children":[1,3,5,7,9,11,13,15,17,19,-1,21,23,25,27,29,31,-1,-1,33,-1,35,-1,-1,37,39,41,43,45,47,49,-1,51,-1,53,-1,-1,-1,-1,-1,-1,-1,-1,-1,55,57,59,-1,-1,-1,-1,-1,-1,-1,-1,-1,-1,-1,-1,-1,-1],"loss_changes":[3.1055522E-1,1.5107825E-1,1.262886E-1,7.519442E-2,3.5975203E-2,3.7751363E-3,3.095901E-2,8.5424155E-2,2.0153448E-4,7.186056E-2,0E0,1.461021E-2,2.5795395E-2,1.3323988E-2,2.9349416E-2,4.437536E-2,1.2604068E-1,0E0,0E0,8.24599E-3,0E0,8.7539013E-4,0E0,0E0,1.3063159E-3,4.195455E-3,2.8613303E-3,3.8751304E-2,2.2124067E-2,7.399899E-2,1.9060612E-2,0E0,5.757842E-3,0E0,1.7138582E-2,0E0,0E0,0E0,0E0,0E0,0E0,0E0,0E0,0E0,1.9313917E-3,1.5930511E-2,6.6043604E-3,0E0,0E0,0E0,0E0,0E0,0E0,0E0,0E0,0E0,0E0,0E0,0E0,0E0,0E0],"parents":[2147483647,0,0,1,1,2,2,3,3,4,4,5,5,6,6,7,7,8,8,9,9,11,11,12,12,13,13,14,14,15,15,16,16,19,19,21,21,24,24,25,25,26,26,27,27,28,28,29,29,30,30,32,32,34,34,44,44,45,45,46,46],"right_children":[2,4,6,8,10,12,14,16,18,20,-1,22,24,26,28,30,32,-1,-1,34,-1,36,-1,-1,38,40,42,44,46,48,50,-1,52,-1,54,-1,-1,-1,-1,-1,-1,-1,-1,-1,56,58,60,-1,-1,-1,-1,-1,-1,-1,-1,-1,-1,-1,-1,-1,-1],"split_conditions":[1E1,2.5E1,3E0,4E0,6.8E1,3E0,3.3E1,3E1,4E1,5.8E1,-3.5077408E-3,7.5E1,6E0,2E0,6E0,3.5E1,3.5E1,-6.145771E-3,-3.0233765E-3,3.4E1,1.3774775E-3,6E0,-2.7493953E-3,-3.2899827E-3,7.5E1,6E0,6E0,2.8E1,1E0,2E0,4E1,1.4838505E-2,4E1,-2.9699767E-3,2E0,2.9270768E-3,7.418633E-4,7.6043606E-4,2.8868178E-3,-4.6687843E-3,6.557465E-4,7.5793983E-3,4.8699378E-4,1.3664725E-2,1E0,7.5E1,6E0,1.5918601E-2,-6.3019195E-3,6.2095965E-3,1.2103341E-2,-2.7403736E-3,-6.9901138E-3,-1.2745445E-2,-2.4837574E-3,5.0721806E-3,8.089719E-3,6.2971114E-4,8.723625E-3,3.4606021E-3,-2.8946877E-3],"split_indices":[21,20,1,0,20,0,4,1,19,20,0,20,20,0,20,19,19,0,0,19,0,20,0,0,20,20,20,1,0,1,19,0,19,0,1,0,0,0,0,0,0,0,0,0,0,20,0,0,0,0,0,0,0,0,0,0,0,0,0,0,0],"split_type":[0,0,0,0,0,0,0,0,0,0,0,0,0,0,0,0,0,0,0,0,0,0,0,0,0,0,0,0,0,0,0,0,0,0,0,0,0,0,0,0,0,0,0,0,0,0,0,0,0,0,0,0,0,0,0,0,0,0,0,0,0],"sum_hessian":[4.77E2,3.27E2,1.5E2,6.6E1,2.61E2,5.5E1,9.5E1,5.7E1,9E0,1.2E2,1.41E2,2.4E1,3.1E1,7E0,8.8E1,3.8E1,1.9E1,5E0,4E0,6.2E1,5.8E1,1.8E1,6E0,1.5E1,1.6E1,5E0,2E0,3.8E1,5E1,6E0,3.2E1,3E0,1.6E1,5.5E1,7E0,1.5E1,3E0,5E0,1.1E1,3E0,2E0,1E0,1E0,1.2E1,2.6E1,2E1,3E1,1E0,5E0,2.2E1,1E1,9E0,7E0,2E0,5E0,1.7E1,9E0,3E0,1.7E1,2.9E1,1E0],"tree_param":{"num_deleted":"0","num_feature":"25","num_nodes":"61","size_leaf_vector":"1"}},{"base_weights":[-1.5953409E-3,5.696782E-2,-1.1304365E-2,9.82292E-2,3.222913E-2,-1.0091022E-3,-3.1152304E-2,1.1968183E-2,7.868198E-3,-5.594594E-3,9.26312E-3,-3.2786217E-2,8.377518E-3,-2.0815784E-3,-3.17873E-3,1.4061689E-2,-2.935659E-3,-1.12167E-1,-2.684877E-3,3.4867097E-2,-5.9918715E-3,2.0601272E-3,1.0165055E-3,-1.9358708E-2,-2.0497958E-3,2.2624364E-2,6.1030358E-2,2.7552936E-3,-3.0609064E-2,-4.980655E-3,2.969791E-3,7.408713E-3,2.0602432E-3,1.215139E-2,-2.0708654E-4,-5.8426713E-3,1.7277718E-3],"categories":[],"categories_nodes":[],"categories_segments":[],"categories_sizes":[],"default_left":[0,0,0,0,0,0,0,0,0,0,0,0,0,0,0,0,0,0,0,0,0,0,0,0,0,0,0,0,0,0,0,0,0,0,0,0,0],"id":38,"left_children":[1,3,5,7,9,11,13,-1,-1,15,-1,17,19,-1,-1,21,-1,23,-1,25,27,-1,-1,-1,-1,29,31,33,35,-1,-1,-1,-1,-1,-1,-1,-1],"loss_changes":[2.718619E-1,6.62453E-2,8.3747864E-2,1.0666847E-3,1.01042E-1,8.110847E-2,2.5723875E-4,0E0,0E0,1.3490833E-2,0E0,2.6210234E-2,8.0143124E-2,0E0,0E0,1.9830465E-4,0E0,2.5886655E-2,0E0,2.2322148E-2,2.9584635E-2,0E0,0E0,0E0,0E0,2.8121006E-2,1.0614373E-2,5.871273E-2,4.8964992E-2,0E0,0E0,0E0,0E0,0E0,0E0,0E0,0E0],"parents":[2147483647,0,0,1,1,2,2,3,3,4,4,5,5,6,6,9,9,11,11,12,12,15,15,17,17,19,19,20,20,25,25,26,26,27,27,28,28],"right_children":[2,4,6,8,10,12,14,-1,-1,16,-1,18,20,-1,-1,22,-1,24,-1,26,28,-1,-1,-1,-1,30,32,34,36,-1,-1,-1,-1,-1,-1,-1,-1],"split_conditions":[6E0,4.3388373E-1,9.3E1,2.7E1,9.749279E-1,9E1,2.8E1,1.1968183E-2,7.868198E-3,2E0,9.26312E-3,1E1,-2.2252093E-1,-2.0815784E-3,-3.17873E-3,6E0,-2.935659E-3,2E0,-2.684877E-3,3.5E1,3.5E1,2.0601272E-3,1.0165055E-3,-1.9358708E-2,-2.0497958E-3,4.3E1,4E0,2.5E1,4E1,-4.980655E-3,2.969791E-3,7.408713E-3,2.0602432E-3,1.215139E-2,-2.0708654E-4,-5.8426713E-3,1.7277718E-3],"split_indices":[20,5,20,1,5,22,19,0,0,0,0,20,6,0,0,1,0,0,0,19,19,0,0,0,0,20,0,20,19,0,0,0,0,0,0,0,0],"split_type":[0,0,0,0,0,0,0,0,0,0,0,0,0,0,0,0,0,0,0,0,0,0,0,0,0,0,0,0,0,0,0,0,0,0,0,0,0],"sum_hessian":[4.76E2,6.7E1,4.09E2,2.4E1,4.3E1,2.7E2,1.39E2,9E0,1.5E1,2.7E1,1.6E1,6.1E1,2.09E2,1E1,1.29E2,1.5E1,1.2E1,3E0,5.8E1,7.3E1,1.36E2,4E0,1.1E1,1E0,2E0,5.1E1,2.2E1,1.01E2,3.5E1,4E0,4.7E1,1.6E1,6E0,3E0,9.8E1,2.2E1,1.3E1],"tree_param":{"num_deleted":"0","num_feature":"25","num_nodes":"37","size_leaf_vector":"1"}},{"base_weights":[-3.2182932E-3,4.5224506E-2,-1.691149E-2,2.3405718E-2,1.088719E-1,-5.2833512E-2,-1.275243E-2,-7.955285E-3,9.037932E-2,2.0408222E-1,4.2560953E-3,7.82485E-3,-8.16582E-2,2.2648609E-1,-1.5778717E-2,6.789991E-2,-2.329032E-2,1.3986151E-2,1.9185673E-3,8.8123E-3,2.2205666E-2,-4.964628E-3,-9.757846E-3,3.2108627E-2,-2.8657198E-3,2.3414922E-4,-2.6919374E-2,1.8953324E-3,1.0326653E-2,-5.3694546E-3,-5.71246E-3,2.9859396E-2,-5.475615E-3,-2.378606E-3,-2.8470329E-3,9.233157E-4,-1.5358846E-3,1.1729872E-3,5.785364E-3,9.689061E-4,-2.4242343E-3],"categories":[],"categories_nodes":[],"categories_segments":[],"categories_sizes":[],"default_left":[0,0,0,0,0,0,0,0,0,0,0,0,0,0,0,0,0,0,0,0,0,0,0,0,0,0,0,0,0,0,0,0,0,0,0,0,0,0,0,0,0],"id":39,"left_children":[1,3,5,7,9,11,13,15,17,19,-1,-1,21,23,25,27,29,-1,-1,-1,-1,-1,-1,-1,-1,31,33,-1,-1,-1,35,37,39,-1,-1,-1,-1,-1,-1,-1,-1],"loss_changes":[2.979397E-1,1.3493396E-1,5.1616907E-2,1.5824594E-1,1.4915124E-1,1.4241195E-1,2.3163506E-1,6.207E-2,8.186431E-2,1.2747049E-3,0E0,0E0,1.0444716E-2,1.05747804E-1,5.5665195E-2,1.3622433E-2,2.3208689E-2,0E0,0E0,0E0,0E0,0E0,0E0,0E0,0E0,2.1984259E-2,2.1697581E-4,0E0,0E0,0E0,4.322775E-3,9.979354E-3,3.1255342E-2,0E0,0E0,0E0,0E0,0E0,0E0,0E0,0E0],"parents":[2147483647,0,0,1,1,2,2,3,3,4,4,5,5,6,6,7,7,8,8,9,9,12,12,13,13,14,14,15,15,16,16,25,25,26,26,30,30,31,31,32,32],"right_children":[2,4,6,8,10,12,14,16,18,20,-1,-1,22,24,26,28,30,-1,-1,-1,-1,-1,-1,-1,-1,32,34,-1,-1,-1,36,38,40,-1,-1,-1,-1,-1,-1,-1,-1],"split_conditions":[2.3E1,6E0,2.5E1,3E0,2E0,2E0,4.3E1,3.9E1,4E0,1E1,4.2560953E-3,7.82485E-3,4.3388373E-1,2E0,8.4313726E-1,6E0,1E0,1.3986151E-2,1.9185673E-3,8.8123E-3,2.2205666E-2,-4.964628E-3,-9.757846E-3,3.2108627E-2,-2.8657198E-3,2E0,1E2,1.8953324E-3,1.0326653E-2,-5.3694546E-3,2E0,7.5E1,7.5E1,-2.378606E-3,-2.8470329E-3,9.233157E-4,-1.5358846E-3,1.1729872E-3,5.785364E-3,9.689061E-4,-2.4242343E-3],"split_indices":[20,20,20,0,0,1,20,4,0,20,0,0,5,0,23,1,0,0,0,0,0,0,0,0,0,1,22,0,0,0,0,20,20,0,0,0,0,0,0,0,0],"split_type":[0,0,0,0,0,0,0,0,0,0,0,0,0,0,0,0,0,0,0,0,0,0,0,0,0,0,0,0,0,0,0,0,0,0,0,0,0,0,0,0,0],"sum_hessian":[4.47E2,9.8E1,3.49E2,7.4E1,2.4E1,3.5E1,3.14E2,5.1E1,2.3E1,9E0,1.5E1,6E0,2.9E1,3E0,3.11E2,8E0,4.3E1,1.3E1,1E1,2E0,7E0,1.1E1,1.8E1,2E0,1E0,1.28E2,1.83E2,4E0,4E0,1.5E1,2.8E1,2E1,1.08E2,6.6E1,1.17E2,1.1E1,1.7E1,1.3E1,7E0,6E1,4.8E1],"tree_param":{"num_deleted":"0","num_feature":"25","num_nodes":"41","size_leaf_vector":"1"}},{"base_weights":[9.258227E-5,-1.0482248E-2,8.4090896E-2,1.7788718E-3,-2.4432855E-2,9.089708E-8,1.1728429E-1,1.7546847E-2,-2.7584057E-2,-2.142299E-3,-2.5625346E-2,1.9313462E-2,9.993925E-2,4.5909796E-2,9.171859E-5,-4.32409E-2,7.964363E-3,-1.5401704E-3,-2.597873E-3,4.3436075E-3,1.19318105E-2,6.12194E-3,3.5703924E-2,-3.0859867E-2,4.6760063E-3,-5.749495E-2,-3.1995934E-2,1.0112202E-3,3.0224057E-4,3.054696E-3,8.224822E-3,1.5475083E-3,-1.7502308E-2,1.5437895E-3,-6.9212045E-5,-1.1647987E-2,1.7441316E-3,-1.1079344E-3,-6.7676688E-3],"categories":[],"categories_nodes":[],"categories_segments":[],"categories_sizes":[],"default_left":[0,0,0,0,0,0,0,0,0,0,0,0,0,0,0,0,0,0,0,0,0,0,0,0,0,0,0,0,0,0,0,0,0,0,0,0,0,0,0],"id":40,"left_children":[1,3,5,7,9,-1,11,13,15,-1,17,-1,19,21,23,25,27,-1,-1,-1,-1,-1,29,31,33,35,37,-1,-1,-1,-1,-1,-1,-1,-1,-1,-1,-1,-1],"loss_changes":[4.210322E-1,7.205553E-2,1.4793518E-1,1.0465766E-1,1.5810877E-4,0E0,3.069204E-2,7.277239E-2,4.4313896E-2,0E0,9.123981E-5,0E0,3.0951232E-2,6.564103E-3,1.3198271E-2,6.97615E-3,2.3480016E-4,0E0,0E0,0E0,0E0,0E0,6.1285533E-3,8.286604E-2,4.6901507E-3,1.03694074E-1,2.3878735E-2,0E0,0E0,0E0,0E0,0E0,0E0,0E0,0E0,0E0,0E0,0E0,0E0],"parents":[2147483647,0,0,1,1,2,2,3,3,4,4,6,6,7,7,8,8,10,10,12,12,13,13,14,14,15,15,16,16,22,22,23,23,24,24,25,25,26,26],"right_children":[2,4,6,8,10,-1,12,14,16,-1,18,-1,20,22,24,26,28,-1,-1,-1,-1,-1,30,32,34,36,38,-1,-1,-1,-1,-1,-1,-1,-1,-1,-1,-1,-1],"split_conditions":[2E2,8.4313726E-1,1E0,3E0,1E2,9.089708E-8,2E0,1E1,4.3E1,-2.142299E-3,9E0,1.9313462E-2,3E0,1E0,2.3E1,6E0,6.8E1,-1.5401704E-3,-2.597873E-3,4.3436075E-3,1.19318105E-2,6.12194E-3,6E0,2E0,2.5E1,4E0,4E0,1.0112202E-3,3.0224057E-4,3.054696E-3,8.224822E-3,1.5475083E-3,-1.7502308E-2,1.5437895E-3,-6.9212045E-5,-1.1647987E-2,1.7441316E-3,-1.1079344E-3,-6.7676688E-3],"split_indices":[22,23,0,0,22,0,1,20,20,0,2,0,1,0,20,20,20,0,0,0,0,0,20,0,20,0,0,0,0,0,0,0,0,0,0,0,0,0,0],"split_type":[0,0,0,0,0,0,0,0,0,0,0,0,0,0,0,0,0,0,0,0,0,0,0,0,0,0,0,0,0,0,0,0,0,0,0,0,0,0,0],"sum_hessian":[4.72E2,4.2E2,5.2E1,2.24E2,1.96E2,1.5E1,3.7E1,1.46E2,7.8E1,6.1E1,1.35E2,5E0,3.2E1,5.5E1,9.1E1,5.4E1,2.4E1,6E0,1.29E2,9E0,2.3E1,2E1,3.5E1,1.1E1,8E1,2.2E1,3.2E1,1.6E1,8E0,3.3E1,2E0,9E0,2E0,2.6E1,5.4E1,1.2E1,1E1,2.1E1,1.1E1],"tree_param":{"num_deleted":"0","num_feature":"25","num_nodes":"39","size_leaf_vector":"1"}},{"base_weights":[-1.2638203E-3,2.5752263E-2,-1.2351762E-2,2.8504396E-2,7.814253E-3,-1.1390566E-4,-2.1962047E-2,2.0320484E-2,3.6760025E-2,2.9260078E-3,-4.710269E-3,-4.0821295E-2,1.3936556E-2,-1.940979E-3,-2.3066595E-2,-4.8443796E-3,2.4566093E-2,1.7447472E-2,6.0601052E-2,9.902477E-3,-9.473592E-3,-7.195446E-2,2.1165913E-2,-1.4132977E-3,-2.3544396E-3,4.4250898E-2,7.1194097E-3,3.8380872E-2,-8.5014105E-3,6.78134E-2,4.227996E-2,7.695389E-4,1.3217314E-3,-1.1686278E-2,-4.2428835E-3,9.061796E-3,3.2870676E-2,7.0600035E-3,8.4172765E-4,-3.8707834E-3,3.884251E-3,2.824761E-3,8.300909E-3,-5.166565E-4,-2.1230222E-3,3.509903E-3,7.851946E-3,6.6225766E-3,2.2556647E-3,1.0931506E-3,5.140656E-4,9.638398E-3,2.2711873E-3],"categories":[],"categories_nodes":[],"categories_segments":[],"categories_sizes":[],"default_left":[0,0,0,0,0,0,0,0,0,0,0,0,0,0,0,0,0,0,0,0,0,0,0,0,0,0,0,0,0,0,0,0,0,0,0,0,0,0,0,0,0,0,0,0,0,0,0,0,0,0,0,0,0],"id":41,"left_children":[1,3,5,7,9,11,13,15,17,-1,-1,19,21,-1,23,-1,25,27,29,31,-1,33,35,-1,-1,37,39,41,43,45,47,-1,-1,-1,-1,49,51,-1,-1,-1,-1,-1,-1,-1,-1,-1,-1,-1,-1,-1,-1,-1,-1],"loss_changes":[1.4410341E-1,6.688744E-3,4.010227E-2,7.428184E-3,2.4933012E-2,8.693451E-2,9.072572E-5,1.9582696E-2,2.6108094E-2,0E0,0E0,1.0759349E-1,7.168885E-2,0E0,2.136156E-4,0E0,2.0291027E-2,1.8795036E-2,5.6844205E-4,5.1926356E-5,0E0,6.9751665E-3,1.4578093E-2,0E0,0E0,2.5842924E-2,4.9478326E-2,6.247552E-3,5.694905E-4,3.1981692E-3,3.229076E-3,0E0,0E0,0E0,0E0,3.32369E-4,3.200756E-2,0E0,0E0,0E0,0E0,0E0,0E0,0E0,0E0,0E0,0E0,0E0,0E0,0E0,0E0,0E0,0E0],"parents":[2147483647,0,0,1,1,2,2,3,3,4,4,5,5,6,6,7,7,8,8,11,11,12,12,14,14,16,16,17,17,18,18,19,19,21,21,22,22,25,25,26,26,27,27,28,28,29,29,30,30,35,35,36,36],"right_children":[2,4,6,8,10,12,14,16,18,-1,-1,20,22,-1,24,-1,26,28,30,32,-1,34,36,-1,-1,38,40,42,44,46,48,-1,-1,-1,-1,50,52,-1,-1,-1,-1,-1,-1,-1,-1,-1,-1,-1,-1,-1,-1,-1,-1],"split_conditions":[2.5E1,4E0,8.4313726E-1,2E0,2.3E1,1E0,1E2,6E0,3.4E1,2.9260078E-3,-4.710269E-3,7.5E1,4.3E1,-1.940979E-3,2.8E1,-4.8443796E-3,3.4E1,3E0,4E1,3.4E1,-9.473592E-3,2E0,7.5E1,-1.4132977E-3,-2.3544396E-3,1E0,1E0,2E0,6E0,3E0,3E0,7.695389E-4,1.3217314E-3,-1.1686278E-2,-4.2428835E-3,6.8E1,2E0,7.0600035E-3,8.4172765E-4,-3.8707834E-3,3.884251E-3,2.824761E-3,8.300909E-3,-5.166565E-4,-2.1230222E-3,3.509903E-3,7.851946E-3,6.6225766E-3,2.2556647E-3,1.0931506E-3,5.140656E-4,9.638398E-3,2.2711873E-3],"split_indices":[20,0,23,0,20,0,22,1,19,0,0,20,20,0,19,0,19,0,19,19,0,1,20,0,0,0,0,1,20,0,0,0,0,0,0,20,1,0,0,0,0,0,0,0,0,0,0,0,0,0,0,0,0],"split_type":[0,0,0,0,0,0,0,0,0,0,0,0,0,0,0,0,0,0,0,0,0,0,0,0,0,0,0,0,0,0,0,0,0,0,0,0,0,0,0,0,0,0,0,0,0,0,0,0,0,0,0,0,0],"sum_hessian":[4.79E2,1.39E2,3.4E2,1.2E2,1.9E1,1.5E2,1.9E2,6.2E1,5.8E1,1.4E1,5E0,3.8E1,1.12E2,6.3E1,1.27E2,3E0,5.9E1,3.3E1,2.5E1,2E1,1.8E1,8E0,1.04E2,8E0,1.19E2,2.7E1,3.2E1,1.8E1,1.5E1,1.6E1,9E0,1.4E1,6E0,2E0,6E0,5.2E1,5.2E1,1.5E1,1.2E1,1.3E1,1.9E1,1.6E1,2E0,1.3E1,2E0,5E0,1.1E1,3E0,6E0,3.4E1,1.8E1,6E0,4.6E1],"tree_param":{"num_deleted":"0","num_feature":"25","num_nodes":"53","size_leaf_vector":"1"}},{"base_weights":[-7.6882513E-3,3.6920458E-2,-1.47073725E-2,-1.3235855E-2,4.042638E-2,1.3871539E-1,-1.617188E-2,-4.4810656E-3,5.6531667E-3,4.5506984E-2,1.3195731E-3,3.07153E-2,-1.981481E-3,2.099486E-4,-2.5861561E-2,4.9477167E-2,3.3729882E-3,1.8569592E-2,-2.0164588E-2,-6.0244385E-2,-1.0263317E-2,6.1529516E-3,3.7938368E-3,3.469678E-2,-3.6174774E-3,-1.8066159E-3,-2.420794E-3,-6.9808546E-3,-1.0169898E-2,9.187431E-3,-1.9501995E-2,4.544085E-4,9.87196E-3,-4.124288E-3,1.534595E-3,3.0077598E-3,-1.6776992E-2,7.970875E-4,1.2143501E-3,-1.3090515E-3,-1.9900324E-3],"categories":[],"categories_nodes":[],"categories_segments":[],"categories_sizes":[],"default_left":[0,0,0,0,0,0,0,0,0,0,0,0,0,0,0,0,0,0,0,0,0,0,0,0,0,0,0,0,0,0,0,0,0,0,0,0,0,0,0,0,0],"id":42,"left_children":[1,3,5,7,9,11,13,-1,-1,15,-1,-1,-1,17,19,21,-1,23,25,27,29,-1,-1,31,33,-1,-1,-1,35,37,39,-1,-1,-1,-1,-1,-1,-1,-1,-1,-1],"loss_changes":[1.4958523E-1,1.1964947E-2,9.48151E-2,1.3547697E-2,7.838741E-3,1.1289595E-1,6.492793E-2,0E0,0E0,7.157549E-4,0E0,0E0,0E0,5.7607047E-2,1.3721377E-1,2.672173E-3,0E0,2.9108535E-2,1.8203631E-4,3.7603706E-2,3.216564E-2,0E0,0E0,9.028305E-2,2.5605641E-2,0E0,0E0,0E0,9.38482E-2,1.1178665E-4,4.851073E-5,0E0,0E0,0E0,0E0,0E0,0E0,0E0,0E0,0E0,0E0],"parents":[2147483647,0,0,1,1,2,2,3,3,4,4,5,5,6,6,9,9,13,13,14,14,15,15,17,17,18,18,19,19,20,20,23,23,24,24,28,28,29,29,30,30],"right_children":[2,4,6,8,10,12,14,-1,-1,16,-1,-1,-1,18,20,22,-1,24,26,28,30,-1,-1,32,34,-1,-1,-1,36,38,40,-1,-1,-1,-1,-1,-1,-1,-1,-1,-1],"split_conditions":[9.90099E-2,3.3E1,5E0,2E0,4E0,2E0,-2.2252093E-1,-4.4810656E-3,5.6531667E-3,3E0,1.3195731E-3,3.07153E-2,-1.981481E-3,8.4313726E-1,5.7425743E-1,2.7E1,3.3729882E-3,4E0,3.5E1,4E1,8.4313726E-1,6.1529516E-3,3.7938368E-3,3.5E1,2.857143E-1,-1.8066159E-3,-2.420794E-3,-6.9808546E-3,2E0,3.4E1,2.8E1,4.544085E-4,9.87196E-3,-4.124288E-3,1.534595E-3,3.0077598E-3,-1.6776992E-2,7.970875E-4,1.2143501E-3,-1.3090515E-3,-1.9900324E-3],"split_indices":[23,4,21,0,0,0,6,0,0,0,0,0,0,23,23,1,0,0,19,19,23,0,0,19,23,0,0,0,0,19,19,0,0,0,0,0,0,0,0,0,0],"split_type":[0,0,0,0,0,0,0,0,0,0,0,0,0,0,0,0,0,0,0,0,0,0,0,0,0,0,0,0,0,0,0,0,0,0,0,0,0,0,0,0,0],"sum_hessian":[4.75E2,6.4E1,4.11E2,4E0,6E1,3E0,4.08E2,3E0,1E0,5E1,1E1,1E0,2E0,1.52E2,2.56E2,3.5E1,1.5E1,8E1,7.2E1,7.9E1,1.77E2,1.5E1,2E1,4.6E1,3.4E1,5.1E1,2.1E1,6.6E1,1.3E1,5.7E1,1.2E2,3.2E1,1.4E1,1.1E1,2.3E1,1.1E1,2E0,4.3E1,1.4E1,9E0,1.11E2],"tree_param":{"num_deleted":"0","num_feature":"25","num_nodes":"41","size_leaf_vector":"1"}},{"base_weights":[-9.5468736E-4,1.014768E-2,-1.7898435E-2,4.9302075E-3,3.2066286E-2,-1.6336836E-3,-1.9523546E-2,7.9007226E-4,9.7981235E-3,5.8801718E-2,-5.043047E-2,-2.0504019E-3,-1.493533E-3,5.4699136E-3,-6.771102E-3,5.4680984E-2,7.061895E-3,7.0370673E-3,3.0637333E-2,2.765486E-3,-1.591534E-2,2.3886148E-2,-3.4984571E-3,-4.146185E-3,1.6581766E-2,7.839692E-3,4.8327446E-4,1.0850454E-2,2.0219325E-3,3.6418724E-3,1.2947082E-3,3.0567558E-3,1.199627E-3,-3.7767072E-3,1.5719334E-4,1.8960286E-2,-2.5484138E-4,-1.7139222E-3,2.287396E-3,3.7275963E-3,-1.3464891E-3],"categories":[],"categories_nodes":[],"categories_segments":[],"categories_sizes":[],"default_left":[0,0,0,0,0,0,0,0,0,0,0,0,0,0,0,0,0,0,0,0,0,0,0,0,0,0,0,0,0,0,0,0,0,0,0,0,0,0,0,0,0],"id":43,"left_children":[1,3,5,7,9,-1,11,13,15,17,19,-1,-1,21,23,25,27,-1,29,-1,-1,31,33,-1,35,-1,-1,37,39,-1,-1,-1,-1,-1,-1,-1,-1,-1,-1,-1,-1],"loss_changes":[8.934847E-2,3.2663144E-2,1.5814975E-4,4.688101E-3,1.2427265E-1,0E0,8.5145235E-5,4.530945E-3,1.2754492E-2,1.1528999E-2,1.2325665E-1,0E0,0E0,1.3131491E-2,4.0383805E-2,6.714314E-3,1.9256691E-3,0E0,9.6032396E-4,0E0,0E0,1.6987724E-3,9.4421515E-3,0E0,9.978092E-2,0E0,0E0,1.9911017E-2,2.5070697E-2,0E0,0E0,0E0,0E0,0E0,0E0,0E0,0E0,0E0,0E0,0E0,0E0],"parents":[2147483647,0,0,1,1,2,2,3,3,4,4,6,6,7,7,8,8,9,9,10,10,13,13,14,14,15,15,16,16,18,18,21,21,22,22,24,24,27,27,28,28],"right_children":[2,4,6,8,10,-1,12,14,16,18,20,-1,-1,22,24,26,28,-1,30,-1,-1,32,34,-1,36,-1,-1,38,40,-1,-1,-1,-1,-1,-1,-1,-1,-1,-1,-1,-1],"split_conditions":[8.4313726E-1,3.5E1,3.4E1,6E0,3E1,-1.6336836E-3,1E0,7.818315E-1,2.8E1,5E0,4E1,-2.0504019E-3,-1.493533E-3,9.90099E-2,9.90099E-2,9.90099E-2,3E1,7.0370673E-3,4E1,2.765486E-3,-1.591534E-2,3E0,3.7313432E-1,-4.146185E-3,2.4752475E-1,7.839692E-3,4.8327446E-4,2.4752475E-1,2.4752475E-1,3.6418724E-3,1.2947082E-3,3.0567558E-3,1.199627E-3,-3.7767072E-3,1.5719334E-4,1.8960286E-2,-2.5484138E-4,-1.7139222E-3,2.287396E-3,3.7275963E-3,-1.3464891E-3],"split_indices":[23,19,19,1,1,0,6,5,1,1,19,0,0,23,23,23,1,0,19,0,0,1,23,0,23,0,0,23,23,0,0,0,0,0,0,0,0,0,0,0,0],"split_type":[0,0,0,0,0,0,0,0,0,0,0,0,0,0,0,0,0,0,0,0,0,0,0,0,0,0,0,0,0,0,0,0,0,0,0,0,0,0,0,0,0],"sum_hessian":[4.73E2,2.86E2,1.87E2,2.32E2,5.4E1,1.01E2,8.6E1,1.26E2,1.06E2,4.1E1,1.3E1,6.8E1,1.8E1,7.8E1,4.8E1,5E0,1.01E2,2.8E1,1.3E1,8E0,5E0,2.5E1,5.3E1,1.9E1,2.9E1,3E0,2E0,5.7E1,4.4E1,9E0,4E0,1.5E1,1E1,6E0,4.7E1,2E0,2.7E1,1.7E1,4E1,1.3E1,3.1E1],"tree_param":{"num_deleted":"0","num_feature":"25","num_nodes":"41","size_leaf_vector":"1"}},{"base_weights":[1.14603145E-2,3.8009977E-3,4.6358433E-2,-1.7793839E-3,3.3465426E-2,3.2435857E-2,1.3074226E-2,-6.79048E-3,4.683777E-2,1.0734164E-2,1.1132486E-2,2.712391E-2,6.1595156E-3,-8.929013E-3,2.1592942E-3,2.4084719E-2,1.1490668E-2,3.341165E-2,-2.639813E-3,2.9646375E-3,3.973341E-2,-5.044952E-3,-3.5273816E-2,-1.5131742E-2,6.5379823E-3,3.6254977E-3,7.5121684E-4,4.4682953E-3,1.0905613E-3,5.662489E-3,-5.232632E-3,7.2206105E-3,1.9470958E-2,-7.953357E-4,9.826216E-4,-1.6248703E-3,-6.0872003E-3,-8.916091E-4,-2.9267825E-3,-1.3073547E-3,-9.3841554E-5,1.0767954E-3,2.7345659E-3],"categories":[],"categories_nodes":[],"categories_segments":[],"categories_sizes":[],"default_left":[0,0,0,0,0,0,0,0,0,0,0,0,0,0,0,0,0,0,0,0,0,0,0,0,0,0,0,0,0,0,0,0,0,0,0,0,0,0,0,0,0,0,0],"id":44,"left_children":[1,3,5,7,9,11,-1,13,15,17,-1,19,-1,21,23,25,-1,27,-1,29,31,33,35,37,-1,-1,-1,-1,-1,-1,39,-1,41,-1,-1,-1,-1,-1,-1,-1,-1,-1,-1],"loss_changes":[1.1877039E-1,6.064676E-2,8.9746475E-2,7.559825E-2,1.0145593E-1,9.171784E-3,0E0,5.3974492E-3,4.2146996E-2,3.9617095E-2,0E0,1.8465023E-2,0E0,2.3049783E-2,6.111247E-2,4.3665664E-3,0E0,6.8692006E-3,0E0,9.9733835E-3,2.4913132E-2,8.685174E-3,1.3134148E-2,3.6051031E-3,0E0,0E0,0E0,0E0,0E0,0E0,6.611433E-4,0E0,1.4874144E-3,0E0,0E0,0E0,0E0,0E0,0E0,0E0,0E0,0E0,0E0],"parents":[2147483647,0,0,1,1,2,2,3,3,4,4,5,5,7,7,8,8,9,9,11,11,13,13,14,14,15,15,17,17,19,19,20,20,21,21,22,22,23,23,30,30,32,32],"right_children":[2,4,6,8,10,12,-1,14,16,18,-1,20,-1,22,24,26,-1,28,-1,30,32,34,36,38,-1,-1,-1,-1,-1,-1,40,-1,42,-1,-1,-1,-1,-1,-1,-1,-1,-1,-1],"split_conditions":[3E1,1E1,2E2,4E1,9.749279E-1,1E1,1.3074226E-2,1E0,4E0,2.7E1,1.1132486E-2,3.4E1,6.1595156E-3,2E2,2E2,3E0,1.1490668E-2,4E0,-2.639813E-3,5E0,3.5E1,3.5E1,1E0,3.5E1,6.5379823E-3,3.6254977E-3,7.5121684E-4,4.4682953E-3,1.0905613E-3,5.662489E-3,9E1,7.2206105E-3,4E1,-7.953357E-4,9.826216E-4,-1.6248703E-3,-6.0872003E-3,-8.916091E-4,-2.9267825E-3,-1.3073547E-3,-9.3841554E-5,1.0767954E-3,2.7345659E-3],"split_indices":[1,24,22,19,5,24,0,11,0,1,0,19,0,22,22,0,0,0,0,21,19,19,0,19,0,0,0,0,0,0,22,0,19,0,0,0,0,0,0,0,0,0,0],"split_type":[0,0,0,0,0,0,0,0,0,0,0,0,0,0,0,0,0,0,0,0,0,0,0,0,0,0,0,0,0,0,0,0,0,0,0,0,0,0,0,0,0,0,0],"sum_hessian":[4.44E2,3.65E2,7.9E1,3.08E2,5.7E1,6.9E1,1E1,2.8E2,2.8E1,4.5E1,1.2E1,6E1,9E0,2.26E2,5.4E1,2.2E1,6E0,2.8E1,1.7E1,2.1E1,3.9E1,1.98E2,2.8E1,4.3E1,1.1E1,1.2E1,1E1,1.8E1,1E1,2E0,1.9E1,1.4E1,2.5E1,1.66E2,3.2E1,1.7E1,1.1E1,3.1E1,1.2E1,6E0,1.3E1,1.3E1,1.2E1],"tree_param":{"num_deleted":"0","num_feature":"25","num_nodes":"43","size_leaf_vector":"1"}},{"base_weights":[8.809253E-3,1.9885894E-2,-1.7150283E-2,4.047927E-3,4.028349E-2,-9.896596E-4,-1.7683825E-2,-2.930416E-2,1.5058491E-2,-4.469972E-3,5.2492503E-2,-8.897722E-4,-1.8108059E-2,-3.431187E-2,5.55795E-3,9.472623E-3,8.071997E-2,5.284993E-3,-1.0052963E-2,4.4211812E-2,8.511123E-2,-1.7081926E-3,-2.1488266E-3,-4.7099493E-3,-2.3155543E-3,2.0064652E-2,-1.2167451E-2,-2.5892526E-2,2.7376497E-2,-1.3498093E-3,3.1950473E-4,3.14003E-2,6.655394E-2,1.6550351E-2,1.3130334E-2,6.5686536E-4,7.2933943E-3,-3.7949365E-3,-7.8890176E-4,-1.2277019E-2,5.485739E-4,5.0567403E-3,7.0045254E-4,9.639696E-3,2.8820918E-3,-1.6898292E-3,7.094789E-3],"categories":[],"categories_nodes":[],"categories_segments":[],"categories_sizes":[],"default_left":[0,0,0,0,0,0,0,0,0,0,0,0,0,0,0,0,0,0,0,0,0,0,0,0,0,0,0,0,0,0,0,0,0,0,0,0,0,0,0,0,0,0,0,0,0,0,0],"id":45,"left_children":[1,3,5,7,9,-1,11,13,15,17,19,-1,21,23,-1,25,27,-1,29,31,33,-1,-1,-1,-1,35,37,39,-1,-1,-1,41,43,45,-1,-1,-1,-1,-1,-1,-1,-1,-1,-1,-1,-1,-1],"loss_changes":[1.3634959E-1,1.0709168E-1,3.7455186E-4,6.947963E-2,7.946202E-2,0E0,3.2716244E-4,2.1885447E-2,5.1317625E-2,1.0771826E-2,2.7029097E-2,0E0,6.304309E-5,5.329214E-3,0E0,3.0500157E-2,2.3347956E-1,0E0,1.4123605E-3,2.4530187E-2,6.750028E-2,0E0,0E0,0E0,0E0,6.3024536E-2,4.55409E-3,2.499231E-2,0E0,0E0,0E0,2.816917E-2,3.438197E-2,1.9394135E-2,0E0,0E0,0E0,0E0,0E0,0E0,0E0,0E0,0E0,0E0,0E0,0E0,0E0],"parents":[2147483647,0,0,1,1,2,2,3,3,4,4,6,6,7,7,8,8,9,9,10,10,12,12,13,13,15,15,16,16,18,18,19,19,20,20,25,25,26,26,27,27,31,31,32,32,33,33],"right_children":[2,4,6,8,10,-1,12,14,16,18,20,-1,22,24,-1,26,28,-1,30,32,34,-1,-1,-1,-1,36,38,40,-1,-1,-1,42,44,46,-1,-1,-1,-1,-1,-1,-1,-1,-1,-1,-1,-1,-1],"split_conditions":[9.3E1,1.5E1,2.8E1,1E1,1E2,-9.896596E-4,1E2,6E0,4E1,1E1,3.5E1,-8.897722E-4,4E1,3E0,5.55795E-3,3E0,4E0,5.284993E-3,5.8E1,6.8E1,1E0,-1.7081926E-3,-2.1488266E-3,-4.7099493E-3,-2.3155543E-3,7.5E1,4.3E1,3E0,2.7376497E-2,-1.3498093E-3,3.1950473E-4,4.3E1,1E0,4E1,1.3130334E-2,6.5686536E-4,7.2933943E-3,-3.7949365E-3,-7.8890176E-4,-1.2277019E-2,5.485739E-4,5.0567403E-3,7.0045254E-4,9.639696E-3,2.8820918E-3,-1.6898292E-3,7.094789E-3],"split_indices":[20,1,19,20,22,0,22,1,19,20,19,0,19,0,0,1,0,0,20,20,0,0,0,0,0,20,20,0,0,0,0,20,0,19,0,0,0,0,0,0,0,0,0,0,0,0,0],"split_type":[0,0,0,0,0,0,0,0,0,0,0,0,0,0,0,0,0,0,0,0,0,0,0,0,0,0,0,0,0,0,0,0,0,0,0,0,0,0,0,0,0,0,0,0,0,0,0],"sum_hessian":[4.72E2,3.31E2,1.41E2,1.87E2,1.44E2,1.1E1,1.3E2,4.6E1,1.41E2,3.1E1,1.13E2,7E0,1.23E2,4.4E1,2E0,1.31E2,1E1,2E0,2.9E1,9.2E1,2.1E1,9.9E1,2.4E1,1.9E1,2.5E1,8.8E1,4.3E1,7E0,3E0,2.3E1,6E0,6E1,3.2E1,9E0,1.2E1,7.1E1,1.7E1,5E0,3.8E1,1E0,6E0,3.3E1,2.7E1,1.7E1,1.5E1,6E0,3E0],"tree_param":{"num_deleted":"0","num_feature":"25","num_nodes":"47","size_leaf_vector":"1"}},{"base_weights":[-1.3603407E-3,3.426636E-2,-1.0079867E-2,4.9794326E-3,1.6834876E-1,-3.8638262E-3,-3.1227008E-2,-6.4399135E-3,5.8457818E-2,7.097284E-3,3.3504248E-2,6.669526E-2,-7.5381207E-3,-5.6616873E-2,3.6706298E-3,-1.4660926E-2,2.5142482E-2,9.906853E-3,3.694466E-4,-1.0563016E-2,1.8434318E-2,-1.4370341E-3,-4.0316474E-2,-1.17947936E-1,-1.6515683E-3,4.8331883E-2,-1.8801176E-3,-5.6632846E-3,3.3972766E-3,7.505256E-3,4.7076834E-4,4.4756215E-2,-7.483349E-2,1.22911E-2,-1.3267891E-2,-7.7381968E-3,-9.888097E-3,-1.919283E-2,-2.4774743E-3,6.6823135E-3,-3.5579999E-3,-1.0798256E-3,2.5883643E-3,1.7705506E-2,-6.565696E-3,-1.041557E-2,-2.0566783E-3,3.6575634E-3,-5.0073944E-5,-8.989394E-4,-1.3585174E-3,5.758654E-4,-1.4774556E-3],"categories":[],"categories_nodes":[],"categories_segments":[],"categories_sizes":[],"default_left":[0,0,0,0,0,0,0,0,0,0,0,0,0,0,0,0,0,0,0,0,0,0,0,0,0,0,0,0,0,0,0,0,0,0,0,0,0,0,0,0,0,0,0,0,0,0,0,0,0,0,0,0,0],"id":46,"left_children":[1,3,5,7,9,11,13,15,17,-1,-1,19,21,23,25,27,29,-1,-1,31,-1,33,35,37,-1,39,-1,-1,41,-1,-1,43,45,47,49,51,-1,-1,-1,-1,-1,-1,-1,-1,-1,-1,-1,-1,-1,-1,-1,-1,-1],"loss_changes":[1.500777E-1,3.722136E-1,5.0882522E-2,4.862083E-2,2.521643E-1,7.853847E-2,7.81799E-2,1.7504804E-2,3.0769695E-2,0E0,0E0,1.3828634E-1,5.7337344E-2,1.2348387E-1,3.904622E-2,4.036308E-2,1.3925309E-2,0E0,0E0,3.8903195E-2,0E0,3.9630063E-2,8.5091695E-2,1.3310474E-1,0E0,2.2548828E-2,0E0,0E0,1.2409324E-2,0E0,0E0,9.92701E-2,5.8139507E-3,3.5121076E-2,5.570799E-5,2.934142E-3,0E0,0E0,0E0,0E0,0E0,0E0,0E0,0E0,0E0,0E0,0E0,0E0,0E0,0E0,0E0,0E0,0E0],"parents":[2147483647,0,0,1,1,2,2,3,3,4,4,5,5,6,6,7,7,8,8,11,11,12,12,13,13,14,14,15,15,16,16,19,19,21,21,22,22,23,23,25,25,28,28,31,31,32,32,33,33,34,34,35,35],"right_children":[2,4,6,8,10,12,14,16,18,-1,-1,20,22,24,26,28,30,-1,-1,32,-1,34,36,38,-1,40,-1,-1,42,-1,-1,44,46,48,50,52,-1,-1,-1,-1,-1,-1,-1,-1,-1,-1,-1,-1,-1,-1,-1,-1,-1],"split_conditions":[2.3E1,3E1,3.5E1,4E0,6E0,4.3E1,3E0,3.4E1,3.4E1,7.097284E-3,3.3504248E-2,3E1,3E1,2.5E1,2.5E1,2E0,2E0,9.906853E-3,3.694466E-4,2.5E1,1.8434318E-2,8.4313726E-1,2E2,3E1,-1.6515683E-3,4E0,-1.8801176E-3,-5.6632846E-3,2E0,7.505256E-3,4.7076834E-4,2E0,3E0,1E0,2.8E1,8.4313726E-1,-9.888097E-3,-1.919283E-2,-2.4774743E-3,6.6823135E-3,-3.5579999E-3,-1.0798256E-3,2.5883643E-3,1.7705506E-2,-6.565696E-3,-1.041557E-2,-2.0566783E-3,3.6575634E-3,-5.0073944E-5,-8.989394E-4,-1.3585174E-3,5.758654E-4,-1.4774556E-3],"split_indices":[20,1,19,0,20,20,0,19,19,0,0,1,1,20,20,1,1,0,0,20,0,23,22,1,0,0,0,0,0,0,0,1,0,0,19,23,0,0,0,0,0,0,0,0,0,0,0,0,0,0,0,0,0],"split_type":[0,0,0,0,0,0,0,0,0,0,0,0,0,0,0,0,0,0,0,0,0,0,0,0,0,0,0,0,0,0,0,0,0,0,0,0,0,0,0,0,0,0,0,0,0,0,0,0,0,0,0,0,0],"sum_hessian":[4.81E2,9.4E1,3.87E2,7.8E1,1.6E1,3E2,8.7E1,6.5E1,1.3E1,1.1E1,5E0,1.4E1,2.86E2,5E1,3.7E1,5.2E1,1.3E1,7E0,6E0,9E0,5E0,2.42E2,4.4E1,1.9E1,3.1E1,1.2E1,2.5E1,1.5E1,3.7E1,3E0,1E1,5E0,4E0,1.12E2,1.3E2,2.9E1,1.5E1,1E1,9E0,1E1,2E0,2.3E1,1.4E1,2E0,3E0,2E0,2E0,3.8E1,7.4E1,1.1E1,1.19E2,1E1,1.9E1],"tree_param":{"num_deleted":"0","num_feature":"25","num_nodes":"53","size_leaf_vector":"1"}},{"base_weights":[-1.3007761E-3,5.692001E-2,-3.7754888E-3,1.4599895E-1,-2.2762646E-3,-7.709211E-3,1.9197436E-2,2.1265054E-2,6.34779E-3,-9.19877E-4,7.33312E-4,1.3236862E-2,-1.4969018E-2,-3.7051544E-3,6.2294174E-2,6.556569E-2,-6.9048875E-3,-1.0733046E-2,-4.46742E-2,3.936723E-3,-1.9760816E-3,4.676245E-3,9.333372E-3,3.1665087E-2,1.2681034E-1,-3.1079792E-3,-1.1263895E-3,-3.3583741E-3,-1.8026408E-2,-6.658807E-2,3.0900955E-2,-9.6256736E-5,1.1171268E-3,4.0364917E-3,-6.681585E-3,1.4385844E-2,6.527358E-3,-1.0777642E-3,2.0263379E-4,2.728276E-4,-1.4797074E-3,-1.1224094E-3,-4.9775457E-3,3.1917964E-3,-9.367304E-3,5.883944E-3,-1.8732011E-3],"categories":[],"categories_nodes":[],"categories_segments":[],"categories_sizes":[],"default_left":[0,0,0,0,0,0,0,0,0,0,0,0,0,0,0,0,0,0,0,0,0,0,0,0,0,0,0,0,0,0,0,0,0,0,0,0,0,0,0,0,0,0,0,0,0,0,0],"id":47,"left_children":[1,3,5,7,9,11,13,-1,-1,-1,-1,15,17,19,21,23,25,27,29,31,-1,-1,-1,33,35,37,-1,39,41,43,45,-1,-1,-1,-1,-1,-1,-1,-1,-1,-1,-1,-1,-1,-1,-1,-1],"loss_changes":[7.066988E-2,1.0579517E-1,4.262148E-2,3.0502662E-2,9.322289E-4,6.132805E-2,6.833567E-2,0E0,0E0,0E0,0E0,1.1006812E-1,3.714378E-2,5.721781E-3,7.205829E-3,5.6195214E-2,1.2228494E-3,1.408522E-2,6.333497E-2,1.1449654E-3,0E0,0E0,0E0,1.9832369E-2,1.1006892E-3,1.6757355E-3,0E0,9.230655E-3,2.7948953E-2,8.036278E-2,1.3582209E-2,0E0,0E0,0E0,0E0,0E0,0E0,0E0,0E0,0E0,0E0,0E0,0E0,0E0,0E0,0E0,0E0],"parents":[2147483647,0,0,1,1,2,2,3,3,4,4,5,5,6,6,11,11,12,12,13,13,14,14,15,15,16,16,17,17,18,18,19,19,23,23,24,24,25,25,27,27,28,28,29,29,30,30],"right_children":[2,4,6,8,10,12,14,-1,-1,-1,-1,16,18,20,22,24,26,28,30,32,-1,-1,-1,34,36,38,-1,40,42,44,46,-1,-1,-1,-1,-1,-1,-1,-1,-1,-1,-1,-1,-1,-1,-1,-1],"split_conditions":[9E0,6E0,2E2,6E0,1E1,1E0,7.818315E-1,2.1265054E-2,6.34779E-3,-9.19877E-4,7.33312E-4,2.5E1,4E1,4E0,2E0,3.5E1,7.5E1,-2.2252093E-1,4E0,1E0,-1.9760816E-3,4.676245E-3,9.333372E-3,3.4E1,4E1,5.8E1,-1.1263895E-3,4E0,3.5E1,2E0,2.3E1,-9.6256736E-5,1.1171268E-3,4.0364917E-3,-6.681585E-3,1.4385844E-2,6.527358E-3,-1.0777642E-3,2.0263379E-4,2.728276E-4,-1.4797074E-3,-1.1224094E-3,-4.9775457E-3,3.1917964E-3,-9.367304E-3,5.883944E-3,-1.8732011E-3],"split_indices":[2,20,22,1,21,0,5,0,0,0,0,20,19,0,0,19,20,6,0,0,0,0,0,19,19,20,0,0,19,1,20,0,0,0,0,0,0,0,0,0,0,0,0,0,0,0,0],"split_type":[0,0,0,0,0,0,0,0,0,0,0,0,0,0,0,0,0,0,0,0,0,0,0,0,0,0,0,0,0,0,0,0,0,0,0,0,0,0,0,0,0,0,0,0,0,0,0],"sum_hessian":[4.88E2,1.9E1,4.69E2,7E0,1.2E1,4.01E2,6.8E1,3E0,4E0,7E0,5E0,1.03E2,2.98E2,4.5E1,2.3E1,2.8E1,7.5E1,2.62E2,3.6E1,3.1E1,1.4E1,1.7E1,6E0,1.9E1,9E0,4.1E1,3.4E1,1.31E2,1.31E2,2.8E1,8E0,1.9E1,1.2E1,1.8E1,1E0,6E0,3E0,1.6E1,2.5E1,8.6E1,4.5E1,1.09E2,2.2E1,6E0,2.2E1,5E0,3E0],"tree_param":{"num_deleted":"0","num_feature":"25","num_nodes":"47","size_leaf_vector":"1"}},{"base_weights":[-8.5529415E-3,-1.2645501E-1,-7.5291432E-3,-2.2919595E-2,-1.5809378E-3,-5.4732285E-4,-1.8635314E-2,2.9031323E-2,-1.343036E-2,-5.1281262E-2,-6.1282488E-3,7.5736046E-3,5.5796824E-2,-4.128027E-2,-6.2990226E-3,-3.1219622E-2,-1.2840586E-2,1.9782803E-3,-1.2127511E-3,-5.830422E-3,2.9750196E-2,4.4046156E-2,9.58249E-2,-1.9174192E-2,-1.670367E-2,6.0762516E-3,-1.1877951E-2,-2.1002241E-3,-4.75296E-3,9.982149E-3,-6.667946E-3,1.3370435E-3,-2.8482757E-3,2.4041568E-3,5.218236E-3,5.6168265E-3,1.5797745E-3,4.2419913E-3,1.7069323E-2,-8.710623E-5,-3.9579393E-3,1.440639E-4,9.5432467E-4,-1.2110613E-3,-5.749166E-4,5.0155993E-4,1.7014006E-3,-1.8503874E-3,8.41227E-4],"categories":[],"categories_nodes":[],"categories_segments":[],"categories_sizes":[],"default_left":[0,0,0,0,0,0,0,0,0,0,0,0,0,0,0,0,0,0,0,0,0,0,0,0,0,0,0,0,0,0,0,0,0,0,0,0,0,0,0,0,0,0,0,0,0,0,0,0,0],"id":48,"left_children":[1,3,5,-1,-1,7,9,11,13,15,17,19,21,23,25,27,-1,29,-1,31,33,35,37,39,-1,41,43,-1,-1,45,47,-1,-1,-1,-1,-1,-1,-1,-1,-1,-1,-1,-1,-1,-1,-1,-1,-1,-1],"loss_changes":[5.6022033E-2,4.18479E-2,3.635667E-2,0E0,0E0,1.1051705E-1,7.358894E-2,5.0118163E-2,3.985861E-2,7.335353E-2,6.443573E-3,1.50362365E-2,1.41231865E-2,1.1077643E-1,1.1256777E-2,5.834233E-3,0E0,4.0111463E-3,0E0,1.4299041E-2,1.1785347E-3,1.0070436E-2,2.4745949E-2,1.3410769E-2,0E0,8.0590567E-4,9.007938E-5,0E0,0E0,9.623866E-4,5.153334E-3,0E0,0E0,0E0,0E0,0E0,0E0,0E0,0E0,0E0,0E0,0E0,0E0,0E0,0E0,0E0,0E0,0E0,0E0],"parents":[2147483647,0,0,1,1,2,2,5,5,6,6,7,7,8,8,9,9,10,10,11,11,12,12,13,13,14,14,15,15,17,17,19,19,20,20,21,21,22,22,23,23,25,25,26,26,29,29,30,30],"right_children":[2,4,6,-1,-1,8,10,12,14,16,18,20,22,24,26,28,-1,30,-1,32,34,36,38,40,-1,42,44,-1,-1,46,48,-1,-1,-1,-1,-1,-1,-1,-1,-1,-1,-1,-1,-1,-1,-1,-1,-1,-1],"split_conditions":[5E0,2E0,3E0,-2.2919595E-2,-1.5809378E-3,2.4752475E-1,2.4752475E-1,3.4E1,5.7425743E-1,4E1,8.4313726E-1,2E0,2E0,2E0,8.4313726E-1,3.5E1,-1.2840586E-2,4E0,-1.2127511E-3,1E0,2E0,4E1,4E1,1E0,-1.670367E-2,1E0,1.1648352E0,-2.1002241E-3,-4.75296E-3,2E2,5.7425743E-1,1.3370435E-3,-2.8482757E-3,2.4041568E-3,5.218236E-3,5.6168265E-3,1.5797745E-3,4.2419913E-3,1.7069323E-2,-8.710623E-5,-3.9579393E-3,1.440639E-4,9.5432467E-4,-1.2110613E-3,-5.749166E-4,5.0155993E-4,1.7014006E-3,-1.8503874E-3,8.41227E-4],"split_indices":[21,0,0,0,0,23,23,19,23,19,23,0,0,0,23,19,0,0,0,0,1,19,19,0,0,0,23,0,0,22,23,0,0,0,0,0,0,0,0,0,0,0,0,0,0,0,0,0,0],"split_type":[0,0,0,0,0,0,0,0,0,0,0,0,0,0,0,0,0,0,0,0,0,0,0,0,0,0,0,0,0,0,0,0,0,0,0,0,0,0,0,0,0,0,0,0,0,0,0,0,0],"sum_hessian":[4.71E2,3E0,4.68E2,1E0,2E0,2.88E2,1.8E2,8.7E1,2.01E2,4.9E1,1.31E2,4.9E1,3.8E1,4E1,1.61E2,4E1,9E0,5.6E1,7.5E1,3.1E1,1.8E1,3.1E1,7E0,3.5E1,5E0,5E1,1.11E2,2.6E1,1.4E1,2.9E1,2.7E1,1.7E1,1.4E1,1.6E1,2E0,2.1E1,1E1,5E0,2E0,1.9E1,1.6E1,2.2E1,2.8E1,1.06E2,5E0,1.8E1,1.1E1,1.5E1,1.2E1],"tree_param":{"num_deleted":"0","num_feature":"25","num_nodes":"49","size_leaf_vector":"1"}},{"base_weights":[-2.1034665E-3,-2.0911058E-2,4.1542863E-3,1.2079822E-2,-2.641995E-2,-3.5412193E-4,3.7818316E-2,3.3069134E-3,8.8999135E-4,-1.9080682E-2,-1.9647997E-2,1.2014456E-2,-6.739988E-3,5.725004E-2,7.6492494E-3,-1.1813169E-2,-5.078839E-3,-4.6846285E-3,5.1120944E-2,-4.6557825E-2,-5.5589927E-3,9.3007665E-3,4.6521034E-2,1.132247E-3,-2.7397752E-3,-5.636432E-3,-5.548448E-3,-2.9493915E-2,2.5078813E-2,6.674733E-2,-3.0322352E-3,-5.077667E-3,-1.2731791E-3,1.4683162E-4,-1.0843523E-2,2.3591171E-3,6.3663325E-3,-2.4959745E-4,-8.9764036E-4,2.1532378E-3,-3.6774543E-3,5.2278163E-3,-2.7064506E-3,-2.7931758E-4,8.583989E-3,-9.646103E-4,7.281566E-4,-5.259633E-4,-1.1120422E-3],"categories":[],"categories_nodes":[],"categories_segments":[],"categories_sizes":[],"default_left":[0,0,0,0,0,0,0,0,0,0,0,0,0,0,0,0,0,0,0,0,0,0,0,0,0,0,0,0,0,0,0,0,0,0,0,0,0,0,0,0,0,0,0,0,0,0,0,0,0],"id":49,"left_children":[1,3,5,7,9,11,13,-1,-1,-1,15,17,19,21,23,25,-1,27,29,31,33,-1,35,-1,-1,-1,37,39,41,43,-1,-1,-1,45,47,-1,-1,-1,-1,-1,-1,-1,-1,-1,-1,-1,-1,-1,-1],"loss_changes":[5.7050414E-2,2.231007E-2,5.5258106E-2,9.070814E-4,1.1202593E-1,2.5513852E-2,2.4770278E-2,0E0,0E0,0E0,2.4041973E-2,7.2074175E-2,9.757441E-3,5.64792E-3,2.6274468E-3,2.2573516E-2,0E0,5.8335632E-2,4.4021875E-2,2.0976365E-4,6.273333E-3,0E0,7.145658E-3,0E0,0E0,0E0,7.414485E-4,1.6766492E-2,5.24724E-2,3.7415534E-2,0E0,0E0,0E0,7.127107E-3,1.0849722E-4,0E0,0E0,0E0,0E0,0E0,0E0,0E0,0E0,0E0,0E0,0E0,0E0,0E0,0E0],"parents":[2147483647,0,0,1,1,2,2,3,3,4,4,5,5,6,6,10,10,11,11,12,12,13,13,14,14,15,15,17,17,18,18,19,19,20,20,22,22,26,26,27,27,28,28,29,29,33,33,34,34],"right_children":[2,4,6,8,10,12,14,-1,-1,-1,16,18,20,22,24,26,-1,28,30,32,34,-1,36,-1,-1,-1,38,40,42,44,-1,-1,-1,46,48,-1,-1,-1,-1,-1,-1,-1,-1,-1,-1,-1,-1,-1,-1],"split_conditions":[1E0,6E0,2E2,1.5E1,2.3E1,2.5E1,5E0,3.3069134E-3,8.8999135E-4,-1.9080682E-2,2E2,2.3E1,4.3E1,3E0,2E0,2.5E1,-5.078839E-3,3E0,4E0,2E0,7.5E1,9.3007665E-3,4E0,1.132247E-3,-2.7397752E-3,-5.636432E-3,7.5E1,9E0,6E0,2E0,-3.0322352E-3,-5.077667E-3,-1.2731791E-3,5.8E1,1E2,2.3591171E-3,6.3663325E-3,-2.4959745E-4,-8.9764036E-4,2.1532378E-3,-3.6774543E-3,5.2278163E-3,-2.7064506E-3,-2.7931758E-4,8.583989E-3,-9.646103E-4,7.281566E-4,-5.259633E-4,-1.1120422E-3],"split_indices":[0,20,22,1,20,20,1,0,0,0,22,20,20,0,0,20,0,0,0,0,20,0,0,0,0,0,20,2,20,1,0,0,0,20,22,0,0,0,0,0,0,0,0,0,0,0,0,0,0],"split_type":[0,0,0,0,0,0,0,0,0,0,0,0,0,0,0,0,0,0,0,0,0,0,0,0,0,0,0,0,0,0,0,0,0,0,0,0,0,0,0,0,0,0,0,0,0,0,0,0,0],"sum_hessian":[4.83E2,1.2E2,3.63E2,1.7E1,1.03E2,3.21E2,4.2E1,1E0,1.6E1,3E0,1E2,1.09E2,2.12E2,2.5E1,1.7E1,8.1E1,1.9E1,7.7E1,3.2E1,5E0,2.07E2,4E0,2.1E1,1.6E1,1E0,9E0,7.2E1,4.2E1,3.5E1,2.7E1,5E0,4E0,1E0,1E2,1.07E2,1E1,1.1E1,3.9E1,3.3E1,5E0,3.7E1,2.3E1,1.2E1,6E0,2.1E1,4.2E1,5.8E1,6E0,1.01E2],"tree_param":{"num_deleted":"0","num_feature":"25","num_nodes":"49","size_leaf_vector":"1"}},{"base_weights":[1.3208324E-3,2.9395068E-2,-5.7012024E-3,4.396627E-3,1.6242698E-1,-2.1789523E-3,-1.7538447E-2,-8.7324865E-3,3.415514E-2,3.1415701E-3,1.6954096E-2,6.384534E-2,-4.0117586E-3,4.535045E-3,-5.5618983E-2,-4.907751E-3,6.8449634E-3,5.266578E-2,2.0451292E-2,-5.0865173E-2,1.9127214E-2,-9.065912E-3,-2.1980314E-4,3.492847E-2,-1.0781012E-3,-1.3196486E-1,-9.3442425E-3,1.38631025E-2,-1.1855642E-3,-9.713292E-4,6.0676048E-3,4.547008E-3,1.3629318E-3,-2.2917986E-4,-6.2435567E-3,-3.991486E-3,-2.7843907E-3,-4.131467E-3,1.6821954E-2,8.644724E-3,-2.008314E-2,-2.0206604E-2,-7.165602E-3,-1.11176055E-2,-5.7444704E-4,-8.5006235E-4,2.3398292E-3,-8.709364E-4,-1.6785967E-4,3.348201E-6,-1.0575983E-3,3.1232024E-3,9.507287E-4,-3.041053E-3,-1.1312758E-3,-7.632786E-4,-1.5166759E-3],"categories":[],"categories_nodes":[],"categories_segments":[],"categories_sizes":[],"default_left":[0,0,0,0,0,0,0,0,0,0,0,0,0,0,0,0,0,0,0,0,0,0,0,0,0,0,0,0,0,0,0,0,0,0,0,0,0,0,0,0,0,0,0,0,0,0,0,0,0,0,0,0,0,0,0,0,0],"id":50,"left_children":[1,3,5,7,9,11,13,15,17,-1,-1,19,21,23,25,-1,27,29,31,33,-1,35,37,39,-1,41,43,45,-1,-1,-1,-1,-1,-1,-1,