{"learner":{"attributes":{"scikit_learn":"{\"_estimator_type\": \"regressor\"}"},"feature_names":["precio_venta","dia_semana","dia_mes","mes","trimestre","semana_año","dia_semana_sin","dia_semana_cos","mes_sin","mes_cos","es_fin_semana","es_lunes","es_viernes","es_feriado","dia_antes_feriado","dia_despues_feriado","temperatura_simulada","lluvia_simulada","clima_caluroso","clima_frio","lag_cantidad_7d","lag_cantidad_14d","lag_cantidad_30d","media_movil_7d","media_movil_14d","media_movil_30d","tendencia_7d","volatilidad_7d","estacion_invierno","estacion_otoño","estacion_primavera","estacion_verano"],"feature_types":["float","int","int","int","int","int","float","float","float","float","int","int","int","int","int","int","float","int","int","int","float","float","float","float","float","float","float","float","i","i","i","i"],"gradient_booster":{"model":{"gbtree_model_param":{"num_parallel_tree":"1","num_trees":"100"},"iteration_indptr":[0,1,2,3,4,5,6,7,8,9,10,11,12,13,14,15,16,17,18,19,20,21,22,23,24,25,26,27,28,29,30,31,32,33,34,35,36,37,38,39,40,41,42,43,44,45,46,47,48,49,50,51,52,53,54,55,56,57,58,59,60,61,62,63,64,65,66,67,68,69,70,71,72,73,74,75,76,77,78,79,80,81,82,83,84,85,86,87,88,89,90,91,92,93,94,95,96,97,98,99,100],"tree_info":[0,0,0,0,0,0,0,0,0,0,0,0,0,0,0,0,0,0,0,0,0,0,0,0,0,0,0,0,0,0,0,0,0,0,0,0,0,0,0,0,0,0,0,0,0,0,0,0,0,0,0,0,0,0,0,0,0,0,0,0,0,0,0,0,0,0,0,0,0,0,0,0,0,0,0,0,0,0,0,0,0,0,0,0,0,0,0,0,0,0,0,0,0,0,0,0,0,0,0,0],"trees":[{"base_weights":[2.106003E-2,3.6252697E0,-3.9337497E0,8.438406E-1,1.0530792E1,-5.636651E0,2.5666967E-1,-1.9853316E-1,3.26642E0,8.858469E0,1.4258232E1,-4.408799E0,-7.134061E0,2.0605E0,-2.1863897E0,1.1566671E0,-1.4373051E0,5.32467E0,2.317375E0,1.1772386E1,7.620304E0,1.5672486E1,9.533382E0,-5.0770283E0,-2.874414E0,-7.7964015E0,-5.652822E0,8.438867E-1,5.236069E0,-2.865131E0,-5.717476E-1,2.5009937E0,9.3095607E-1,-9.64735E-1,-2.3997476E0,1.2789622E1,5.1671796E0,2.9128814E0,2.780783E-1,1.2284604E1,1.0021424E1,8.417929E0,6.1661367E0,1.9342783E1,1.4817711E1,7.8256083E0,1.1563674E1,-4.5780497E0,-5.909797E0,-2.0102212E0,-3.4518802E0,-7.0559554E0,-8.369217E0,-4.385491E0,-6.439009E0,2.0552356E0,-9.197789E-2,6.446257E0,3.6024332E0,-2.3705828E0,-4.5578766E0,-8.010864E-3,-4.3233747E0,1.5926509E-1,3.177019E-1,1.2300885E-1,3.737318E-2,-1.4791022E-1,-5.9021354E-2,-1.9503163E-1,-3.0657467E-1,1.0313228E0,2.1733851E0,5.080137E-1,1.163707E0,3.0186236E-1,-7.09361E-3,8.791524E-2,-9.098952E-2,1.4559289E0,1.160798E0,1.0911007E0,7.900764E-1,7.702903E-1,9.142907E-1,6.3518023E-1,2.3007524E-1,1.371043E0,2.0459764E0,1.3921837E0,1.7547439E0,1.1890405E0,6.8199706E-1,1.4502888E0,9.644357E-1,-4.1291603E-1,-4.9459258E-1,-6.013447E-1,-4.6823993E-1,-2.8347245E-1,-1.4634301E-1,-2.7801213E-1,-3.8683978E-1,-8.7034065E-1,-6.98E-1,-8.125772E-1,-9.2010164E-1,-5.539616E-1,-4.0427518E-1,-6.45656E-1,3.3003885E-1,2.7601132E-1,6.7174084E-2,-1.972218E-2,2.714084E-1,7.918865E-1,5.7039994E-1,3.2051402E-1,1.0323794E0,-2.4929824E-1,6.1287433E-2,-2.5048983E-1,-5.12139E-1,-3.456394E-1,2.6021896E-2,-5.257019E-1,-1.0135645E-1],"categories":[],"categories_nodes":[],"categories_segments":[],"categories_sizes":[],"default_left":[0,0,0,0,0,0,0,0,0,0,0,0,0,0,0,0,0,0,0,0,0,0,0,0,0,0,0,0,0,0,0,0,0,0,0,0,0,0,0,0,0,0,0,0,0,0,0,0,0,0,0,0,0,0,0,0,0,0,0,0,0,0,0,0,0,0,0,0,0,0,0,0,0,0,0,0,0,0,0,0,0,0,0,0,0,0,0,0,0,0,0,0,0,0,0,0,0,0,0,0,0,0,0,0,0,0,0,0,0,0,0,0,0,0,0,0,0,0,0,0,0,0,0,0,0,0,0],"id":0,"left_children":[1,3,5,7,9,11,13,15,17,19,21,23,25,27,29,31,33,35,37,39,41,43,45,47,49,51,53,55,57,59,61,63,65,67,69,71,73,75,77,79,81,83,85,87,89,91,93,95,97,99,101,103,105,107,109,111,113,115,117,119,121,123,125,-1,-1,-1,-1,-1,-1,-1,-1,-1,-1,-1,-1,-1,-1,-1,-1,-1,-1,-1,-1,-1,-1,-1,-1,-1,-1,-1,-1,-1,-1,-1,-1,-1,-1,-1,-1,-1,-1,-1,-1,-1,-1,-1,-1,-1,-1,-1,-1,-1,-1,-1,-1,-1,-1,-1,-1,-1,-1,-1,-1,-1,-1,-1,-1],"loss_changes":[3.6417453E5,2.5673402E5,8.693064E4,2.4066121E4,2.3797844E4,1.5894469E4,1.5521074E4,1.118908E4,5.5879746E3,9.478453E3,7.7822812E3,4.8679844E3,3.7831406E3,7.82291E3,1.6378652E3,9.634868E2,1.5813735E3,9.9670703E2,2.3842998E3,5.845156E2,2.1101172E3,2.5745781E3,8.6647656E2,1.3508516E3,7.151748E2,1.0831562E3,1.1763594E3,1.6621323E3,1.0858789E3,8.70708E2,9.389942E2,2.755669E2,4.5408716E2,4.4933032E2,3.37042E2,1.7454395E2,4.404004E2,4.7979688E2,3.1855667E2,7.636953E2,2.609121E2,5.521406E2,4.6191602E2,7.8270703E2,1.5751562E3,5.443281E2,5.5964844E2,3.2272656E2,1.2946875E2,2.5823535E2,2.3155176E2,8.703125E1,2.3160156E2,1.6193652E2,1.4848047E2,6.212949E2,2.45061E2,3.0570117E2,6.1046533E2,2.998745E2,2.6135205E2,3.588586E2,1.7390222E2,0E0,0E0,0E0,0E0,0E0,0E0,0E0,0E0,0E0,0E0,0E0,0E0,0E0,0E0,0E0,0E0,0E0,0E0,0E0,0E0,0E0,0E0,0E0,0E0,0E0,0E0,0E0,0E0,0E0,0E0,0E0,0E0,0E0,0E0,0E0,0E0,0E0,0E0,0E0,0E0,0E0,0E0,0E0,0E0,0E0,0E0,0E0,0E0,0E0,0E0,0E0,0E0,0E0,0E0,0E0,0E0,0E0,0E0,0E0,0E0,0E0,0E0,0E0,0E0],"parents":[2147483647,0,0,1,1,2,2,3,3,4,4,5,5,6,6,7,7,8,8,9,9,10,10,11,11,12,12,13,13,14,14,15,15,16,16,17,17,18,18,19,19,20,20,21,21,22,22,23,23,24,24,25,25,26,26,27,27,28,28,29,29,30,30,31,31,32,32,33,33,34,34,35,35,36,36,37,37,38,38,39,39,40,40,41,41,42,42,43,43,44,44,45,45,46,46,47,47,48,48,49,49,50,50,51,51,52,52,53,53,54,54,55,55,56,56,57,57,58,58,59,59,60,60,61,61,62,62],"right_children":[2,4,6,8,10,12,14,16,18,20,22,24,26,28,30,32,34,36,38,40,42,44,46,48,50,52,54,56,58,60,62,64,66,68,70,72,74,76,78,80,82,84,86,88,90,92,94,96,98,100,102,104,106,108,110,112,114,116,118,120,122,124,126,-1,-1,-1,-1,-1,-1,-1,-1,-1,-1,-1,-1,-1,-1,-1,-1,-1,-1,-1,-1,-1,-1,-1,-1,-1,-1,-1,-1,-1,-1,-1,-1,-1,-1,-1,-1,-1,-1,-1,-1,-1,-1,-1,-1,-1,-1,-1,-1,-1,-1,-1,-1,-1,-1,-1,-1,-1,-1,-1,-1,-1,-1,-1,-1],"split_conditions":[6.1476646E1,5E0,5E0,1E0,1E0,8.965922E1,9.116087E1,2.6904404E1,2.0493374E1,1.9419516E1,4.3652153E1,1E0,1E0,1E0,1E0,1.1270821E1,4.593913E1,4.9962015E0,4.744606E1,4.2E1,4.1193012E1,1.42101E1,1.8714285E1,8.16466E1,7.596012E1,1.0041037E2,9.913197E1,7.77115E1,8.100367E1,1.0816134E2,1.1127589E2,1.7639572E1,2.0999756E1,-1.8369701E-16,5.3456543E1,2.5357143E1,5.2E1,2.4366667E1,2.5714285E0,-6.714286E0,2.3928572E1,2.1E1,1E0,1.115664E1,2.7E1,1.2E1,1.9142857E1,7.2365875E1,4.9E1,1.5E1,4.3388373E-1,9.928572E0,1.10668365E2,1.15E1,5.5E1,3.6E1,1.7857143E1,6.945823E1,2.5E1,2.4E1,1.0142858E1,-5.857143E0,1.1928572E1,1.5926509E-1,3.177019E-1,1.2300885E-1,3.737318E-2,-1.4791022E-1,-5.9021354E-2,-1.9503163E-1,-3.0657467E-1,1.0313228E0,2.1733851E0,5.080137E-1,1.163707E0,3.0186236E-1,-7.09361E-3,8.791524E-2,-9.098952E-2,1.4559289E0,1.160798E0,1.0911007E0,7.900764E-1,7.702903E-1,9.142907E-1,6.3518023E-1,2.3007524E-1,1.371043E0,2.0459764E0,1.3921837E0,1.7547439E0,1.1890405E0,6.8199706E-1,1.4502888E0,9.644357E-1,-4.1291603E-1,-4.9459258E-1,-6.013447E-1,-4.6823993E-1,-2.8347245E-1,-1.4634301E-1,-2.7801213E-1,-3.8683978E-1,-8.7034065E-1,-6.98E-1,-8.125772E-1,-9.2010164E-1,-5.539616E-1,-4.0427518E-1,-6.45656E-1,3.3003885E-1,2.7601132E-1,6.7174084E-2,-1.972218E-2,2.714084E-1,7.918865E-1,5.7039994E-1,3.2051402E-1,1.0323794E0,-2.4929824E-1,6.1287433E-2,-2.5048983E-1,-5.12139E-1,-3.456394E-1,2.6021896E-2,-5.257019E-1,-1.0135645E-1],"split_indices":[0,1,1,17,17,0,0,0,0,0,0,17,17,17,17,0,0,0,0,5,0,0,23,0,0,0,0,0,0,0,0,16,0,9,0,24,20,25,26,26,24,23,14,16,20,5,24,0,5,23,6,24,0,24,22,5,24,0,22,22,24,26,24,0,0,0,0,0,0,0,0,0,0,0,0,0,0,0,0,0,0,0,0,0,0,0,0,0,0,0,0,0,0,0,0,0,0,0,0,0,0,0,0,0,0,0,0,0,0,0,0,0,0,0,0,0,0,0,0,0,0,0,0,0,0,0,0],"split_type":[0,0,0,0,0,0,0,0,0,0,0,0,0,0,0,0,0,0,0,0,0,0,0,0,0,0,0,0,0,0,0,0,0,0,0,0,0,0,0,0,0,0,0,0,0,0,0,0,0,0,0,0,0,0,0,0,0,0,0,0,0,0,0,0,0,0,0,0,0,0,0,0,0,0,0,0,0,0,0,0,0,0,0,0,0,0,0,0,0,0,0,0,0,0,0,0,0,0,0,0,0,0,0,0,0,0,0,0,0,0,0,0,0,0,0,0,0,0,0,0,0,0,0,0,0,0,0],"sum_hessian":[2.5547E4,1.3366E4,1.2181E4,9.529E3,3.837E3,8.661E3,3.52E3,6.663E3,2.866E3,2.651E3,1.186E3,4.761E3,3.9E3,2.025E3,1.495E3,3.182E3,3.481E3,9.03E2,1.963E3,7.88E2,1.863E3,9.11E2,2.75E2,3.315E3,1.446E3,2.692E3,1.208E3,1.465E3,5.6E2,1.052E3,4.43E2,4.56E2,2.726E3,2.336E3,1.145E3,1.7E1,8.86E2,1.519E3,4.44E2,6.05E2,1.83E2,1.2E3,6.63E2,1.68E2,7.43E2,1.52E2,1.23E2,2.077E3,1.238E3,5.81E2,8.65E2,1.18E3,1.512E3,4.65E2,7.43E2,6.38E2,8.27E2,3.2E2,2.4E2,8.16E2,2.36E2,3.86E2,5.7E1,1.96E2,2.6E2,1.773E3,9.53E2,9.83E2,1.353E3,6.86E2,4.59E2,1.5E1,2E0,8.76E2,1E1,1.467E3,5.2E1,2.95E2,1.49E2,1.34E2,4.71E2,1.26E2,5.7E1,6.1E2,5.9E2,6.32E2,3.1E1,3E1,1.38E2,5.64E2,1.79E2,2.8E1,1.24E2,4.6E1,7.7E1,9.41E2,1.136E3,1.138E3,1E2,2.3E2,3.51E2,3.34E2,5.31E2,4.7E1,1.133E3,1.178E3,3.34E2,1.03E2,3.62E2,7.42E2,1E0,4.22E2,2.16E2,7.98E2,2.9E1,1.04E2,2.16E2,2.28E2,1.2E1,7.84E2,3.2E1,5.2E1,1.84E2,2.7E1,3.59E2,4.4E1,1.3E1],"tree_param":{"num_deleted":"0","num_feature":"32","num_nodes":"127","size_leaf_vector":"1"}},{"base_weights":[5.0650164E-3,3.1766894E0,-3.5787764E0,7.5312114E-1,9.249432E0,-5.1246777E0,3.2561252E-1,-1.5943414E-1,2.915371E0,7.7666845E0,1.2703789E1,-4.017908E0,-6.417538E0,1.886367E0,-1.7687733E0,1.1093267E0,-1.3120064E0,4.044729E0,1.1098344E0,9.467956E0,5.781105E0,1.4520918E1,1.0006942E1,-4.6199603E0,-2.6060724E0,-6.949156E0,-5.1814847E0,8.361199E-1,4.445225E0,-2.6175747E0,2.3005474E-1,2.2007163E0,9.2318577E-1,-9.986441E-1,-2.6856387E0,5.6983223E0,3.4068742E0,2.305862E-1,1.9233861E0,1.03332405E1,8.477159E0,6.820883E0,4.986703E0,1.7377737E1,1.3562753E1,8.476326E0,1.1949651E1,-4.2131004E0,-5.4100275E0,-1.8752731E0,-3.1977673E0,-6.201016E0,-7.5018106E0,-4.2270975E0,-5.9896564E0,1.880189E0,2.3282646E-1,2.034979E0,5.2234135E0,-2.2456152E0,-3.795643E0,1.6718296E0,-1.3507898E0,2.6717877E-1,1.20145775E-1,-3.7602883E-2,1.03067555E-1,-4.833053E-2,-1.4471576E-1,1.3893384E-1,-2.787926E-1,7.43014E-1,5.085172E-1,3.8262865E-1,1.8129155E-1,3.0063936E-1,6.0407477E-3,1.2963074E-1,3.044048E-1,9.216059E-1,1.1308397E0,8.6977625E-1,4.577396E-1,6.5885234E-1,1.178777E0,4.5030853E-1,6.728635E-1,1.670373E0,3.3129003E0,-5.354914E-2,1.372677E0,9.518816E-1,6.540403E-1,1.2539738E0,5.83484E-1,-3.719062E-1,-4.5607534E-1,-4.5500398E-1,-5.519801E-1,-2.1087252E-1,1.6985343E-1,-1.6372107E-1,-3.3713022E-1,-3.6370406E-1,-6.250714E-1,-7.273025E-1,-8.2760996E-1,3.8388867E-2,-4.2952356E-1,-6.008577E-1,3.1353694E-1,1.8184118E-1,1.6662384E0,1.4659275E-2,4.901843E-1,6.581721E-1,1.521781E-1,6.005885E-1,3.2816696E-1,-2.4372402E-1,-3.7670672E-2,5.9962273E-2,-4.004821E-1,1.3510399E-1,7.360192E-1,-6.829315E-2,-3.4609205E-1],"categories":[],"categories_nodes":[],"categories_segments":[],"categories_sizes":[],"default_left":[0,0,0,0,0,0,0,0,0,0,0,0,0,0,0,0,0,0,0,0,0,0,0,0,0,0,0,0,0,0,0,0,0,0,0,0,0,0,0,0,0,0,0,0,0,0,0,0,0,0,0,0,0,0,0,0,0,0,0,0,0,0,0,0,0,0,0,0,0,0,0,0,0,0,0,0,0,0,0,0,0,0,0,0,0,0,0,0,0,0,0,0,0,0,0,0,0,0,0,0,0,0,0,0,0,0,0,0,0,0,0,0,0,0,0,0,0,0,0,0,0,0,0,0,0,0,0],"id":1,"left_children":[1,3,5,7,9,11,13,15,17,19,21,23,25,27,29,31,33,35,37,39,41,43,45,47,49,51,53,55,57,59,61,63,65,67,69,71,73,75,77,79,81,83,85,87,89,91,93,95,97,99,101,103,105,107,109,111,113,115,117,119,121,123,125,-1,-1,-1,-1,-1,-1,-1,-1,-1,-1,-1,-1,-1,-1,-1,-1,-1,-1,-1,-1,-1,-1,-1,-1,-1,-1,-1,-1,-1,-1,-1,-1,-1,-1,-1,-1,-1,-1,-1,-1,-1,-1,-1,-1,-1,-1,-1,-1,-1,-1,-1,-1,-1,-1,-1,-1,-1,-1,-1,-1,-1,-1,-1,-1],"loss_changes":[2.9226938E5,2.0075725E5,7.286583E4,1.9240867E4,1.9830781E4,1.2348641E4,1.1199052E4,1.0030173E4,5.89666E3,9.150344E3,5.5735938E3,3.9506562E3,2.5838594E3,5.271714E3,2.4827402E3,6.6126025E2,1.5443359E3,1.8580488E3,7.9713135E2,1.16925E3,1.0067461E3,1.6667344E3,1.3051914E3,1.027375E3,5.9764844E2,1.1049844E3,9.025664E2,8.7698505E2,1.0603535E3,4.4150146E2,9.9827826E2,2.2038306E2,3.9015723E2,6.760681E2,2.818911E2,4.8677637E2,8.534551E2,2.5348824E2,4.0294214E2,7.4335156E2,5.529375E2,5.490156E2,5.7456445E2,1.2620391E3,1.2213438E3,4.7861523E2,6.701367E2,3.5419922E2,7.938867E1,5.2669556E2,2.0300488E2,1.2877734E2,2.2270312E2,1.7602148E2,1.3088477E2,4.3543396E2,3.5520334E2,3.1899066E2,6.3513477E2,2.7949707E2,2.2765186E2,4.0792804E2,2.9217352E2,0E0,0E0,0E0,0E0,0E0,0E0,0E0,0E0,0E0,0E0,0E0,0E0,0E0,0E0,0E0,0E0,0E0,0E0,0E0,0E0,0E0,0E0,0E0,0E0,0E0,0E0,0E0,0E0,0E0,0E0,0E0,0E0,0E0,0E0,0E0,0E0,0E0,0E0,0E0,0E0,0E0,0E0,0E0,0E0,0E0,0E0,0E0,0E0,0E0,0E0,0E0,0E0,0E0,0E0,0E0,0E0,0E0,0E0,0E0,0E0,0E0,0E0,0E0,0E0],"parents":[2147483647,0,0,1,1,2,2,3,3,4,4,5,5,6,6,7,7,8,8,9,9,10,10,11,11,12,12,13,13,14,14,15,15,16,16,17,17,18,18,19,19,20,20,21,21,22,22,23,23,24,24,25,25,26,26,27,27,28,28,29,29,30,30,31,31,32,32,33,33,34,34,35,35,36,36,37,37,38,38,39,39,40,40,41,41,42,42,43,43,44,44,45,45,46,46,47,47,48,48,49,49,50,50,51,51,52,52,53,53,54,54,55,55,56,56,57,57,58,58,59,59,60,60,61,61,62,62],"right_children":[2,4,6,8,10,12,14,16,18,20,22,24,26,28,30,32,34,36,38,40,42,44,46,48,50,52,54,56,58,60,62,64,66,68,70,72,74,76,78,80,82,84,86,88,90,92,94,96,98,100,102,104,106,108,110,112,114,116,118,120,122,124,126,-1,-1,-1,-1,-1,-1,-1,-1,-1,-1,-1,-1,-1,-1,-1,-1,-1,-1,-1,-1,-1,-1,-1,-1,-1,-1,-1,-1,-1,-1,-1,-1,-1,-1,-1,-1,-1,-1,-1,-1,-1,-1,-1,-1,-1,-1,-1,-1,-1,-1,-1,-1,-1,-1,-1,-1,-1,-1,-1,-1,-1,-1,-1,-1],"split_conditions":[6.2268166E1,5E0,5E0,1E0,1E0,8.9331604E1,9.116087E1,2.6904404E1,3.3461216E1,3.0253191E1,3.3835754E1,1E0,1E0,1E0,1E0,1.1270821E1,5.1640873E1,1.5783403E1,1.8928572E1,1.9173872E1,4.1193012E1,1.4490771E1,1.9142857E1,8.225337E1,7.721576E1,9.998607E1,1.00733055E2,7.5537476E1,1.3357142E1,1.0816134E2,1.0328733E2,2.4214285E1,4.6853366E0,3.6438118E1,2E0,1.6E1,9.749279E-1,1.4714286E1,2.3E1,2E1,2.6214285E1,4.070744E1,9.396048E0,1E0,1.3714286E1,2.1E1,1E0,7.2365875E1,3.2513733E0,3E1,-8.660254E-1,2E0,1.10668365E2,8.428572E0,4.1E1,2.1543976E1,3.3E1,1.1E1,8.225337E1,2E1,4.0722737E0,3.276768E1,1.1127589E2,2.6717877E-1,1.20145775E-1,-3.7602883E-2,1.03067555E-1,-4.833053E-2,-1.4471576E-1,1.3893384E-1,-2.787926E-1,7.43014E-1,5.085172E-1,3.8262865E-1,1.8129155E-1,3.0063936E-1,6.0407477E-3,1.2963074E-1,3.044048E-1,9.216059E-1,1.1308397E0,8.6977625E-1,4.577396E-1,6.5885234E-1,1.178777E0,4.5030853E-1,6.728635E-1,1.670373E0,3.3129003E0,-5.354914E-2,1.372677E0,9.518816E-1,6.540403E-1,1.2539738E0,5.83484E-1,-3.719062E-1,-4.5607534E-1,-4.5500398E-1,-5.519801E-1,-2.1087252E-1,1.6985343E-1,-1.6372107E-1,-3.3713022E-1,-3.6370406E-1,-6.250714E-1,-7.273025E-1,-8.2760996E-1,3.8388867E-2,-4.2952356E-1,-6.008577E-1,3.1353694E-1,1.8184118E-1,1.6662384E0,1.4659275E-2,4.901843E-1,6.581721E-1,1.521781E-1,6.005885E-1,3.2816696E-1,-2.4372402E-1,-3.7670672E-2,5.9962273E-2,-4.004821E-1,1.3510399E-1,7.360192E-1,-6.829315E-2,-3.4609205E-1],"split_indices":[0,1,1,17,17,0,0,0,0,0,0,17,17,17,17,0,0,0,24,0,0,0,23,0,0,0,0,0,24,0,0,24,27,0,5,21,6,24,21,22,24,0,27,15,23,21,8,0,27,22,9,5,0,23,22,27,21,24,0,21,16,16,0,0,0,0,0,0,0,0,0,0,0,0,0,0,0,0,0,0,0,0,0,0,0,0,0,0,0,0,0,0,0,0,0,0,0,0,0,0,0,0,0,0,0,0,0,0,0,0,0,0,0,0,0,0,0,0,0,0,0,0,0,0,0,0,0],"split_type":[0,0,0,0,0,0,0,0,0,0,0,0,0,0,0,0,0,0,0,0,0,0,0,0,0,0,0,0,0,0,0,0,0,0,0,0,0,0,0,0,0,0,0,0,0,0,0,0,0,0,0,0,0,0,0,0,0,0,0,0,0,0,0,0,0,0,0,0,0,0,0,0,0,0,0,0,0,0,0,0,0,0,0,0,0,0,0,0,0,0,0,0,0,0,0,0,0,0,0,0,0,0,0,0,0,0,0,0,0,0,0,0,0,0,0,0,0,0,0,0,0,0,0,0,0,0,0],"sum_hessian":[2.5711E4,1.364E4,1.2071E4,9.75E3,3.89E3,8.647E3,3.424E3,6.857E3,2.893E3,2.724E3,1.166E3,4.661E3,3.986E3,1.962E3,1.462E3,3.264E3,3.593E3,1.779E3,1.114E3,1.465E3,1.259E3,6.94E2,4.72E2,3.266E3,1.395E3,2.784E3,1.202E3,1.392E3,5.7E2,1.026E3,4.36E2,4.74E2,2.79E3,2.927E3,6.66E2,4.93E2,1.286E3,5.36E2,5.78E2,7.77E2,6.88E2,5.42E2,7.17E2,1.7E2,5.24E2,2.67E2,2.05E2,2.16E3,1.106E3,6.26E2,7.69E2,1.188E3,1.596E3,5.54E2,6.48E2,5.09E2,8.83E2,1.4E2,4.3E2,7.82E2,2.44E2,2.28E2,2.08E2,3.21E2,1.53E2,2.13E2,2.577E3,1.363E3,1.564E3,1.6E1,6.5E2,1.26E2,3.67E2,1.017E3,2.69E2,3E1,5.06E2,3.72E2,2.06E2,3.67E2,4.1E2,6.5E2,3.8E1,5.2E2,2.2E1,5.64E2,1.53E2,1.65E2,5E0,6E0,5.18E2,1.71E2,9.6E1,1.86E2,1.9E1,8.97E2,1.263E3,1.3E2,9.76E2,5.88E2,3.8E1,7.8E1,6.91E2,2.4E1,1.164E3,1.24E3,3.56E2,8E0,5.46E2,6.47E2,1E0,5.08E2,1E0,8.68E2,1.5E1,1.3E1,1.27E2,3.05E2,1.25E2,7.09E2,7.3E1,1.1E1,2.33E2,2.17E2,1.1E1,1.59E2,4.9E1],"tree_param":{"num_deleted":"0","num_feature":"32","num_nodes":"127","size_leaf_vector":"1"}},{"base_weights":[3.0324774E-2,-6.963085E-1,1.3404982E1,-3.587157E0,1.8562745E0,7.1769285E0,1.9123981E1,-4.94589E0,-2.5676206E-1,-1.7735454E-1,6.9442616E0,4.5787015E0,1.3844797E1,1.4574036E1,2.9531916E1,-6.0760117E0,-4.1717553E0,-1.6424241E0,1.2094009E0,-9.976815E-1,1.7389839E0,5.642542E0,9.955415E0,2.3728266E0,7.1848454E0,1.1823855E1,1.9183065E1,1.3142651E1,1.754737E1,2.6344492E1,3.5311245E1,-6.5882993E0,-4.9496436E0,-4.7010775E0,-2.8873274E0,-2.3042638E0,-8.4449E-2,1.8704388E-1,3.698122E0,-2.217502E0,-3.3862373E-1,-2.1495496E-1,2.5386136E0,4.25349E0,6.7205095E0,7.781662E0,1.0901097E1,9.5558244E-1,3.286299E0,4.5457606E0,8.168429E0,1.2798592E1,3.4326553E0,2.3290203E1,1.4969985E1,9.905053E0,1.3801449E1,1.501735E1,2.0923317E1,2.0823393E1,2.8088966E1,1.3947073E1,3.6718422E1,-6.9941384E-1,-6.1315E-1,-5.395895E-1,-4.3545505E-1,-5.0973654E-1,-3.9050546E-1,-3.3484852E-1,-1.4729398E-1,-2.943128E-1,-1.569332E-1,-1.6594654E-1,2.548714E-2,-7.0469E-2,8.1097834E-2,1.2977982E-1,4.0623745E-1,-3.7217045E-1,-1.9224799E-1,-1.0184053E-1,-5.5152047E-3,-1.01021565E-1,5.236082E-2,3.0046663E-1,1.8801656E-1,4.4225645E-1,1.5969175E-1,2.5916628E-3,6.7577094E-1,5.965524E-1,8.51353E-1,9.4794065E-1,1.1549205E0,-9.094333E-2,2.8014866E-1,8.777688E-1,2.8764385E-1,-1.5861629E-1,5.5387324E-1,8.505926E-1,2.5591335E-1,7.454993E-1,1.3758525E0,-4.818485E-2,6.9180775E-1,9.7197694E-1,2.4921336E0,6.714904E-1,1.6615725E0,1.0649325E0,-2.629429E-2,1.3858274E0,-7.423144E-2,1.5443745E0,-2.6381442E-1,2.144814E0,3.2775232E-1,2.1143234E0,4.6545696E-1,1.5714626E-1,2.8335958E0,1.5545564E0,2.97731E-1,2.0449367E0,3.8004506E0],"categories":[],"categories_nodes":[],"categories_segments":[],"categories_sizes":[],"default_left":[0,0,0,0,0,0,0,0,0,0,0,0,0,0,0,0,0,0,0,0,0,0,0,0,0,0,0,0,0,0,0,0,0,0,0,0,0,0,0,0,0,0,0,0,0,0,0,0,0,0,0,0,0,0,0,0,0,0,0,0,0,0,0,0,0,0,0,0,0,0,0,0,0,0,0,0,0,0,0,0,0,0,0,0,0,0,0,0,0,0,0,0,0,0,0,0,0,0,0,0,0,0,0,0,0,0,0,0,0,0,0,0,0,0,0,0,0,0,0,0,0,0,0,0,0,0,0],"id":2,"left_children":[1,3,5,7,9,11,13,15,17,19,21,23,25,27,29,31,33,35,37,39,41,43,45,47,49,51,53,55,57,59,61,63,65,67,69,71,73,75,77,79,81,83,85,87,89,91,93,95,97,99,101,103,105,107,109,111,113,115,117,119,121,123,125,-1,-1,-1,-1,-1,-1,-1,-1,-1,-1,-1,-1,-1,-1,-1,-1,-1,-1,-1,-1,-1,-1,-1,-1,-1,-1,-1,-1,-1,-1,-1,-1,-1,-1,-1,-1,-1,-1,-1,-1,-1,-1,-1,-1,-1,-1,-1,-1,-1,-1,-1,-1,-1,-1,-1,-1,-1,-1,-1,-1,-1,-1,-1,-1],"loss_changes":[2.4876333E5,1.7915719E5,4.6843188E4,5.1517203E4,1.3341647E5,1.0903104E4,3.2102844E4,7.0488125E3,6.7062876E3,1.4484792E4,1.4376078E4,2.610166E3,1.6827188E3,1.8122578E3,2.9013594E3,1.8629141E3,3.2511953E3,1.7496323E3,4.0804646E3,5.186221E3,4.3159707E3,3.8241094E3,2.1969844E3,3.1921838E2,5.0538184E2,1.027543E3,4.6461914E2,5.6289844E2,9.9258984E2,7.4422656E2,1.622375E3,3.7517188E2,2.5029883E2,1.0523203E3,9.10834E2,5.5458154E2,2.713816E2,6.337359E2,4.030376E2,9.971035E2,8.073518E2,4.7217117E2,5.9581836E2,4.9913867E2,3.601797E2,4.0113086E2,6.009219E2,3.4336914E2,3.1460767E2,3.68026E2,2.6409277E2,4.9758203E2,2.079889E2,2.4474414E2,2.4165527E2,4.4929785E2,2.3342969E2,7.258086E2,5.131387E2,9.293164E1,6.2352344E2,5.892639E1,6.037656E2,0E0,0E0,0E0,0E0,0E0,0E0,0E0,0E0,0E0,0E0,0E0,0E0,0E0,0E0,0E0,0E0,0E0,0E0,0E0,0E0,0E0,0E0,0E0,0E0,0E0,0E0,0E0,0E0,0E0,0E0,0E0,0E0,0E0,0E0,0E0,0E0,0E0,0E0,0E0,0E0,0E0,0E0,0E0,0E0,0E0,0E0,0E0,0E0,0E0,0E0,0E0,0E0,0E0,0E0,0E0,0E0,0E0,0E0,0E0,0E0,0E0,0E0,0E0,0E0],"parents":[2147483647,0,0,1,1,2,2,3,3,4,4,5,5,6,6,7,7,8,8,9,9,10,10,11,11,12,12,13,13,14,14,15,15,16,16,17,17,18,18,19,19,20,20,21,21,22,22,23,23,24,24,25,25,26,26,27,27,28,28,29,29,30,30,31,31,32,32,33,33,34,34,35,35,36,36,37,37,38,38,39,39,40,40,41,41,42,42,43,43,44,44,45,45,46,46,47,47,48,48,49,49,50,50,51,51,52,52,53,53,54,54,55,55,56,56,57,57,58,58,59,59,60,60,61,61,62,62],"right_children":[2,4,6,8,10,12,14,16,18,20,22,24,26,28,30,32,34,36,38,40,42,44,46,48,50,52,54,56,58,60,62,64,66,68,70,72,74,76,78,80,82,84,86,88,90,92,94,96,98,100,102,104,106,108,110,112,114,116,118,120,122,124,126,-1,-1,-1,-1,-1,-1,-1,-1,-1,-1,-1,-1,-1,-1,-1,-1,-1,-1,-1,-1,-1,-1,-1,-1,-1,-1,-1,-1,-1,-1,-1,-1,-1,-1,-1,-1,-1,-1,-1,-1,-1,-1,-1,-1,-1,-1,-1,-1,-1,-1,-1,-1,-1,-1,-1,-1,-1,-1,-1,-1,-1,-1,-1,-1],"split_conditions":[1E0,1.6833334E1,1.6833334E1,5E0,5E0,5E0,5E0,1.29E1,1.35E1,1E0,1E0,1.3866667E1,1.5142858E1,1E0,1E0,1E0,1E0,1E0,1E0,1.9866667E1,1.9433332E1,2.0533333E1,1.95E1,1.1833333E1,4.4347115E0,2.7E1,1.3E1,1.8866667E1,2.1533333E1,-5E-1,6E0,1.1733334E1,1.1714286E1,1.5333333E1,1.5666667E1,1.2033334E1,1.0733334E1,1.4833333E1,1.3357142E1,1.7413794E1,2.0857143E1,1.8214285E1,8E0,3E1,1E0,1.4E1,7.1614046E0,-1.8369701E-16,1.1E1,-8.660254E-1,1.1814035E1,1.11E1,6E0,-5E-1,1.6E1,1.8733334E1,5.3E1,2.3928572E1,3.7E1,3.5E1,1.5571428E1,5E0,8.257202E0,-6.9941384E-1,-6.1315E-1,-5.395895E-1,-4.3545505E-1,-5.0973654E-1,-3.9050546E-1,-3.3484852E-1,-1.4729398E-1,-2.943128E-1,-1.569332E-1,-1.6594654E-1,2.548714E-2,-7.0469E-2,8.1097834E-2,1.2977982E-1,4.0623745E-1,-3.7217045E-1,-1.9224799E-1,-1.0184053E-1,-5.5152047E-3,-1.01021565E-1,5.236082E-2,3.0046663E-1,1.8801656E-1,4.4225645E-1,1.5969175E-1,2.5916628E-3,6.7577094E-1,5.965524E-1,8.51353E-1,9.4794065E-1,1.1549205E0,-9.094333E-2,2.8014866E-1,8.777688E-1,2.8764385E-1,-1.5861629E-1,5.5387324E-1,8.505926E-1,2.5591335E-1,7.454993E-1,1.3758525E0,-4.818485E-2,6.9180775E-1,9.7197694E-1,2.4921336E0,6.714904E-1,1.6615725E0,1.0649325E0,-2.629429E-2,1.3858274E0,-7.423144E-2,1.5443745E0,-2.6381442E-1,2.144814E0,3.2775232E-1,2.1143234E0,4.6545696E-1,1.5714626E-1,2.8335958E0,1.5545564E0,2.97731E-1,2.0449367E0,3.8004506E0],"split_indices":[13,25,25,1,1,1,1,25,25,17,17,25,24,17,17,17,17,17,17,25,25,25,25,25,27,2,22,25,25,9,22,25,24,25,25,25,25,25,24,25,24,24,3,2,20,20,27,9,24,9,27,25,1,9,22,25,5,24,22,20,24,3,16,0,0,0,0,0,0,0,0,0,0,0,0,0,0,0,0,0,0,0,0,0,0,0,0,0,0,0,0,0,0,0,0,0,0,0,0,0,0,0,0,0,0,0,0,0,0,0,0,0,0,0,0,0,0,0,0,0,0,0,0,0,0,0,0],"split_type":[0,0,0,0,0,0,0,0,0,0,0,0,0,0,0,0,0,0,0,0,0,0,0,0,0,0,0,0,0,0,0,0,0,0,0,0,0,0,0,0,0,0,0,0,0,0,0,0,0,0,0,0,0,0,0,0,0,0,0,0,0,0,0,0,0,0,0,0,0,0,0,0,0,0,0,0,0,0,0,0,0,0,0,0,0,0,0,0,0,0,0,0,0,0,0,0,0,0,0,0,0,0,0,0,0,0,0,0,0,0,0,0,0,0,0,0,0,0,0,0,0,0,0,0,0,0,0],"sum_hessian":[2.5595E4,2.4277E4,1.318E3,1.1384E4,1.2893E4,6.32E2,6.86E2,8.085E3,3.299E3,9.212E3,3.681E3,4.56E2,1.76E2,4.79E2,2.07E2,3.284E3,4.801E3,1.696E3,1.603E3,6.451E3,2.761E3,2.572E3,1.109E3,2.48E2,2.08E2,1.3E2,4.6E1,3.27E2,1.52E2,1.37E2,7E1,2.254E3,1.03E3,3.398E3,1.403E3,1.19E3,5.06E2,1.137E3,4.66E2,2.262E3,4.189E3,8.02E2,1.959E3,1.126E3,1.446E3,3.39E2,7.7E2,9.8E1,1.5E2,5.8E1,1.5E2,1.16E2,1.4E1,2.1E1,2.5E1,5.8E1,2.69E2,9E1,6.2E1,3.6E1,1.01E2,5E0,6.5E1,1.186E3,1.068E3,5.84E2,4.46E2,2.265E3,1.133E3,1.057E3,3.46E2,6.35E2,5.55E2,8.9E1,4.17E2,4.68E2,6.69E2,6.2E1,4.04E2,3.69E2,1.893E3,1.232E3,2.957E3,3.86E2,4.16E2,1.145E3,8.14E2,1.058E3,6.8E1,8E0,1.438E3,1E2,2.39E2,2.46E2,5.24E2,4.9E1,4.9E1,9E0,1.41E2,8E0,5E1,1.41E2,9E0,1.9E1,9.7E1,7E0,7E0,3E0,1.8E1,5E0,2E1,5.4E1,4E0,2.68E2,1E0,8.8E1,2E0,6E1,2E0,3.5E1,1E0,1E0,1E2,4E0,1E0,6E0,5.9E1],"tree_param":{"num_deleted":"0","num_feature":"32","num_nodes":"127","size_leaf_vector":"1"}},{"base_weights":[-2.8124854E-3,2.649568E0,-2.8990176E0,1.8834423E0,1.707017E1,-3.3503945E0,5.622498E0,3.190704E-2,6.4957175E0,1.2835937E1,2.7184612E1,-4.5545616E0,-3.9143726E-1,3.455203E0,1.1674947E1,1.1665767E0,-9.074365E-1,7.596012E0,4.7214303E0,1.5026243E1,1.0820678E1,1.4863434E1,2.8041313E1,-3.5447595E0,-5.431282E0,1.2756429E0,-1.7903309E0,5.389371E0,1.0276184E0,1.3743242E1,6.9038863E0,1.8096657E0,7.352822E-1,-1.7384112E-1,-1.4394369E0,8.323603E0,6.7739034E0,5.429224E0,3.2583406E0,1.710775E1,1.2635013E1,1.0450255E1,1.7986279E1,-2.7044773E-1,1.6311462E1,3.249848E1,2.5566631E1,-3.000629E0,-3.8878152E0,-4.844441E0,-6.0223265E0,3.2217302E0,9.900393E-1,-1.3099597E0,-3.0751288E0,6.487685E0,3.9487457E0,7.126026E0,6.7471635E-1,9.950922E0,1.5201415E1,1.40641E1,4.084232E0,5.666727E-2,1.9940278E-1,-1.9129698E-1,7.955895E-2,-2.1075537E-2,2.7561688E-1,-1.110222E-1,-1.8706046E-1,9.677008E-1,7.9039735E-1,6.483894E-1,8.569631E-1,7.5674105E-1,5.229215E-1,3.5327256E-1,-4.8571536E-3,1.2123531E0,1.8317232E0,1.371641E0,6.7906827E-1,1.2232677E0,9.333469E-1,2.0748851E0,3.7031314E-1,2.0889928E0,8.748719E-1,1.4125093E0,3.3522077E0,1.0370556E0,2.5990276E0,-1.8638477E-1,-3.0934557E-1,-3.928369E-1,-2.2444406E-1,-4.6388578E-1,-5.116548E-1,-5.7906383E-1,-6.376739E-1,4.1701898E-1,5.8399685E-2,-7.9247795E-2,1.2069911E-1,-1.1394953E-1,-2.1056901E-1,-2.5699392E-1,-4.272058E-1,1.7124842E0,6.213406E-1,4.6215487E-1,-2.0430759E-1,3.082457E-1,1.3431658E0,-1.21944705E-2,3.1520453E-1,1.1046165E0,-1.0249462E-1,9.055802E-1,1.6996596E0,1.8215996E0,5.492241E-1,-7.652688E-2,5.2039665E-1],"categories":[],"categories_nodes":[],"categories_segments":[],"categories_sizes":[],"default_left":[0,0,0,0,0,0,0,0,0,0,0,0,0,0,0,0,0,0,0,0,0,0,0,0,0,0,0,0,0,0,0,0,0,0,0,0,0,0,0,0,0,0,0,0,0,0,0,0,0,0,0,0,0,0,0,0,0,0,0,0,0,0,0,0,0,0,0,0,0,0,0,0,0,0,0,0,0,0,0,0,0,0,0,0,0,0,0,0,0,0,0,0,0,0,0,0,0,0,0,0,0,0,0,0,0,0,0,0,0,0,0,0,0,0,0,0,0,0,0,0,0,0,0,0,0],"id":3,"left_children":[1,3,5,7,9,11,13,15,17,19,21,23,25,27,29,31,33,35,37,39,41,43,45,47,49,51,53,55,57,59,61,63,65,67,69,71,73,75,77,79,81,83,85,-1,87,89,91,93,95,97,99,101,103,105,107,109,111,113,115,117,119,121,123,-1,-1,-1,-1,-1,-1,-1,-1,-1,-1,-1,-1,-1,-1,-1,-1,-1,-1,-1,-1,-1,-1,-1,-1,-1,-1,-1,-1,-1,-1,-1,-1,-1,-1,-1,-1,-1,-1,-1,-1,-1,-1,-1,-1,-1,-1,-1,-1,-1,-1,-1,-1,-1,-1,-1,-1,-1,-1,-1,-1,-1,-1],"loss_changes":[1.9666273E5,1.476022E5,4.709128E4,1.08369734E5,2.8516375E4,4.1411883E4,8.040004E3,9.653348E3,7.0605156E3,1.9428984E3,1.6732188E3,7.2943125E3,7.845028E3,2.130849E3,1.5037266E3,1.1364038E3,1.9335525E3,1.2846875E3,1.4258887E3,9.087344E2,4.8092188E2,4.256963E2,1.1986562E3,7.055078E2,1.5039062E3,8.499778E2,1.1247935E3,3.7469287E2,4.320766E2,4.6807812E2,9.722151E2,3.7606836E2,3.9392712E2,2.259844E2,4.0559473E2,5.965078E2,4.9542188E2,3.615703E2,4.1483936E2,4.8927344E2,5.957422E2,3.6754883E2,3.5720508E2,0E0,3.0200073E2,6.9252734E2,5.223203E2,1.5146387E2,1.480039E2,1.00625E2,1.435625E2,4.8791406E2,5.19162E2,1.7841357E2,2.895459E2,3.0789014E2,4.6094946E2,2.3906732E2,3.8128757E2,4.2004395E2,7.176465E2,3.982058E2,2.1032831E2,0E0,0E0,0E0,0E0,0E0,0E0,0E0,0E0,0E0,0E0,0E0,0E0,0E0,0E0,0E0,0E0,0E0,0E0,0E0,0E0,0E0,0E0,0E0,0E0,0E0,0E0,0E0,0E0,0E0,0E0,0E0,0E0,0E0,0E0,0E0,0E0,0E0,0E0,0E0,0E0,0E0,0E0,0E0,0E0,0E0,0E0,0E0,0E0,0E0,0E0,0E0,0E0,0E0,0E0,0E0,0E0,0E0,0E0,0E0,0E0,0E0,0E0],"parents":[2147483647,0,0,1,1,2,2,3,3,4,4,5,5,6,6,7,7,8,8,9,9,10,10,11,11,12,12,13,13,14,14,15,15,16,16,17,17,18,18,19,19,20,20,21,21,22,22,23,23,24,24,25,25,26,26,27,27,28,28,29,29,30,30,31,31,32,32,33,33,34,34,35,35,36,36,37,37,38,38,39,39,40,40,41,41,42,42,44,44,45,45,46,46,47,47,48,48,49,49,50,50,51,51,52,52,53,53,54,54,55,55,56,56,57,57,58,58,59,59,60,60,61,61,62,62],"right_children":[2,4,6,8,10,12,14,16,18,20,22,24,26,28,30,32,34,36,38,40,42,44,46,48,50,52,54,56,58,60,62,64,66,68,70,72,74,76,78,80,82,84,86,-1,88,90,92,94,96,98,100,102,104,106,108,110,112,114,116,118,120,122,124,-1,-1,-1,-1,-1,-1,-1,-1,-1,-1,-1,-1,-1,-1,-1,-1,-1,-1,-1,-1,-1,-1,-1,-1,-1,-1,-1,-1,-1,-1,-1,-1,-1,-1,-1,-1,-1,-1,-1,-1,-1,-1,-1,-1,-1,-1,-1,-1,-1,-1,-1,-1,-1,-1,-1,-1,-1,-1,-1,-1,-1,-1],"split_conditions":[6.067209E1,1E0,1E0,5E0,5E0,5E0,5E0,2.5437117E1,3.3835754E1,2.6904404E1,1.6285715E1,8.601181E1,8.56454E1,9.116087E1,9.872178E1,1.5783403E1,3.6438118E1,2.0716785E1,4.996482E1,2.2E1,1.5725321E1,1.1571428E1,1.7E1,7.32761E1,9.957163E1,6.555734E1,1.0573324E2,8.16466E1,8.428572E0,-5E-1,1.1E1,1.3E1,3.02645E0,2.1857143E1,4.7950867E1,-6.714286E0,4.7E1,1.6142857E1,1E1,-5E-1,8.660254E-1,1.85E1,4.2078503E1,-2.7044773E-1,1.5714285E0,1.2E1,1.4761274E0,5E0,2.0285715E1,9.289389E1,1.0772921E2,4.2E1,-6.714286E0,2.6E1,1.1127589E2,1.1E1,3.1200075E1,7.818315E-1,6.517376E0,2.3E1,1E1,3.3E1,5E0,5.666727E-2,1.9940278E-1,-1.9129698E-1,7.955895E-2,-2.1075537E-2,2.7561688E-1,-1.110222E-1,-1.8706046E-1,9.677008E-1,7.9039735E-1,6.483894E-1,8.569631E-1,7.5674105E-1,5.229215E-1,3.5327256E-1,-4.8571536E-3,1.2123531E0,1.8317232E0,1.371641E0,6.7906827E-1,1.2232677E0,9.333469E-1,2.0748851E0,3.7031314E-1,2.0889928E0,8.748719E-1,1.4125093E0,3.3522077E0,1.0370556E0,2.5990276E0,-1.8638477E-1,-3.0934557E-1,-3.928369E-1,-2.2444406E-1,-4.6388578E-1,-5.116548E-1,-5.7906383E-1,-6.376739E-1,4.1701898E-1,5.8399685E-2,-7.9247795E-2,1.2069911E-1,-1.1394953E-1,-2.1056901E-1,-2.5699392E-1,-4.272058E-1,1.7124842E0,6.213406E-1,4.6215487E-1,-2.0430759E-1,3.082457E-1,1.3431658E0,-1.21944705E-2,3.1520453E-1,1.1046165E0,-1.0249462E-1,9.055802E-1,1.6996596E0,1.8215996E0,5.492241E-1,-7.652688E-2,5.2039665E-1],"split_indices":[0,13,13,1,1,1,1,0,0,0,24,0,0,0,0,0,0,0,0,21,27,23,5,0,0,0,0,0,23,9,2,22,16,26,0,26,5,24,26,9,9,24,0,0,26,20,16,5,23,0,0,5,26,2,0,24,16,6,27,21,21,5,22,0,0,0,0,0,0,0,0,0,0,0,0,0,0,0,0,0,0,0,0,0,0,0,0,0,0,0,0,0,0,0,0,0,0,0,0,0,0,0,0,0,0,0,0,0,0,0,0,0,0,0,0,0,0,0,0,0,0,0,0,0,0],"split_type":[0,0,0,0,0,0,0,0,0,0,0,0,0,0,0,0,0,0,0,0,0,0,0,0,0,0,0,0,0,0,0,0,0,0,0,0,0,0,0,0,0,0,0,0,0,0,0,0,0,0,0,0,0,0,0,0,0,0,0,0,0,0,0,0,0,0,0,0,0,0,0,0,0,0,0,0,0,0,0,0,0,0,0,0,0,0,0,0,0,0,0,0,0,0,0,0,0,0,0,0,0,0,0,0,0,0,0,0,0,0,0,0,0,0,0,0,0,0,0,0,0,0,0,0,0],"sum_hessian":[2.5599E4,1.3362E4,1.2237E4,1.2689E4,6.73E2,1.1622E4,6.15E2,9.055E3,3.634E3,4.76E2,1.97E2,8.26E3,3.362E3,4.54E2,1.61E2,4.101E3,4.954E3,2.241E3,1.393E3,2.25E2,2.51E2,1.4E1,1.83E2,3.841E3,4.419E3,1.534E3,1.828E3,2.52E2,2.02E2,1.11E2,5E1,1.645E3,2.456E3,2.083E3,2.871E3,1.184E3,1.057E3,9.37E2,4.56E2,1.17E2,1.08E2,2.41E2,1E1,1E0,1.3E1,6.1E1,1.22E2,1.489E3,2.352E3,2.222E3,2.197E3,1.95E2,1.339E3,1.332E3,4.96E2,1.41E2,1.11E2,1E1,1.92E2,3.3E1,7.8E1,1.3E1,3.7E1,2.13E2,1.432E3,5.4E1,2.402E3,2.058E3,2.5E1,1.63E3,1.241E3,2.75E2,9.09E2,9.14E2,1.43E2,7.7E1,8.6E2,4.21E2,3.5E1,2.5E1,9.2E1,9E1,1.8E1,8.9E1,1.52E2,8E0,2E0,7E0,6E0,4E0,5.7E1,4E0,1.18E2,1.14E2,1.375E3,2.294E3,5.8E1,1.276E3,9.46E2,1.339E3,8.58E2,1.43E2,5.2E1,1.45E2,1.194E3,1.099E3,2.33E2,3.51E2,1.45E2,2E0,1.39E2,1E2,1.1E1,7E0,3E0,1.46E2,4.6E1,3E1,3E0,1.9E1,5.9E1,8E0,5E0,7E0,3E1],"tree_param":{"num_deleted":"0","num_feature":"32","num_nodes":"125","size_leaf_vector":"1"}},{"base_weights":[1.7317917E-2,-5.3444475E-1,1.0270542E1,2.984279E0,-1.9554995E0,1.7757627E1,7.190323E0,-5.9549574E-2,5.662602E0,-3.8698585E0,-5.7891563E-2,1.059018E1,2.3696653E1,3.1923702E0,1.0811525E1,-1.2951497E0,1.1580817E0,4.553349E0,8.201587E0,-4.6325755E0,-2.9920723E0,-7.7876157E-1,1.6401306E0,7.6073637E0,1.299055E1,2.2119225E1,3.1938852E1,1.4859681E0,5.4477773E0,9.403077E0,1.4027069E1,-1.933511E0,2.7969566E-1,3.3337694E-1,3.076721E0,2.712608E0,5.3218646E0,6.0759706E0,8.960915E0,-5.0945888E0,-3.5642645E0,-3.4877822E0,-1.8404659E0,-1.726459E0,-3.7782654E-1,2.8218627E-1,2.0605657E0,3.819504E0,1.0324054E1,1.0004531E1,1.7823597E1,2.2307169E1,3.782671E-1,3.3161907E1,-2.3763819E-1,7.076952E-1,3.0433543E0,5.8073025E0,1.6896865E0,6.9313745E0,9.764999E0,1.0990256E1,1.6679523E1,-2.2546254E-1,-1.2351131E-1,4.0715706E-4,2.1584654E-1,4.6548674E-1,2.2954945E-2,2.2994514E-1,4.7200146E-1,-1.1093654E-1,2.8487608E-1,6.1232436E-2,5.41366E-1,7.956477E-1,4.687287E-1,8.7419045E-1,1.354239E0,-5.4378635E-1,-4.514787E-1,-3.795136E-1,-2.4393074E-1,-3.9605817E-1,-3.0486554E-1,-2.5841478E-1,-1.1642611E-1,-2.3527761E-1,-1.5439288E-1,-6.669402E-2,1.1504837E-3,5.878795E-3,3.100663E-1,-1.2428384E-1,2.1277189E-1,5.2132183E-1,-2.5000975E-1,1.1157072E0,2.9110917E-1,5.7961464E-1,1.2229873E0,1.8772767E0,5.774354E-1,4.189251E-1,2.249241E0,2.114383E0,3.730566E0,6.0777557E-1,4.7417007E-2,6.085267E-1,1.5748198E-1,7.217799E-1,4.1908875E-1,-7.214992E-1,3.2537085E-1,-1.0031714E-1,7.4951655E-1,1.0539738E0,8.124712E-1,2.0886917E-1,1.1490519E0,1.9100002E0,1.3127759E0],"categories":[],"categories_nodes":[],"categories_segments":[],"categories_sizes":[],"default_left":[0,0,0,0,0,0,0,0,0,0,0,0,0,0,0,0,0,0,0,0,0,0,0,0,0,0,0,0,0,0,0,0,0,0,0,0,0,0,0,0,0,0,0,0,0,0,0,0,0,0,0,0,0,0,0,0,0,0,0,0,0,0,0,0,0,0,0,0,0,0,0,0,0,0,0,0,0,0,0,0,0,0,0,0,0,0,0,0,0,0,0,0,0,0,0,0,0,0,0,0,0,0,0,0,0,0,0,0,0,0,0,0,0,0,0,0,0,0,0,0,0,0,0],"id":4,"left_children":[1,3,5,7,9,11,13,15,17,19,21,23,25,27,29,31,33,35,37,39,41,43,45,47,49,51,53,55,57,59,61,63,65,67,69,71,73,75,77,79,81,83,85,87,89,91,93,95,97,99,101,103,-1,105,-1,107,109,111,113,115,117,119,121,-1,-1,-1,-1,-1,-1,-1,-1,-1,-1,-1,-1,-1,-1,-1,-1,-1,-1,-1,-1,-1,-1,-1,-1,-1,-1,-1,-1,-1,-1,-1,-1,-1,-1,-1,-1,-1,-1,-1,-1,-1,-1,-1,-1,-1,-1,-1,-1,-1,-1,-1,-1,-1,-1,-1,-1,-1,-1,-1,-1],"loss_changes":[1.4468645E5,1.2135809E5,2.999111E4,5.6920082E4,6.2801945E4,1.5924758E4,1.3386031E4,4.919728E3,1.04226875E4,5.747875E3,1.0629731E4,1.1469922E3,1.9848438E3,1.693E3,2.069164E3,1.632176E3,2.6050403E3,3.6452344E3,1.7661875E3,2.2537656E3,2.2793203E3,2.3156155E3,1.476979E3,7.8380225E2,1.1926836E3,5.256094E2,1.3798555E3,3.045003E2,2.4690137E2,2.3736328E2,9.9271875E2,2.562417E2,2.4285548E2,5.1627057E2,6.214009E2,4.007246E2,7.8522266E2,7.4613477E2,7.134297E2,6.1453906E2,3.525332E2,5.6883984E2,6.0396875E2,2.0351807E2,4.8233167E2,3.8578894E2,4.409873E2,3.2130362E2,2.5157666E2,5.0038477E2,2.9188672E2,4.9310938E2,0E0,7.0521484E2,0E0,2.1030557E2,3.656576E2,3.6418262E2,2.7416345E2,2.1777002E2,2.8925195E2,2.9217188E2,4.0263086E2,0E0,0E0,0E0,0E0,0E0,0E0,0E0,0E0,0E0,0E0,0E0,0E0,0E0,0E0,0E0,0E0,0E0,0E0,0E0,0E0,0E0,0E0,0E0,0E0,0E0,0E0,0E0,0E0,0E0,0E0,0E0,0E0,0E0,0E0,0E0,0E0,0E0,0E0,0E0,0E0,0E0,0E0,0E0,0E0,0E0,0E0,0E0,0E0,0E0,0E0,0E0,0E0,0E0,0E0,0E0,0E0,0E0,0E0,0E0,0E0],"parents":[2147483647,0,0,1,1,2,2,3,3,4,4,5,5,6,6,7,7,8,8,9,9,10,10,11,11,12,12,13,13,14,14,15,15,16,16,17,17,18,18,19,19,20,20,21,21,22,22,23,23,24,24,25,25,26,26,27,27,28,28,29,29,30,30,31,31,32,32,33,33,34,34,35,35,36,36,37,37,38,38,39,39,40,40,41,41,42,42,43,43,44,44,45,45,46,46,47,47,48,48,49,49,50,50,51,51,53,53,55,55,56,56,57,57,58,58,59,59,60,60,61,61,62,62],"right_children":[2,4,6,8,10,12,14,16,18,20,22,24,26,28,30,32,34,36,38,40,42,44,46,48,50,52,54,56,58,60,62,64,66,68,70,72,74,76,78,80,82,84,86,88,90,92,94,96,98,100,102,104,-1,106,-1,108,110,112,114,116,118,120,122,-1,-1,-1,-1,-1,-1,-1,-1,-1,-1,-1,-1,-1,-1,-1,-1,-1,-1,-1,-1,-1,-1,-1,-1,-1,-1,-1,-1,-1,-1,-1,-1,-1,-1,-1,-1,-1,-1,-1,-1,-1,-1,-1,-1,-1,-1,-1,-1,-1,-1,-1,-1,-1,-1,-1,-1,-1,-1,-1,-1],"split_conditions":[1E0,-4.3388373E-1,-4.3388373E-1,1.6833334E1,1.7413794E1,1.69E1,1.6689655E1,1.3357142E1,1E0,1.3857142E1,1E0,1.2E1,2.5285715E1,1.3866667E1,1E0,1E0,1E0,1.9433332E1,1.9233334E1,1E0,1E0,1.9766666E1,1.94E1,1.2285714E1,5.7858615E0,2.5142857E1,5.1E1,1.7142857E0,1.8285715E1,1.8133333E1,2.048276E1,1.2633333E1,1.36E1,4E0,1.5666667E1,7E0,5E0,1.6E1,1.6283207E1,1.27E1,1.36E1,1.5333333E1,1.5333333E1,1.6714285E1,2.23E1,2.0928572E1,5E0,1.2714286E1,9.031691E0,-5E-1,3.3176952E1,-1.6714285E1,3.782671E-1,2.1966667E1,-2.3763819E-1,8.428572E0,9E0,1.5E1,1.8714285E1,-8.660254E-1,2.1933332E1,1E0,2.2E1,-2.2546254E-1,-1.2351131E-1,4.0715706E-4,2.1584654E-1,4.6548674E-1,2.2954945E-2,2.2994514E-1,4.7200146E-1,-1.1093654E-1,2.8487608E-1,6.1232436E-2,5.41366E-1,7.956477E-1,4.687287E-1,8.7419045E-1,1.354239E0,-5.4378635E-1,-4.514787E-1,-3.795136E-1,-2.4393074E-1,-3.9605817E-1,-3.0486554E-1,-2.5841478E-1,-1.1642611E-1,-2.3527761E-1,-1.5439288E-1,-6.669402E-2,1.1504837E-3,5.878795E-3,3.100663E-1,-1.2428384E-1,2.1277189E-1,5.2132183E-1,-2.5000975E-1,1.1157072E0,2.9110917E-1,5.7961464E-1,1.2229873E0,1.8772767E0,5.774354E-1,4.189251E-1,2.249241E0,2.114383E0,3.730566E0,6.0777557E-1,4.7417007E-2,6.085267E-1,1.5748198E-1,7.217799E-1,4.1908875E-1,-7.214992E-1,3.2537085E-1,-1.0031714E-1,7.4951655E-1,1.0539738E0,8.124712E-1,2.0886917E-1,1.1490519E0,1.9100002E0,1.3127759E0],"split_indices":[13,6,6,25,25,25,25,24,17,24,17,21,23,25,17,17,17,25,25,17,17,25,25,24,27,23,20,26,23,25,25,25,25,21,25,21,21,21,27,25,25,25,25,23,25,24,21,23,27,9,16,26,0,25,0,23,21,21,23,9,25,21,21,0,0,0,0,0,0,0,0,0,0,0,0,0,0,0,0,0,0,0,0,0,0,0,0,0,0,0,0,0,0,0,0,0,0,0,0,0,0,0,0,0,0,0,0,0,0,0,0,0,0,0,0,0,0,0,0,0,0,0,0],"split_type":[0,0,0,0,0,0,0,0,0,0,0,0,0,0,0,0,0,0,0,0,0,0,0,0,0,0,0,0,0,0,0,0,0,0,0,0,0,0,0,0,0,0,0,0,0,0,0,0,0,0,0,0,0,0,0,0,0,0,0,0,0,0,0,0,0,0,0,0,0,0,0,0,0,0,0,0,0,0,0,0,0,0,0,0,0,0,0,0,0,0,0,0,0,0,0,0,0,0,0,0,0,0,0,0,0,0,0,0,0,0,0,0,0,0,0,0,0,0,0,0,0,0,0],"sum_hessian":[2.5573E4,2.4268E4,1.305E3,6.981E3,1.7287E4,3.79E2,9.26E2,3.268E3,3.713E3,8.605E3,8.682E3,1.73E2,2.06E2,4.41E2,4.85E2,1.622E3,1.646E3,2.586E3,1.127E3,4.602E3,4.003E3,6.095E3,2.587E3,7.9E1,9.4E1,1.76E2,3E1,2.52E2,1.89E2,3.4E2,1.45E2,1.154E3,4.68E2,1.152E3,4.94E2,7.63E2,1.823E3,2.99E2,8.28E2,3.21E3,1.392E3,2.797E3,1.206E3,1.811E3,4.284E3,6.12E2,1.975E3,3.4E1,4.5E1,6E1,3.4E1,1.74E2,2E0,2.9E1,1E0,1.69E2,8.3E1,1.72E2,1.7E1,4.6E1,2.94E2,7E1,7.5E1,7.89E2,3.65E2,4.09E2,5.9E1,2.6E1,1.126E3,3.37E2,1.57E2,2.6E1,7.37E2,3.5E1,1.788E3,1.25E2,1.74E2,7.93E2,3.5E1,2.011E3,1.199E3,1.153E3,2.39E2,1.343E3,1.454E3,5.73E2,6.33E2,4.06E2,1.405E3,2.458E3,1.826E3,5.68E2,4.4E1,3.9E1,1.936E3,2.8E1,6E0,4E1,5E0,2.2E1,3.8E1,3.1E1,3E0,2E0,1.72E2,9E0,2E1,6E0,1.63E2,2.6E1,5.7E1,9E1,8.2E1,2E0,1.5E1,3E0,4.3E1,1.96E2,9.8E1,4E0,6.6E1,4.2E1,3.3E1],"tree_param":{"num_deleted":"0","num_feature":"32","num_nodes":"123","size_leaf_vector":"1"}},{"base_weights":[-1.7807323E-2,-5.375994E-1,9.504171E0,-2.6521044E0,1.312227E0,4.803188E0,1.3408566E1,-3.6456056E0,-1.9665535E-1,-1.4749825E-1,4.9783425E0,3.0173218E0,9.469008E0,1.0204517E1,2.1285547E1,-4.429494E0,-3.0762923E0,-1.0808833E0,1.1637423E0,-8.071252E-1,1.3807805E0,3.9550548E0,7.3511353E0,1.2423215E0,4.894823E0,4.577488E0,1.0639476E1,8.338313E0,1.1532831E1,1.8832117E1,2.667235E1,-4.8278637E0,-3.4992692E0,-3.5339227E0,-1.9742887E0,-1.6612109E0,3.460792E-1,3.1180763E-1,3.138378E0,-1.6941183E0,-3.2160112E-1,-2.3069042E-1,1.8519207E0,2.640134E0,4.991707E0,5.7851E0,7.857541E0,5.295896E-1,3.0492854E0,1.7800575E0,5.2809305E0,-6.3845634E-1,5.9534163E0,6.8780837E0,1.1704767E1,7.1197248E0,1.0038278E1,1.0515912E1,1.3825573E1,1.9542757E1,7.142073E0,4.1410372E-1,2.7343195E1,-5.117776E-1,-4.5251852E-1,9.5937535E-2,-3.5620221E-1,-3.9015803E-1,-3.097423E-1,-2.5557968E-1,-1.4553106E-1,-2.3392586E-1,-1.1395802E-1,-1.5430114E-1,7.713931E-2,3.708983E-1,1.6237983E-2,4.0531206E-1,1.347195E-1,-3.0103993E-1,-1.5217088E-1,-2.9326326E-1,-2.900578E-2,-3.691521E-2,2.0834123E-1,-1.1015388E-2,1.9977461E-1,2.1312511E-1,3.759122E-1,4.6922824E-1,6.1589813E-1,5.987291E-1,-8.784735E-2,7.6799506E-1,1.2913977E0,2.92022E-1,-3.1735048E-2,5.5917984E-1,1.6775514E-1,3.5727128E-1,-2.4759233E-1,5.6540394E-1,2.0268197E-1,6.1291075E-1,-2.4808381E-1,1.0026765E0,3.3596998E-1,9.588996E-1,1.5608138E-1,8.9949334E-1,1.4291365E0,3.487439E-1,8.2108593E-1,1.0416402E0,-6.0095645E-2,1.0631355E0,-1.0704409E-1,1.7335557E0,1.1114348E0,1.6192135E0,2.191257E0,-9.7320825E-2,1.2714462E0,3.348486E-1,2.76873E0],"categories":[],"categories_nodes":[],"categories_segments":[],"categories_sizes":[],"default_left":[0,0,0,0,0,0,0,0,0,0,0,0,0,0,0,0,0,0,0,0,0,0,0,0,0,0,0,0,0,0,0,0,0,0,0,0,0,0,0,0,0,0,0,0,0,0,0,0,0,0,0,0,0,0,0,0,0,0,0,0,0,0,0,0,0,0,0,0,0,0,0,0,0,0,0,0,0,0,0,0,0,0,0,0,0,0,0,0,0,0,0,0,0,0,0,0,0,0,0,0,0,0,0,0,0,0,0,0,0,0,0,0,0,0,0,0,0,0,0,0,0,0,0,0,0],"id":5,"left_children":[1,3,5,7,9,11,13,15,17,19,21,23,25,27,29,31,33,35,37,39,41,43,45,47,49,51,53,55,57,59,61,63,65,67,69,71,73,75,77,79,81,83,85,87,89,91,93,95,97,99,101,103,105,107,109,111,113,115,117,119,121,-1,123,-1,-1,-1,-1,-1,-1,-1,-1,-1,-1,-1,-1,-1,-1,-1,-1,-1,-1,-1,-1,-1,-1,-1,-1,-1,-1,-1,-1,-1,-1,-1,-1,-1,-1,-1,-1,-1,-1,-1,-1,-1,-1,-1,-1,-1,-1,-1,-1,-1,-1,-1,-1,-1,-1,-1,-1,-1,-1,-1,-1,-1,-1],"loss_changes":[1.27171305E5,9.530246E4,2.4347062E4,2.7733867E4,6.954911E4,5.0126094E3,1.810575E4,3.5985469E3,3.9419634E3,9.3723545E3,8.957133E3,1.456915E3,9.074336E2,1.1879062E3,2.259875E3,1.2441641E3,2.3592422E3,1.6451929E3,2.1708196E3,2.7961387E3,2.1285454E3,3.5145664E3,8.38E2,2.907341E2,2.4676123E2,2.4781104E2,4.564297E2,3.8220215E2,5.540742E2,1.0816172E3,8.3901953E2,1.856836E2,2.8992383E2,5.197539E2,4.1244922E2,4.9674487E2,4.6317767E2,4.577898E2,6.3190454E2,5.1669824E2,3.44899E2,2.0423232E2,6.2081445E2,6.428511E2,4.764922E2,3.7711816E2,6.5422656E2,3.329809E2,2.1382916E2,1.995834E2,2.180127E2,1.1495281E2,2.5157098E2,4.4630225E2,5.9340234E2,4.9055908E2,3.6430176E2,2.9494727E2,6.542832E2,7.409531E2,4.645888E2,0E0,4.1094922E2,0E0,0E0,0E0,0E0,0E0,0E0,0E0,0E0,0E0,0E0,0E0,0E0,0E0,0E0,0E0,0E0,0E0,0E0,0E0,0E0,0E0,0E0,0E0,0E0,0E0,0E0,0E0,0E0,0E0,0E0,0E0,0E0,0E0,0E0,0E0,0E0,0E0,0E0,0E0,0E0,0E0,0E0,0E0,0E0,0E0,0E0,0E0,0E0,0E0,0E0,0E0,0E0,0E0,0E0,0E0,0E0,0E0,0E0,0E0,0E0,0E0,0E0],"parents":[2147483647,0,0,1,1,2,2,3,3,4,4,5,5,6,6,7,7,8,8,9,9,10,10,11,11,12,12,13,13,14,14,15,15,16,16,17,17,18,18,19,19,20,20,21,21,22,22,23,23,24,24,25,25,26,26,27,27,28,28,29,29,30,30,31,31,32,32,33,33,34,34,35,35,36,36,37,37,38,38,39,39,40,40,41,41,42,42,43,43,44,44,45,45,46,46,47,47,48,48,49,49,50,50,51,51,52,52,53,53,54,54,55,55,56,56,57,57,58,58,59,59,60,60,62,62],"right_children":[2,4,6,8,10,12,14,16,18,20,22,24,26,28,30,32,34,36,38,40,42,44,46,48,50,52,54,56,58,60,62,64,66,68,70,72,74,76,78,80,82,84,86,88,90,92,94,96,98,100,102,104,106,108,110,112,114,116,118,120,122,-1,124,-1,-1,-1,-1,-1,-1,-1,-1,-1,-1,-1,-1,-1,-1,-1,-1,-1,-1,-1,-1,-1,-1,-1,-1,-1,-1,-1,-1,-1,-1,-1,-1,-1,-1,-1,-1,-1,-1,-1,-1,-1,-1,-1,-1,-1,-1,-1,-1,-1,-1,-1,-1,-1,-1,-1,-1,-1,-1,-1,-1,-1,-1],"split_conditions":[1E0,1.6833334E1,1.6533333E1,5E0,5E0,5E0,5E0,1.3E1,1.42E1,1E0,1E0,1.35E1,1.1666667E1,1.9928572E1,2.2285715E1,1E0,1E0,1E0,1E0,1.9933332E1,1.9E1,2.0533333E1,1.9066668E1,1E0,-8.660254E-1,1.0071428E1,9E0,1.8571428E1,1E0,2.2E1,9E0,1.1733334E1,1E0,1.4928572E1,1.4633333E1,1.2033334E1,1.0571428E1,6E0,7.1614046E0,1.7266666E1,5E0,3E1,1.8285715E1,2.0142857E1,3.1E1,1.3316656E1,2.7357143E1,3.4086723E0,9E0,1.4E1,1.8285715E1,1.7182494E0,1.0571428E1,6.9006557E0,6.123234E-17,-5E-1,1E0,2.9071428E1,2E0,1.8857143E1,9.396048E0,4.1410372E-1,4.157609E0,-5.117776E-1,-4.5251852E-1,9.5937535E-2,-3.5620221E-1,-3.9015803E-1,-3.097423E-1,-2.5557968E-1,-1.4553106E-1,-2.3392586E-1,-1.1395802E-1,-1.5430114E-1,7.713931E-2,3.708983E-1,1.6237983E-2,4.0531206E-1,1.347195E-1,-3.0103993E-1,-1.5217088E-1,-2.9326326E-1,-2.900578E-2,-3.691521E-2,2.0834123E-1,-1.1015388E-2,1.9977461E-1,2.1312511E-1,3.759122E-1,4.6922824E-1,6.1589813E-1,5.987291E-1,-8.784735E-2,7.6799506E-1,1.2913977E0,2.92022E-1,-3.1735048E-2,5.5917984E-1,1.6775514E-1,3.5727128E-1,-2.4759233E-1,5.6540394E-1,2.0268197E-1,6.1291075E-1,-2.4808381E-1,1.0026765E0,3.3596998E-1,9.588996E-1,1.5608138E-1,8.9949334E-1,1.4291365E0,3.487439E-1,8.2108593E-1,1.0416402E0,-6.0095645E-2,1.0631355E0,-1.0704409E-1,1.7335557E0,1.1114348E0,1.6192135E0,2.191257E0,-9.7320825E-2,1.2714462E0,3.348486E-1,2.76873E0],"split_indices":[13,25,25,1,1,1,1,25,25,17,17,25,25,24,24,17,17,17,17,25,25,25,25,17,9,24,21,23,17,24,20,25,21,24,25,25,24,21,27,25,21,2,24,23,21,27,24,27,21,2,23,27,23,27,9,9,14,24,1,23,27,0,27,0,0,0,0,0,0,0,0,0,0,0,0,0,0,0,0,0,0,0,0,0,0,0,0,0,0,0,0,0,0,0,0,0,0,0,0,0,0,0,0,0,0,0,0,0,0,0,0,0,0,0,0,0,0,0,0,0,0,0,0,0,0],"split_type":[0,0,0,0,0,0,0,0,0,0,0,0,0,0,0,0,0,0,0,0,0,0,0,0,0,0,0,0,0,0,0,0,0,0,0,0,0,0,0,0,0,0,0,0,0,0,0,0,0,0,0,0,0,0,0,0,0,0,0,0,0,0,0,0,0,0,0,0,0,0,0,0,0,0,0,0,0,0,0,0,0,0,0,0,0,0,0,0,0,0,0,0,0,0,0,0,0,0,0,0,0,0,0,0,0,0,0,0,0,0,0,0,0,0,0,0,0,0,0,0,0,0,0,0,0],"sum_hessian":[2.5692E4,2.4363E4,1.329E3,1.1368E4,1.2995E4,6.04E2,7.25E2,8.093E3,3.275E3,9.295E3,3.7E3,4.38E2,1.66E2,5.17E2,2.08E2,3.402E3,4.691E3,1.985E3,1.29E3,6.493E3,2.802E3,2.587E3,1.113E3,2.26E2,2.12E2,3.3E1,1.33E2,2.18E2,2.99E2,1.46E2,6.2E1,2.379E3,1.023E3,3.313E3,1.378E3,1.411E3,5.74E2,9.02E2,3.88E2,2.296E3,4.197E3,6.34E2,2.168E3,1.142E3,1.445E3,2.75E2,8.38E2,1.63E2,6.3E1,2.4E1,1.88E2,7E0,2.6E1,3.1E1,1.02E2,1.3E2,8.8E1,2.11E2,8.8E1,1.37E2,9E0,2E0,6E1,1.207E3,1.172E3,1.4E1,1.009E3,1.794E3,1.519E3,6.48E2,7.3E2,6.12E2,7.99E2,1.05E2,4.69E2,3.7E1,8.65E2,2.56E2,1.32E2,2.64E2,2.032E3,4.9E1,4.148E3,5.99E2,3.5E1,1.5E2,2.018E3,7.87E2,3.55E2,1.154E3,2.91E2,2.67E2,8E0,8.12E2,2.6E1,4.2E1,1.21E2,2.1E1,4.2E1,1.7E1,7E0,1.68E2,2E1,1E0,6E0,9E0,1.7E1,2E1,1.1E1,5.2E1,5E1,3.1E1,9.9E1,8.5E1,3E0,2.09E2,2E0,3.6E1,5.2E1,6E1,7.7E1,4E0,5E0,1E0,5.9E1],"tree_param":{"num_deleted":"0","num_feature":"32","num_nodes":"125","size_leaf_vector":"1"}},{"base_weights":[-3.283625E-2,1.9357376E0,-2.1493795E0,1.3644253E0,1.2541136E1,-2.494295E0,4.1098037E0,4.539818E-2,4.7283993E0,9.933625E0,1.8759527E1,-3.3808835E0,-3.0943316E-1,2.3941212E0,8.926016E0,-5.858357E-1,1.514834E0,3.831801E0,6.7819667E0,1.1965571E1,8.304363E0,1.676718E1,2.2404753E1,-2.7436552E0,-4.1660514E0,9.5881385E-1,-1.4017538E0,3.8331685E0,-2.043639E-2,7.2086825E0,1.2834749E1,3.645889E-1,-1.3214053E0,2.9501607E0,7.7581733E-1,4.9855375E0,2.4511063E0,7.793653E0,4.96171E0,1.141074E1,1.7979725E1,7.9955883E0,1.6301807E1,1.22963915E1,1.8315638E1,8.883856E0,2.4349653E1,-3.073264E0,-1.9647218E0,-4.541438E0,-3.3213177E0,1.3010603E-1,3.004396E0,-9.910099E-1,-2.5011957E0,2.6153798E0,4.632615E0,5.2898135E0,-3.680097E-1,1.2364567E1,6.105419E0,1.5592956E1,7.917791E0,1.21602714E-1,2.0895822E-2,-7.75596E-2,-1.8041256E-1,8.062766E-1,2.8505328E-1,1.1053695E-1,-3.2164272E-2,6.101626E-1,4.642705E-1,2.3284176E-1,4.43909E-1,1.2245617E0,7.520975E-1,8.341798E-1,4.5566082E-1,9.9026865E-1,1.3206964E0,5.2310205E-1,2.051935E0,7.163732E-1,9.745447E-1,1.7898458E0,1.7642947E-1,1.306013E0,2.730519E-1,8.5637873E-1,1.8986416E0,2.1508536E-3,1.7741902E0,1.5061805E-1,2.5138595E0,-2.753423E-1,-3.6956856E-1,-1.5456836E-1,-2.3524427E-1,-4.0757656E-1,-4.8475263E-1,-2.5980556E-1,-3.696843E-1,5.7067305E-2,-7.6342076E-2,4.508898E-1,2.570253E-1,-1.4100473E-1,9.115943E-3,-4.5281586E-1,-2.2502135E-1,3.0452698E-1,-1.9212827E-1,3.8628727E-1,5.9113544E-1,9.0400755E-1,6.579161E-2,-9.316885E-2,1.8005893E-1,-2.6293918E-1,1.3292111E0,7.087959E-1,8.9137435E-2,6.28411E-1,1.7141422E0,1.3280919E-1,1.136393E0],"categories":[],"categories_nodes":[],"categories_segments":[],"categories_sizes":[],"default_left":[0,0,0,0,0,0,0,0,0,0,0,0,0,0,0,0,0,0,0,0,0,0,0,0,0,0,0,0,0,0,0,0,0,0,0,0,0,0,0,0,0,0,0,0,0,0,0,0,0,0,0,0,0,0,0,0,0,0,0,0,0,0,0,0,0,0,0,0,0,0,0,0,0,0,0,0,0,0,0,0,0,0,0,0,0,0,0,0,0,0,0,0,0,0,0,0,0,0,0,0,0,0,0,0,0,0,0,0,0,0,0,0,0,0,0,0,0,0,0,0,0,0,0,0,0,0,0],"id":6,"left_children":[1,3,5,7,9,11,13,15,17,19,21,23,25,27,29,31,33,35,37,39,41,43,45,47,49,51,53,55,57,59,61,63,65,67,69,71,73,75,77,79,81,83,85,87,89,91,93,95,97,99,101,103,105,107,109,111,113,115,117,119,121,123,125,-1,-1,-1,-1,-1,-1,-1,-1,-1,-1,-1,-1,-1,-1,-1,-1,-1,-1,-1,-1,-1,-1,-1,-1,-1,-1,-1,-1,-1,-1,-1,-1,-1,-1,-1,-1,-1,-1,-1,-1,-1,-1,-1,-1,-1,-1,-1,-1,-1,-1,-1,-1,-1,-1,-1,-1,-1,-1,-1,-1,-1,-1,-1,-1],"loss_changes":[1.0605591E5,7.9888914E4,2.6491188E4,5.5531004E4,1.0742227E4,2.2519375E4,5.2752725E3,8.340559E3,6.464336E3,1.4797812E3,1.0623281E3,4.1263047E3,4.651905E3,1.6470684E3,1.0351943E3,4.397842E3,2.8638052E3,3.900082E3,1.9317656E3,4.9557422E2,5.31459E2,6.8859766E2,1.5455664E3,1.1667656E3,1.1591406E3,2.633934E3,8.1218823E2,2.7703027E2,3.304815E2,6.014165E2,5.546377E2,3.6348566E2,9.3287646E2,4.446079E2,6.4593713E2,4.8325E2,2.6283594E2,7.406719E2,4.891621E2,3.9743164E2,4.1069287E2,3.0864844E2,1.7732397E2,2.346543E2,4.653711E2,7.846493E2,1.0074219E3,6.28459E2,2.1748535E2,3.4528125E2,3.008379E2,4.362155E2,2.8103125E2,5.964407E2,2.3908911E2,2.3988269E2,1.523706E2,1.8513147E2,2.0703963E2,3.1310132E2,5.0598267E2,3.391289E2,4.39088E2,0E0,0E0,0E0,0E0,0E0,0E0,0E0,0E0,0E0,0E0,0E0,0E0,0E0,0E0,0E0,0E0,0E0,0E0,0E0,0E0,0E0,0E0,0E0,0E0,0E0,0E0,0E0,0E0,0E0,0E0,0E0,0E0,0E0,0E0,0E0,0E0,0E0,0E0,0E0,0E0,0E0,0E0,0E0,0E0,0E0,0E0,0E0,0E0,0E0,0E0,0E0,0E0,0E0,0E0,0E0,0E0,0E0,0E0,0E0,0E0,0E0,0E0,0E0,0E0],"parents":[2147483647,0,0,1,1,2,2,3,3,4,4,5,5,6,6,7,7,8,8,9,9,10,10,11,11,12,12,13,13,14,14,15,15,16,16,17,17,18,18,19,19,20,20,21,21,22,22,23,23,24,24,25,25,26,26,27,27,28,28,29,29,30,30,31,31,32,32,33,33,34,34,35,35,36,36,37,37,38,38,39,39,40,40,41,41,42,42,43,43,44,44,45,45,46,46,47,47,48,48,49,49,50,50,51,51,52,52,53,53,54,54,55,55,56,56,57,57,58,58,59,59,60,60,61,61,62,62],"right_children":[2,4,6,8,10,12,14,16,18,20,22,24,26,28,30,32,34,36,38,40,42,44,46,48,50,52,54,56,58,60,62,64,66,68,70,72,74,76,78,80,82,84,86,88,90,92,94,96,98,100,102,104,106,108,110,112,114,116,118,120,122,124,126,-1,-1,-1,-1,-1,-1,-1,-1,-1,-1,-1,-1,-1,-1,-1,-1,-1,-1,-1,-1,-1,-1,-1,-1,-1,-1,-1,-1,-1,-1,-1,-1,-1,-1,-1,-1,-1,-1,-1,-1,-1,-1,-1,-1,-1,-1,-1,-1,-1,-1,-1,-1,-1,-1,-1,-1,-1,-1,-1,-1,-1,-1,-1,-1],"split_conditions":[6.067209E1,1E0,1E0,5E0,5E0,5E0,5E0,1E0,1E0,2.4473486E1,1E0,8.965922E1,8.56454E1,9.476322E1,1E0,2.4760422E1,2.0999756E1,3.0253191E1,3.602519E1,2.65E1,1.6879122E1,-5E-1,1.2E1,1E0,1E0,1E0,1.0573324E2,4.956958E0,8.428572E0,7.412099E1,1.3E1,1.1270821E1,3.7682175E1,4.9962015E0,4.744606E1,1.3643206E1,1.37459955E1,9.779859E0,4.4347115E0,1.7505808E1,8.839845E0,1E0,2.9E1,2.6E1,7.7351713E0,8.788521E0,6E0,8.225337E1,7.813071E1,9.957163E1,9.8302574E1,7.999632E1,6.838276E1,1E0,6E0,5.142857E0,1E0,1.0772921E2,6.6332498E0,9E0,1.8E1,6E0,-3.857143E0,1.21602714E-1,2.0895822E-2,-7.75596E-2,-1.8041256E-1,8.062766E-1,2.8505328E-1,1.1053695E-1,-3.2164272E-2,6.101626E-1,4.642705E-1,2.3284176E-1,4.43909E-1,1.2245617E0,7.520975E-1,8.341798E-1,4.5566082E-1,9.9026865E-1,1.3206964E0,5.2310205E-1,2.051935E0,7.163732E-1,9.745447E-1,1.7898458E0,1.7642947E-1,1.306013E0,2.730519E-1,8.5637873E-1,1.8986416E0,2.1508536E-3,1.7741902E0,1.5061805E-1,2.5138595E0,-2.753423E-1,-3.6956856E-1,-1.5456836E-1,-2.3524427E-1,-4.0757656E-1,-4.8475263E-1,-2.5980556E-1,-3.696843E-1,5.7067305E-2,-7.6342076E-2,4.508898E-1,2.570253E-1,-1.4100473E-1,9.115943E-3,-4.5281586E-1,-2.2502135E-1,3.0452698E-1,-1.9212827E-1,3.8628727E-1,5.9113544E-1,9.0400755E-1,6.579161E-2,-9.316885E-2,1.8005893E-1,-2.6293918E-1,1.3292111E0,7.087959E-1,8.9137435E-2,6.28411E-1,1.7141422E0,1.3280919E-1,1.136393E0],"split_indices":[0,13,13,1,1,1,1,17,17,0,17,0,0,0,17,0,0,0,0,24,27,9,20,17,17,17,0,27,23,0,22,0,0,0,0,0,27,0,27,0,27,17,2,23,0,27,22,0,0,0,0,0,0,17,22,26,17,0,27,20,22,22,26,0,0,0,0,0,0,0,0,0,0,0,0,0,0,0,0,0,0,0,0,0,0,0,0,0,0,0,0,0,0,0,0,0,0,0,0,0,0,0,0,0,0,0,0,0,0,0,0,0,0,0,0,0,0,0,0,0,0,0,0,0,0,0,0],"split_type":[0,0,0,0,0,0,0,0,0,0,0,0,0,0,0,0,0,0,0,0,0,0,0,0,0,0,0,0,0,0,0,0,0,0,0,0,0,0,0,0,0,0,0,0,0,0,0,0,0,0,0,0,0,0,0,0,0,0,0,0,0,0,0,0,0,0,0,0,0,0,0,0,0,0,0,0,0,0,0,0,0,0,0,0,0,0,0,0,0,0,0,0,0,0,0,0,0,0,0,0,0,0,0,0,0,0,0,0,0,0,0,0,0,0,0,0,0,0,0,0,0,0,0,0,0,0,0],"sum_hessian":[2.5452E4,1.3187E4,1.2265E4,1.2514E4,6.73E2,1.1625E4,6.4E2,8.99E3,3.524E3,4.76E2,1.97E2,8.269E3,3.356E3,4.73E2,1.67E2,6.289E3,2.701E3,2.455E3,1.069E3,2.09E2,2.67E2,1.31E2,6.6E1,4.567E3,3.702E3,1.553E3,1.803E3,2.96E2,1.77E2,1.18E2,4.9E1,2.744E3,3.545E3,9.17E2,1.784E3,1.336E3,1.119E3,6.85E2,3.84E2,1.94E2,1.5E1,2.59E2,8E0,3.6E1,9.5E1,9E0,5.7E1,3.207E3,1.36E3,2.56E3,1.142E3,1.106E3,4.47E2,1.314E3,4.89E2,1.19E2,1.77E2,1E1,1.67E2,1.9E1,9.9E1,3E1,1.9E1,4.23E2,2.321E3,1.665E3,1.88E3,1.6E1,9.01E2,1.372E3,4.12E2,3.1E2,1.026E3,1.056E3,6.3E1,3.7E1,6.48E2,3.9E1,3.45E2,1.09E2,8.5E1,3E0,1.2E1,1.79E2,8E1,7E0,1E0,3.3E1,3E0,7E0,8.8E1,5E0,4E0,2E0,5.5E1,2.122E3,1.085E3,6.56E2,7.04E2,1.021E3,1.539E3,3.93E2,7.49E2,7.41E2,3.65E2,9.8E1,3.49E2,9.47E2,3.67E2,5.2E1,4.37E2,1.09E2,1E1,1.13E2,6.4E1,5E0,5E0,1.33E2,3.4E1,1E0,1.8E1,8.3E1,1.6E1,5E0,2.5E1,7E0,1.2E1],"tree_param":{"num_deleted":"0","num_feature":"32","num_nodes":"127","size_leaf_vector":"1"}},{"base_weights":[2.4187146E-2,-1.7022392E0,1.7445544E0,-2.56515E0,4.235871E-1,4.6725342E-1,4.9274206E0,-3.2090423E0,-1.92886E0,-7.445951E-1,1.546853E0,-1.00618094E-1,1.7897079E0,3.9660857E0,7.120842E0,-3.5461075E0,-2.4215171E0,-2.355754E0,-9.284576E-1,-1.212372E0,3.5199788E-1,8.4119064E-1,3.206993E0,-6.8502676E-1,2.8815302E-1,9.230914E-1,2.203883E0,3.0828621E0,4.7141476E0,5.5478926E0,8.144944E0,-3.998333E0,-3.299414E0,-2.897644E0,-1.9757661E0,-2.6688983E0,-1.9737257E0,-1.3025675E0,1.5773894E-3,-1.6190015E0,-6.3863796E-1,9.4344236E-2,2.2748742E0,7.9185593E-1,8.845436E0,2.7362745E0,5.962656E0,2.1920344E-1,-7.804269E-1,-6.8868756E-1,3.9981356E-1,3.2958812E-1,1.5444889E0,2.3983085E0,4.823631E-1,6.1440575E-1,3.4134617E0,4.61351E0,8.568446E0,4.849448E0,7.5995374E0,6.134446E0,8.664318E0,-4.01326E-1,2.8525022E-1,-2.923472E-1,-3.4248647E-1,7.813922E-1,-2.926014E-1,-2.2870174E-1,-1.1398261E-1,-3.0245578E-1,-2.4130507E-1,6.2796764E-2,-2.0254691E-1,-9.0752274E-2,-1.685404E-1,-3.984118E-1,9.450402E-3,-1.16234146E-1,-2.06282E-1,-8.667519E-2,8.418521E-2,-6.5730624E-3,2.5805312E-1,5.497832E-2,4.618526E-1,1.4581774E-1,3.2276876E-2,1.8590206E0,-7.194672E-2,3.5614723E-1,1.9133998E-1,6.445548E-1,-2.6664186E-1,-1.3579476E-1,8.578236E-2,-6.0340192E-2,-1.1765244E-1,-2.3124819E-1,-1.3513098E-3,-3.444646E-2,5.1403135E-2,-6.094271E-3,2.0900638E-1,1.0601538E-1,3.0565885E-1,2.6869056E-1,1.4623274E-1,-1.829779E-2,2.5105917E-1,-1.1367486E-1,1.980952E-1,2.999348E-1,4.752527E-1,4.0943858E-1,5.1288646E-1,1.3197619E0,3.7204263E-1,4.2786232E-1,8.7161684E-1,3.6514458E-1,1.0441865E0,1.9327625E0,5.5118656E-1,8.9039034E-1,4.0166837E-1],"categories":[],"categories_nodes":[],"categories_segments":[],"categories_sizes":[],"default_left":[0,0,0,0,0,0,0,0,0,0,0,0,0,0,0,0,0,0,0,0,0,0,0,0,0,0,0,0,0,0,0,0,0,0,0,0,0,0,0,0,0,0,0,0,0,0,0,0,0,0,0,0,0,0,0,0,0,0,0,0,0,0,0,0,0,0,0,0,0,0,0,0,0,0,0,0,0,0,0,0,0,0,0,0,0,0,0,0,0,0,0,0,0,0,0,0,0,0,0,0,0,0,0,0,0,0,0,0,0,0,0,0,0,0,0,0,0,0,0,0,0,0,0,0,0,0,0],"id":7,"left_children":[1,3,5,7,9,11,13,15,17,19,21,23,25,27,29,31,33,35,37,39,41,43,45,47,49,51,53,55,57,59,61,63,65,67,69,71,73,75,77,79,81,83,85,87,89,91,93,95,97,99,101,103,105,107,109,111,113,115,117,119,121,123,125,-1,-1,-1,-1,-1,-1,-1,-1,-1,-1,-1,-1,-1,-1,-1,-1,-1,-1,-1,-1,-1,-1,-1,-1,-1,-1,-1,-1,-1,-1,-1,-1,-1,-1,-1,-1,-1,-1,-1,-1,-1,-1,-1,-1,-1,-1,-1,-1,-1,-1,-1,-1,-1,-1,-1,-1,-1,-1,-1,-1,-1,-1,-1,-1],"loss_changes":[7.605502E4,2.3446535E4,5.2141516E4,3.718414E3,4.8444043E3,6.874689E3,7.7166953E3,1.1904375E3,1.9516406E3,9.288858E2,2.2020625E3,1.4554211E3,9.850254E2,1.6742305E3,1.7557578E3,3.3944922E2,2.8227637E2,3.7826562E2,4.7667334E2,2.9502014E2,2.6831174E2,5.1503656E2,7.1138086E2,2.2091992E2,4.198851E2,3.2809308E2,6.2139844E2,9.5678613E2,4.9653125E2,5.9938086E2,6.516797E2,1.250625E2,8.671875E1,2.2160498E2,1.8056494E2,1.5276074E2,1.9620215E2,1.4622961E2,1.4630516E2,1.4798645E2,1.79046E2,1.9080013E2,2.5621365E2,4.105495E2,7.5903735E2,3.1980103E2,3.547063E2,2.4792894E2,1.6161597E2,4.3302487E2,2.9371594E2,3.14324E2,3.153374E2,4.4744434E2,2.5685745E2,3.3727652E2,5.602334E2,3.3990234E2,7.13938E2,6.9991797E2,1.2074878E3,1.0598306E3,5.5885156E2,0E0,0E0,0E0,0E0,0E0,0E0,0E0,0E0,0E0,0E0,0E0,0E0,0E0,0E0,0E0,0E0,0E0,0E0,0E0,0E0,0E0,0E0,0E0,0E0,0E0,0E0,0E0,0E0,0E0,0E0,0E0,0E0,0E0,0E0,0E0,0E0,0E0,0E0,0E0,0E0,0E0,0E0,0E0,0E0,0E0,0E0,0E0,0E0,0E0,0E0,0E0,0E0,0E0,0E0,0E0,0E0,0E0,0E0,0E0,0E0,0E0,0E0,0E0,0E0],"parents":[2147483647,0,0,1,1,2,2,3,3,4,4,5,5,6,6,7,7,8,8,9,9,10,10,11,11,12,12,13,13,14,14,15,15,16,16,17,17,18,18,19,19,20,20,21,21,22,22,23,23,24,24,25,25,26,26,27,27,28,28,29,29,30,30,31,31,32,32,33,33,34,34,35,35,36,36,37,37,38,38,39,39,40,40,41,41,42,42,43,43,44,44,45,45,46,46,47,47,48,48,49,49,50,50,51,51,52,52,53,53,54,54,55,55,56,56,57,57,58,58,59,59,60,60,61,61,62,62],"right_children":[2,4,6,8,10,12,14,16,18,20,22,24,26,28,30,32,34,36,38,40,42,44,46,48,50,52,54,56,58,60,62,64,66,68,70,72,74,76,78,80,82,84,86,88,90,92,94,96,98,100,102,104,106,108,110,112,114,116,118,120,122,124,126,-1,-1,-1,-1,-1,-1,-1,-1,-1,-1,-1,-1,-1,-1,-1,-1,-1,-1,-1,-1,-1,-1,-1,-1,-1,-1,-1,-1,-1,-1,-1,-1,-1,-1,-1,-1,-1,-1,-1,-1,-1,-1,-1,-1,-1,-1,-1,-1,-1,-1,-1,-1,-1,-1,-1,-1,-1,-1,-1,-1,-1,-1,-1,-1],"split_conditions":[1.7413794E1,5E0,5E0,1.3633333E1,1.3633333E1,1E0,1E0,1E0,1E0,1E0,1E0,2.0433332E1,1.9966667E1,2.0571428E1,1.9857143E1,1.1533334E1,1.2033334E1,1.5571428E1,1.6166666E1,1.23E1,1.4571428E1,1.9785715E1,1.6766666E1,4E0,1.9571428E1,1.8857143E1,3.5E1,1.1E1,3.0428572E1,1E0,1.2E1,1.119311E1,9E0,-1.6714285E1,2.2857144E0,-1.5714285E0,1.3966666E1,1.6E1,-1.1714286E1,4.353433E0,1.4357142E1,3E1,6E0,1.3E1,1.72E1,6.094494E0,2.7E1,1.8142857E1,1E0,1.1E1,1.3E1,8.885515E0,8.660254E-1,1E0,2.5E1,6.2564254E0,1E0,2E1,1.5217471E1,7.571429E0,1.9233334E1,2.0142857E1,1.9857143E1,-4.01326E-1,2.8525022E-1,-2.923472E-1,-3.4248647E-1,7.813922E-1,-2.926014E-1,-2.2870174E-1,-1.1398261E-1,-3.0245578E-1,-2.4130507E-1,6.2796764E-2,-2.0254691E-1,-9.0752274E-2,-1.685404E-1,-3.984118E-1,9.450402E-3,-1.16234146E-1,-2.06282E-1,-8.667519E-2,8.418521E-2,-6.5730624E-3,2.5805312E-1,5.497832E-2,4.618526E-1,1.4581774E-1,3.2276876E-2,1.8590206E0,-7.194672E-2,3.5614723E-1,1.9133998E-1,6.445548E-1,-2.6664186E-1,-1.3579476E-1,8.578236E-2,-6.0340192E-2,-1.1765244E-1,-2.3124819E-1,-1.3513098E-3,-3.444646E-2,5.1403135E-2,-6.094271E-3,2.0900638E-1,1.0601538E-1,3.0565885E-1,2.6869056E-1,1.4623274E-1,-1.829779E-2,2.5105917E-1,-1.1367486E-1,1.980952E-1,2.999348E-1,4.752527E-1,4.0943858E-1,5.1288646E-1,1.3197619E0,3.7204263E-1,4.2786232E-1,8.7161684E-1,3.6514458E-1,1.0441865E0,1.9327625E0,5.5118656E-1,8.9039034E-1,4.0166837E-1],"split_indices":[25,1,1,25,25,17,17,17,17,17,17,25,25,23,23,25,25,24,25,25,23,24,25,2,24,24,22,22,23,30,5,27,22,26,26,26,25,2,26,27,24,2,1,2,25,27,2,24,18,2,22,27,9,29,23,27,28,22,27,26,25,23,26,0,0,0,0,0,0,0,0,0,0,0,0,0,0,0,0,0,0,0,0,0,0,0,0,0,0,0,0,0,0,0,0,0,0,0,0,0,0,0,0,0,0,0,0,0,0,0,0,0,0,0,0,0,0,0,0,0,0,0,0,0,0,0,0],"split_type":[0,0,0,0,0,0,0,0,0,0,0,0,0,0,0,0,0,0,0,0,0,0,0,0,0,0,0,0,0,0,0,0,0,0,0,0,0,0,0,0,0,0,0,0,0,0,0,0,0,0,0,0,0,0,0,0,0,0,0,0,0,0,0,0,0,0,0,0,0,0,0,0,0,0,0,0,0,0,0,0,0,0,0,0,0,0,0,0,0,0,0,0,0,0,0,0,0,0,0,0,0,0,0,0,0,0,0,0,0,0,0,0,0,0,0,0,0,0,0,0,0,0,0,0,0,0,0],"sum_hessian":[2.5605E4,1.278E4,1.2825E4,9.09E3,3.69E3,9.153E3,3.672E3,4.516E3,4.574E3,1.809E3,1.881E3,6.404E3,2.749E3,2.555E3,1.117E3,3.16E3,1.356E3,3.205E3,1.369E3,1.268E3,5.41E2,1.321E3,5.6E2,2.558E3,3.846E3,8.9E2,1.859E3,1.174E3,1.381E3,4.43E2,6.74E2,1.11E3,2.05E3,6.53E2,7.03E2,1.758E3,1.447E3,9.76E2,3.93E2,7.41E2,5.27E2,4.78E2,6.3E1,1.314E3,7E0,4.8E2,8E1,2.44E2,2.314E3,3.94E2,3.452E3,4.56E2,4.34E2,1.67E3,1.89E2,1.39E2,1.035E3,1.348E3,3.3E1,3.33E2,1.1E2,1.41E2,5.33E2,1.108E3,2E0,5.19E2,1.531E3,1E0,6.52E2,5.11E2,1.92E2,7.31E2,1.027E3,2.8E1,1.419E3,4.82E2,4.94E2,8E0,3.85E2,3.67E2,3.74E2,4.57E2,7E1,4.5E2,2.8E1,3.7E1,2.6E1,5.42E2,7.72E2,3E0,4E0,2.38E2,2.42E2,7.6E1,4E0,7E1,1.74E2,1.601E3,7.13E2,1.15E2,2.79E2,4.59E2,2.993E3,3.74E2,8.2E1,3.3E2,1.04E2,1.275E3,3.95E2,1.43E2,4.6E1,6.1E1,7.8E1,7.93E2,2.42E2,6.76E2,6.72E2,1.6E1,1.7E1,2.92E2,4.1E1,4.7E1,6.3E1,5E0,1.36E2,5.06E2,2.7E1],"tree_param":{"num_deleted":"0","num_feature":"32","num_nodes":"127","size_leaf_vector":"1"}},{"base_weights":[-1.6374802E-2,-4.32188E-1,7.6758647E0,-1.341695E0,1.800794E0,5.6309633E0,1.2827952E1,-2.5977628E0,-8.896243E-2,-1.8691538E-1,3.570847E0,2.7903311E0,8.318788E0,8.649627E0,1.6339615E1,-3.3022442E0,-2.1716247E0,-5.503258E-1,9.960011E-1,-6.940295E-1,1.024744E0,2.7905374E0,5.374695E0,1.0788058E0,4.039226E0,7.369072E0,1.0840944E1,5.098239E0,9.687182E0,1.437235E1,1.9975996E1,-3.608096E0,-2.5950837E0,-2.4914775E0,-1.416614E0,-1.0110606E0,-2.5617844E-1,-2.3303843E-1,1.2774374E0,-1.1864464E0,1.9968322E-1,-1.9065123E-2,2.0750225E0,1.8742461E0,3.5055554E0,3.1615214E0,5.7560825E0,4.79003E-1,3.320041E0,3.0910301E0,6.1549916E0,9.595882E0,6.8254423E0,-8.586867E-1,1.1513759E1,7.463494E0,1.9667076E0,-3.0595145E0,1.0007334E1,1.541316E1,8.373078E0,1.5666013E1,2.5573614E1,-3.8299662E-1,-3.322744E-1,-3.522611E-2,-2.6726216E-1,-2.8218958E-1,-2.0220888E-1,-1.7180866E-1,-5.709917E-2,-2.5975603E-1,-9.3163885E-2,-2.8829226E-2,1.9174378E-1,-1.4365712E-1,1.4904581E-2,-1.15272336E-1,1.3656561E-1,-1.2343677E-1,2.4334235E-1,4.167903E-1,8.142182E-3,-1.031213E-1,4.5091745E-2,2.1546994E-1,-8.084634E-1,2.1209732E-1,-5.0300606E-2,-1.5794688E-1,3.5774273E-1,1.6706793E-1,4.6147266E-1,4.9751982E-1,6.367622E-1,-5.9186317E-2,1.8577857E-1,3.790323E-1,-3.9003086E-1,2.6562047E-1,6.1919546E-1,8.949599E-1,4.5097342E-1,1.0315675E0,5.5873077E-2,5.6187224E-1,8.398531E-1,6.9501156E-1,-4.6199736E-1,9.642417E-1,1.5155731E0,1.8437542E-1,8.922102E-1,-1.3062264E-1,5.042971E-1,2.4061452E-1,-5.6834495E-1,1.2307495E0,7.4022853E-1,1.0143478E0,1.7281656E0,-2.7679062E-1,9.6255726E-1,2.6572526E0,1.3413094E0,2.8525054E0,1.4629383E0],"categories":[],"categories_nodes":[],"categories_segments":[],"categories_sizes":[],"default_left":[0,0,0,0,0,0,0,0,0,0,0,0,0,0,0,0,0,0,0,0,0,0,0,0,0,0,0,0,0,0,0,0,0,0,0,0,0,0,0,0,0,0,0,0,0,0,0,0,0,0,0,0,0,0,0,0,0,0,0,0,0,0,0,0,0,0,0,0,0,0,0,0,0,0,0,0,0,0,0,0,0,0,0,0,0,0,0,0,0,0,0,0,0,0,0,0,0,0,0,0,0,0,0,0,0,0,0,0,0,0,0,0,0,0,0,0,0,0,0,0,0,0,0,0,0,0,0],"id":8,"left_children":[1,3,5,7,9,11,13,15,17,19,21,23,25,27,29,31,33,35,37,39,41,43,45,47,49,51,53,55,57,59,61,63,65,67,69,71,73,75,77,79,81,83,85,87,89,91,93,95,97,99,101,103,105,107,109,111,113,115,117,119,121,123,125,-1,-1,-1,-1,-1,-1,-1,-1,-1,-1,-1,-1,-1,-1,-1,-1,-1,-1,-1,-1,-1,-1,-1,-1,-1,-1,-1,-1,-1,-1,-1,-1,-1,-1,-1,-1,-1,-1,-1,-1,-1,-1,-1,-1,-1,-1,-1,-1,-1,-1,-1,-1,-1,-1,-1,-1,-1,-1,-1,-1,-1,-1,-1,-1],"loss_changes":[8.182823E4,4.9294695E4,1.3750359E4,2.7138219E4,2.4717088E4,7.1614336E3,5.3169766E3,2.578207E3,4.3234053E3,2.0345394E3,5.215496E3,9.7676196E2,1.0770586E3,5.843916E2,1.1508008E3,6.9226953E2,1.293043E3,8.21016E2,8.9167285E2,1.027382E3,1.0711152E3,1.6942363E3,9.280117E2,2.60548E2,5.1260693E2,3.6304297E2,1.0332041E3,2.8900305E2,5.6929297E2,7.0765234E2,1.2399062E3,1.3048242E2,1.7000488E2,5.79E2,4.069099E2,2.9507227E2,2.5882434E2,2.2140239E2,4.5114038E2,2.6407422E2,3.8916904E2,2.340297E2,4.1164136E2,6.6971387E2,5.381406E2,3.5409558E2,4.2437305E2,2.2995575E2,1.5400311E2,2.3299963E2,3.3206567E2,4.3006152E2,4.9951465E2,2.6707852E2,6.921533E2,1.7208081E2,1.97887E2,7.104135E1,6.8186816E2,9.373457E2,3.336311E2,6.510117E2,4.8713086E2,0E0,0E0,0E0,0E0,0E0,0E0,0E0,0E0,0E0,0E0,0E0,0E0,0E0,0E0,0E0,0E0,0E0,0E0,0E0,0E0,0E0,0E0,0E0,0E0,0E0,0E0,0E0,0E0,0E0,0E0,0E0,0E0,0E0,0E0,0E0,0E0,0E0,0E0,0E0,0E0,0E0,0E0,0E0,0E0,0E0,0E0,0E0,0E0,0E0,0E0,0E0,0E0,0E0,0E0,0E0,0E0,0E0,0E0,0E0,0E0,0E0,0E0,0E0,0E0],"parents":[2147483647,0,0,1,1,2,2,3,3,4,4,5,5,6,6,7,7,8,8,9,9,10,10,11,11,12,12,13,13,14,14,15,15,16,16,17,17,18,18,19,19,20,20,21,21,22,22,23,23,24,24,25,25,26,26,27,27,28,28,29,29,30,30,31,31,32,32,33,33,34,34,35,35,36,36,37,37,38,38,39,39,40,40,41,41,42,42,43,43,44,44,45,45,46,46,47,47,48,48,49,49,50,50,51,51,52,52,53,53,54,54,55,55,56,56,57,57,58,58,59,59,60,60,61,61,62,62],"right_children":[2,4,6,8,10,12,14,16,18,20,22,24,26,28,30,32,34,36,38,40,42,44,46,48,50,52,54,56,58,60,62,64,66,68,70,72,74,76,78,80,82,84,86,88,90,92,94,96,98,100,102,104,106,108,110,112,114,116,118,120,122,124,126,-1,-1,-1,-1,-1,-1,-1,-1,-1,-1,-1,-1,-1,-1,-1,-1,-1,-1,-1,-1,-1,-1,-1,-1,-1,-1,-1,-1,-1,-1,-1,-1,-1,-1,-1,-1,-1,-1,-1,-1,-1,-1,-1,-1,-1,-1,-1,-1,-1,-1,-1,-1,-1,-1,-1,-1,-1,-1,-1,-1,-1,-1,-1,-1],"split_conditions":[1E0,5E0,5E0,1.7466667E1,1.6833334E1,1.6766666E1,1.69E1,1.29E1,1E0,1E0,1E0,1.3133333E1,2.2466667E1,1.1571428E1,1E0,1E0,1E0,2.0366667E1,1.9066668E1,1.4366667E1,1.3433333E1,2.0533333E1,1.7E1,9.749279E-1,1E0,1.3E1,1E1,1.0571428E1,1.0633333E1,1.1E1,2.0733334E1,1.1833333E1,4E0,1.53E1,1.6033333E1,1.4428572E1,5.2E1,1.6857143E1,8E0,1.8E1,5E0,1.0857142E1,3.702497E1,1E0,5E0,1.9752035E1,2.08E1,1.2033334E1,1.3033334E1,1E0,4.3388373E-1,1E0,5E-1,1.1789606E1,1E0,5E0,1.1142858E1,1.3383164E1,1.3E1,-5E-1,9.585484E0,-8.660254E-1,5E-1,-3.8299662E-1,-3.322744E-1,-3.522611E-2,-2.6726216E-1,-2.8218958E-1,-2.0220888E-1,-1.7180866E-1,-5.709917E-2,-2.5975603E-1,-9.3163885E-2,-2.8829226E-2,1.9174378E-1,-1.4365712E-1,1.4904581E-2,-1.15272336E-1,1.3656561E-1,-1.2343677E-1,2.4334235E-1,4.167903E-1,8.142182E-3,-1.031213E-1,4.5091745E-2,2.1546994E-1,-8.084634E-1,2.1209732E-1,-5.0300606E-2,-1.5794688E-1,3.5774273E-1,1.6706793E-1,4.6147266E-1,4.9751982E-1,6.367622E-1,-5.9186317E-2,1.8577857E-1,3.790323E-1,-3.9003086E-1,2.6562047E-1,6.1919546E-1,8.949599E-1,4.5097342E-1,1.0315675E0,5.5873077E-2,5.6187224E-1,8.398531E-1,6.9501156E-1,-4.6199736E-1,9.642417E-1,1.5155731E0,1.8437542E-1,8.922102E-1,-1.3062264E-1,5.042971E-1,2.4061452E-1,-5.6834495E-1,1.2307495E0,7.4022853E-1,1.0143478E0,1.7281656E0,-2.7679062E-1,9.6255726E-1,2.6572526E0,1.3413094E0,2.8525054E0,1.4629383E0],"split_indices":[13,1,1,25,25,25,25,25,17,17,17,25,25,23,17,17,17,25,25,25,25,25,23,6,17,21,21,23,25,3,25,25,21,25,25,23,21,23,21,23,20,23,16,8,21,16,25,25,25,8,6,15,9,16,17,22,23,16,22,9,16,8,9,0,0,0,0,0,0,0,0,0,0,0,0,0,0,0,0,0,0,0,0,0,0,0,0,0,0,0,0,0,0,0,0,0,0,0,0,0,0,0,0,0,0,0,0,0,0,0,0,0,0,0,0,0,0,0,0,0,0,0,0,0,0,0,0],"split_type":[0,0,0,0,0,0,0,0,0,0,0,0,0,0,0,0,0,0,0,0,0,0,0,0,0,0,0,0,0,0,0,0,0,0,0,0,0,0,0,0,0,0,0,0,0,0,0,0,0,0,0,0,0,0,0,0,0,0,0,0,0,0,0,0,0,0,0,0,0,0,0,0,0,0,0,0,0,0,0,0,0,0,0,0,0,0,0,0,0,0,0,0,0,0,0,0,0,0,0,0,0,0,0,0,0,0,0,0,0,0,0,0,0,0,0,0,0,0,0,0,0,0,0,0,0,0,0],"sum_hessian":[2.5581E4,2.427E4,1.311E3,1.7246E4,7.024E3,9.4E2,3.71E2,8.611E3,8.635E3,3.309E3,3.715E3,4.58E2,4.82E2,1.71E2,2E2,3.243E3,5.368E3,6.059E3,2.576E3,2.333E3,9.76E2,2.595E3,1.12E3,1.94E2,2.64E2,3.53E2,1.29E2,4E1,1.31E2,1.33E2,6.7E1,2.261E3,9.82E2,3.769E3,1.599E3,2.36E3,3.699E3,4.8E2,2.096E3,1.504E3,8.29E2,4.9E2,4.86E2,1.139E3,1.456E3,1.66E2,9.54E2,1.54E2,4E1,1.84E2,8E1,6.6E1,2.87E2,7E0,1.22E2,2.2E1,1.8E1,3E0,1.28E2,1.12E2,2.1E1,4E1,2.7E1,1.265E3,9.96E2,3.3E1,9.49E2,2.209E3,1.56E3,1.178E3,4.21E2,1.11E2,2.249E3,3.646E3,5.3E1,1.15E2,3.65E2,7.3E1,2.023E3,1.485E3,1.9E1,2.3E1,8.06E2,1.55E2,3.35E2,4.83E2,3E0,1.032E3,1.07E2,2E1,1.436E3,8.3E1,8.3E1,4.23E2,5.31E2,8.7E1,6.7E1,3.8E1,2E0,1.63E2,2.1E1,2.8E1,5.2E1,6.1E1,5E0,1.65E2,1.22E2,2E0,5E0,8.3E1,3.9E1,5E0,1.7E1,9E0,9E0,1E0,2E0,6.6E1,6.2E1,3.1E1,8.1E1,2E0,1.9E1,5E0,3.5E1,2E1,7E0],"tree_param":{"num_deleted":"0","num_feature":"32","num_nodes":"127","size_leaf_vector":"1"}},{"base_weights":[-1.2864673E-2,-3.834058E-1,6.9011574E0,1.1237303E0,-1.7963754E0,1.0217931E1,3.3026931E0,1.4949477E-1,3.5681574E0,-2.4319751E0,-2.1095395E-1,7.7067437E0,1.59499445E1,2.0598803E0,6.901744E0,-3.268795E-1,1.2785048E0,2.9356055E0,5.0338683E0,-1.882212E0,-3.2003415E0,8.6497253E-1,-1.275419E0,8.860769E0,6.573328E0,1.3562905E1,2.0458267E1,3.9238946E0,8.2972944E-1,8.343483E0,3.465488E0,2.810445E-1,-8.908342E-1,1.7346745E0,1.7569749E-1,3.774179E0,1.7647749E0,8.817435E0,4.8269763E0,-2.1356E0,-1.292519E0,-3.4518223E0,-2.626849E0,2.5515527E-1,2.3023286E0,-1.0622094E0,-2.6856904E0,6.9550123E0,1.06582155E1,4.964123E0,7.7300477E0,1.3724223E1,-4.1881648E-1,8.546829E0,2.30708E1,1.5088185E0,3.7194314E0,1.2127753E-1,2.498208E0,6.9746704E0,1.1039458E1,4.6935787E0,-1.203696E0,1.0531904E-1,1.3303461E-2,-4.6701487E-2,-1.2321632E-1,2.670147E-1,1.3991903E-1,-1.402498E-2,1.3486649E-1,8.8836116E-1,3.7068427E-1,6.786091E-1,1.6367368E-1,1.2999308E0,6.344167E-1,4.3083745E-1,6.456818E-1,-1.7196396E-1,-2.4128817E-1,-4.1352127E-2,-1.4532904E-1,-3.0531237E-1,-3.73417E-1,-2.0190632E-1,-2.9990017E-1,6.7187333E-1,2.2387592E-2,-2.0815281E-2,2.6591027E-1,-5.4935843E-2,-1.5311287E-1,-5.9886926E-1,-2.4662836E-1,8.3997244E-1,3.9242998E-1,1.2487645E0,8.131282E-1,9.031876E-1,2.9462674E-1,5.971533E-1,1.1517161E0,1.3085834E0,2.5375037E0,1.2267426E0,-6.0373195E-2,2.39449E0,5.721313E-1,7.230797E-1,3.2442284E-1,7.3361576E-2,-1.3441627E-1,-3.900921E-1,3.2231283E-1,-9.569011E-2,7.781498E-1,4.299678E-1,1.513297E0,6.518251E-1,4.487944E-3,-4.8306632E-1,4.114797E-1],"categories":[],"categories_nodes":[],"categories_segments":[],"categories_sizes":[],"default_left":[0,0,0,0,0,0,0,0,0,0,0,0,0,0,0,0,0,0,0,0,0,0,0,0,0,0,0,0,0,0,0,0,0,0,0,0,0,0,0,0,0,0,0,0,0,0,0,0,0,0,0,0,0,0,0,0,0,0,0,0,0,0,0,0,0,0,0,0,0,0,0,0,0,0,0,0,0,0,0,0,0,0,0,0,0,0,0,0,0,0,0,0,0,0,0,0,0,0,0,0,0,0,0,0,0,0,0,0,0,0,0,0,0,0,0,0,0,0,0,0,0,0,0],"id":9,"left_children":[1,3,5,7,9,11,13,15,17,19,21,23,25,27,29,31,33,35,37,39,41,43,45,47,49,51,53,55,57,59,61,63,65,67,69,71,73,75,77,79,81,83,85,87,89,91,93,95,97,99,101,103,-1,105,107,-1,109,111,113,115,117,119,121,-1,-1,-1,-1,-1,-1,-1,-1,-1,-1,-1,-1,-1,-1,-1,-1,-1,-1,-1,-1,-1,-1,-1,-1,-1,-1,-1,-1,-1,-1,-1,-1,-1,-1,-1,-1,-1,-1,-1,-1,-1,-1,-1,-1,-1,-1,-1,-1,-1,-1,-1,-1,-1,-1,-1,-1,-1,-1,-1,-1],"loss_changes":[6.5475312E4,5.165821E4,1.5482141E4,2.7952902E4,1.2615809E4,9.607523E3,2.7813755E3,4.514974E3,3.086496E3,3.7691367E3,4.1058086E3,5.59125E2,1.9286445E3,1.0652909E3,7.637554E2,2.024387E3,1.2528362E3,2.289832E3,7.45709E2,7.7602344E2,5.283008E2,1.5622562E3,5.389785E2,7.171621E2,4.120869E2,4.497871E2,1.9500312E3,3.661775E2,3.330314E2,3.3631592E2,2.866245E2,3.246585E2,4.4252393E2,5.4924316E2,2.7072415E2,4.3566602E2,6.176682E2,4.4501782E2,7.810742E2,4.1614258E2,2.2112646E2,2.7982227E2,2.518003E2,2.5182298E2,4.7615625E2,3.7600012E2,1.5625989E2,4.7056494E2,4.39333E2,8.270359E2,8.569219E2,6.794824E2,0E0,4.8404413E2,7.1224805E2,0E0,2.818977E2,1.7955777E2,4.022373E2,5.0020044E2,9.281509E2,3.305191E2,2.3206721E2,0E0,0E0,0E0,0E0,0E0,0E0,0E0,0E0,0E0,0E0,0E0,0E0,0E0,0E0,0E0,0E0,0E0,0E0,0E0,0E0,0E0,0E0,0E0,0E0,0E0,0E0,0E0,0E0,0E0,0E0,0E0,0E0,0E0,0E0,0E0,0E0,0E0,0E0,0E0,0E0,0E0,0E0,0E0,0E0,0E0,0E0,0E0,0E0,0E0,0E0,0E0,0E0,0E0,0E0,0E0,0E0,0E0,0E0,0E0,0E0],"parents":[2147483647,0,0,1,1,2,2,3,3,4,4,5,5,6,6,7,7,8,8,9,9,10,10,11,11,12,12,13,13,14,14,15,15,16,16,17,17,18,18,19,19,20,20,21,21,22,22,23,23,24,24,25,25,26,26,27,27,28,28,29,29,30,30,31,31,32,32,33,33,34,34,35,35,36,36,37,37,38,38,39,39,40,40,41,41,42,42,43,43,44,44,45,45,46,46,47,47,48,48,49,49,50,50,51,51,53,53,54,54,56,56,57,57,58,58,59,59,60,60,61,61,62,62],"right_children":[2,4,6,8,10,12,14,16,18,20,22,24,26,28,30,32,34,36,38,40,42,44,46,48,50,52,54,56,58,60,62,64,66,68,70,72,74,76,78,80,82,84,86,88,90,92,94,96,98,100,102,104,-1,106,108,-1,110,112,114,116,118,120,122,-1,-1,-1,-1,-1,-1,-1,-1,-1,-1,-1,-1,-1,-1,-1,-1,-1,-1,-1,-1,-1,-1,-1,-1,-1,-1,-1,-1,-1,-1,-1,-1,-1,-1,-1,-1,-1,-1,-1,-1,-1,-1,-1,-1,-1,-1,-1,-1,-1,-1,-1,-1,-1,-1,-1,-1,-1,-1,-1,-1],"split_conditions":[1E0,5.3456543E1,5.965044E1,5E0,5E0,5E0,5E0,1E0,1E0,8.965922E1,8.56454E1,2.6904404E1,1E0,8.350096E1,9.998607E1,2.5437117E1,3.526939E1,3.0253191E1,1.0317798E1,1E0,1E0,1E0,1.0955515E2,1.7252766E1,1.7E1,4.9E1,1.4E1,1.1E1,1E0,1E0,2.4E1,1.1270821E1,3.5612217E1,1.5783403E1,2.6E1,4.9962015E0,1.3714286E1,2.1357143E1,2.7E1,7.32761E1,6.2901173E1,9.998607E1,9.913197E1,1.7182494E0,-6.714286E0,4.7207747E0,5E0,2.5E1,8.938947E0,1.8071428E1,1E0,2.7571428E1,-4.1881648E-1,-6.857143E0,1.4714286E1,1.5088185E0,-6.428571E0,1.0535387E2,3.0783422E0,8E0,1.4E1,5.871643E0,-2.857143E-1,1.0531904E-1,1.3303461E-2,-4.6701487E-2,-1.2321632E-1,2.670147E-1,1.3991903E-1,-1.402498E-2,1.3486649E-1,8.8836116E-1,3.7068427E-1,6.786091E-1,1.6367368E-1,1.2999308E0,6.344167E-1,4.3083745E-1,6.456818E-1,-1.7196396E-1,-2.4128817E-1,-4.1352127E-2,-1.4532904E-1,-3.0531237E-1,-3.73417E-1,-2.0190632E-1,-2.9990017E-1,6.7187333E-1,2.2387592E-2,-2.0815281E-2,2.6591027E-1,-5.4935843E-2,-1.5311287E-1,-5.9886926E-1,-2.4662836E-1,8.3997244E-1,3.9242998E-1,1.2487645E0,8.131282E-1,9.031876E-1,2.9462674E-1,5.971533E-1,1.1517161E0,1.3085834E0,2.5375037E0,1.2267426E0,-6.0373195E-2,2.39449E0,5.721313E-1,7.230797E-1,3.2442284E-1,7.3361576E-2,-1.3441627E-1,-3.900921E-1,3.2231283E-1,-9.569011E-2,7.781498E-1,4.299678E-1,1.513297E0,6.518251E-1,4.487944E-3,-4.8306632E-1,4.114797E-1],"split_indices":[13,0,0,1,1,1,1,17,17,0,0,0,17,0,0,0,0,0,0,17,17,17,0,0,21,20,20,24,17,17,2,0,0,0,21,0,23,24,20,0,0,0,0,27,26,27,21,21,27,24,28,23,0,26,26,0,26,0,27,20,2,27,26,0,0,0,0,0,0,0,0,0,0,0,0,0,0,0,0,0,0,0,0,0,0,0,0,0,0,0,0,0,0,0,0,0,0,0,0,0,0,0,0,0,0,0,0,0,0,0,0,0,0,0,0,0,0,0,0,0,0,0,0],"split_type":[0,0,0,0,0,0,0,0,0,0,0,0,0,0,0,0,0,0,0,0,0,0,0,0,0,0,0,0,0,0,0,0,0,0,0,0,0,0,0,0,0,0,0,0,0,0,0,0,0,0,0,0,0,0,0,0,0,0,0,0,0,0,0,0,0,0,0,0,0,0,0,0,0,0,0,0,0,0,0,0,0,0,0,0,0,0,0,0,0,0,0,0,0,0,0,0,0,0,0,0,0,0,0,0,0,0,0,0,0,0,0,0,0,0,0,0,0,0,0,0,0,0,0],"sum_hessian":[2.5555E4,2.4256E4,1.299E3,1.1737E4,1.2519E4,6.75E2,6.24E2,8.393E3,3.344E3,8.936E3,3.583E3,4.71E2,2.04E2,4.65E2,1.59E2,5.903E3,2.49E3,2.338E3,1.006E3,5.211E3,3.725E3,1.782E3,1.801E3,2.3E2,2.41E2,1.36E2,6.8E1,1.84E2,2.81E2,1.11E2,4.8E1,2.841E3,3.062E3,1.761E3,7.29E2,1.361E3,9.77E2,5E1,9.56E2,3.643E3,1.568E3,2.586E3,1.139E3,1.252E3,5.3E2,1.566E3,2.35E2,1.14E2,1.16E2,1.03E2,1.38E2,1.35E2,1E0,1.3E1,5.5E1,2E0,1.82E2,1.98E2,8.3E1,7.6E1,3.5E1,3.8E1,1E1,4.56E2,2.385E3,1.367E3,1.695E3,4.63E2,1.298E3,5.75E2,1.54E2,1.6E1,1.345E3,2.3E1,9.54E2,1.7E1,3.3E1,7.28E2,2.28E2,1.46E3,2.183E3,2.43E2,1.325E3,1.077E3,1.509E3,4.35E2,7.04E2,5E0,1.247E3,6.6E1,4.64E2,7.49E2,8.17E2,1.3E1,2.22E2,7.6E1,3.8E1,6.5E1,5.1E1,3.3E1,7E1,9.6E1,4.2E1,1.3E2,5E0,9E0,4E0,5.2E1,3E0,2E1,1.62E2,1.4E2,5.8E1,8E0,7.5E1,7E0,6.9E1,1.4E1,2.1E1,2.7E1,1.1E1,6E0,4E0],"tree_param":{"num_deleted":"0","num_feature":"32","num_nodes":"123","size_leaf_vector":"1"}},{"base_weights":[-2.9936025E-3,1.3340975E0,-1.5189532E0,3.8173214E-1,3.7081537E0,-2.1097856E0,-3.5868518E-2,-3.8441904E-2,1.360848E0,4.5457025E0,2.4103236E0,-1.5103122E0,-2.6009524E0,9.088785E-1,-7.769832E-1,6.1296517E-1,-5.2816856E-1,2.4208667E0,8.112771E-1,3.8464515E0,6.1757994E0,1.8079602E0,3.702348E0,-1.4310342E0,-2.8429017E0,-2.2880502E0,-2.9719212E0,3.3199847E-1,2.2926362E0,-1.1642396E0,1.8797657E-1,1.7515273E0,5.293983E-1,-2.3331276E-1,-7.395005E-1,7.567794E0,2.3177674E0,1.0858893E0,-1.1261746E-1,5.0324917E0,3.5056443E0,8.8988905E0,5.6574144E0,2.8384488E0,1.0047514E0,4.9410424E0,2.794315E0,-1.6575345E0,-8.7524515E-1,-2.2062564E0,-3.4086895E0,-2.5355961E0,-1.7295783E0,-3.1433055E0,-2.5608845E0,8.587896E-1,3.003518E-1,-1.3849385E0,2.407843E0,-9.535614E-1,-2.6961193E0,8.4151983E-1,-8.407792E-1,2.090175E-1,-3.2284734E-1,8.32336E-2,2.3964906E-2,-3.8355058E-1,-1.9482147E-2,1.8905837E-2,-9.225441E-2,8.4142715E-1,-3.834405E-1,2.4829541E-1,2.184515E-2,1.4519708E-1,1.1602968E-2,2.504054E-3,-5.013035E-1,6.567965E-1,4.0743193E-1,4.1952974E-1,2.9232985E-1,7.335241E-1,1.2224356E0,7.371469E-1,4.8598948E-1,2.9152704E-2,3.348408E-1,3.6928428E-3,2.0060514E-1,6.4791486E-2,5.770603E-1,4.2723903E-1,1.4749804E-1,-1.5237562E-1,-2.2773182E-1,-5.3531523E-3,-1.0628935E-1,-4.1525933E-1,-1.6334273E-1,-3.085198E-1,-5.634877E-1,-2.3680179E-1,-3.1103978E-1,-2.8343624E-1,-1.4731207E-1,-3.0185175E-1,-3.958426E-1,-1.1198111E-1,-2.640414E-1,8.59253E-2,-1.885998E-2,-5.678302E-1,9.002369E-2,3.9042082E-1,2.0622252E-1,-4.082058E-2,-1.473341E-1,-1.7853186E-1,-3.306824E-1,5.904441E-2,6.158441E-1,-5.2958884E-4,-2.0507286E-1],"categories":[],"categories_nodes":[],"categories_segments":[],"categories_sizes":[],"default_left":[0,0,0,0,0,0,0,0,0,0,0,0,0,0,0,0,0,0,0,0,0,0,0,0,0,0,0,0,0,0,0,0,0,0,0,0,0,0,0,0,0,0,0,0,0,0,0,0,0,0,0,0,0,0,0,0,0,0,0,0,0,0,0,0,0,0,0,0,0,0,0,0,0,0,0,0,0,0,0,0,0,0,0,0,0,0,0,0,0,0,0,0,0,0,0,0,0,0,0,0,0,0,0,0,0,0,0,0,0,0,0,0,0,0,0,0,0,0,0,0,0,0,0,0,0],"id":10,"left_children":[1,3,5,7,9,11,13,15,17,19,21,23,25,27,29,31,33,35,37,39,41,43,45,47,49,51,53,55,57,59,61,63,65,67,69,71,73,75,77,79,81,83,85,87,89,91,93,95,97,99,101,103,105,107,109,-1,111,113,115,117,119,121,123,-1,-1,-1,-1,-1,-1,-1,-1,-1,-1,-1,-1,-1,-1,-1,-1,-1,-1,-1,-1,-1,-1,-1,-1,-1,-1,-1,-1,-1,-1,-1,-1,-1,-1,-1,-1,-1,-1,-1,-1,-1,-1,-1,-1,-1,-1,-1,-1,-1,-1,-1,-1,-1,-1,-1,-1,-1,-1,-1,-1,-1,-1],"loss_changes":[5.1633164E4,3.0600805E4,1.0460645E4,3.9745786E3,4.2011484E3,2.5097188E3,2.3826704E3,2.1571597E3,1.6880288E3,2.6594414E3,1.177831E3,4.023496E2,5.3771484E2,1.1934388E3,7.1283984E2,2.7518652E2,2.4035364E2,5.0779736E2,4.8522107E2,6.493047E2,9.448418E2,8.579531E2,5.2945996E2,4.5589404E2,6.992395E1,3.4800684E2,1.4291602E2,2.7358478E2,1.8975513E2,4.3666956E2,3.6847556E2,3.4066827E2,2.3723444E2,2.2290015E2,3.8225964E2,2.1564612E2,3.3652686E2,5.2317175E2,2.962669E2,5.1171777E2,5.038125E2,4.875166E2,7.775371E2,5.899895E2,5.6780743E2,7.1922705E2,5.4166943E2,2.1044727E2,1.6246277E2,1.0916855E2,6.327234E1,1.6255078E2,2.1852197E2,1.414414E2,6.993359E1,0E0,2.8819458E2,1.4246704E2,2.1278052E2,3.3898938E2,8.531799E1,4.4357208E2,2.1530925E2,0E0,0E0,0E0,0E0,0E0,0E0,0E0,0E0,0E0,0E0,0E0,0E0,0E0,0E0,0E0,0E0,0E0,0E0,0E0,0E0,0E0,0E0,0E0,0E0,0E0,0E0,0E0,0E0,0E0,0E0,0E0,0E0,0E0,0E0,0E0,0E0,0E0,0E0,0E0,0E0,0E0,0E0,0E0,0E0,0E0,0E0,0E0,0E0,0E0,0E0,0E0,0E0,0E0,0E0,0E0,0E0,0E0,0E0,0E0,0E0,0E0,0E0],"parents":[2147483647,0,0,1,1,2,2,3,3,4,4,5,5,6,6,7,7,8,8,9,9,10,10,11,11,12,12,13,13,14,14,15,15,16,16,17,17,18,18,19,19,20,20,21,21,22,22,23,23,24,24,25,25,26,26,27,27,28,28,29,29,30,30,31,31,32,32,33,33,34,34,35,35,36,36,37,37,38,38,39,39,40,40,41,41,42,42,43,43,44,44,45,45,46,46,47,47,48,48,49,49,50,50,51,51,52,52,53,53,54,54,56,56,57,57,58,58,59,59,60,60,61,61,62,62],"right_children":[2,4,6,8,10,12,14,16,18,20,22,24,26,28,30,32,34,36,38,40,42,44,46,48,50,52,54,56,58,60,62,64,66,68,70,72,74,76,78,80,82,84,86,88,90,92,94,96,98,100,102,104,106,108,110,-1,112,114,116,118,120,122,124,-1,-1,-1,-1,-1,-1,-1,-1,-1,-1,-1,-1,-1,-1,-1,-1,-1,-1,-1,-1,-1,-1,-1,-1,-1,-1,-1,-1,-1,-1,-1,-1,-1,-1,-1,-1,-1,-1,-1,-1,-1,-1,-1,-1,-1,-1,-1,-1,-1,-1,-1,-1,-1,-1,-1,-1,-1,-1,-1,-1,-1,-1],"split_conditions":[6.2901173E1,5E0,5E0,1E0,3.3835754E1,8.601181E1,8.56454E1,2.4760422E1,2.1262062E1,1E0,1E0,1.77E1,1.00733055E2,1E0,1E0,8.581957E0,3.6438118E1,4.9962015E0,2.5E1,1.2453802E1,1.24010935E1,1.85E1,4.3652153E1,1E0,6.945365E0,1E0,1E0,1.11E1,1E0,1.0955515E2,1.0328733E2,3.9E1,2.2142857E1,1.3285714E1,1.69E1,3E1,3.2956818E1,4.7950867E1,2.6214285E1,1.7505808E1,1.8925804E1,2.6466387E1,1.4959709E1,1.1E1,2.05E1,1.4E1,1.8266666E1,8.316306E1,6.997765E1,1.2E1,2.7E1,1.4233334E1,3.4846601E0,1.1277808E2,2.4102955E0,8.587896E-1,7.596012E1,1.3142858E1,6.838276E1,4.775932E0,1E1,1.024413E2,3.3E1,2.090175E-1,-3.2284734E-1,8.32336E-2,2.3964906E-2,-3.8355058E-1,-1.9482147E-2,1.8905837E-2,-9.225441E-2,8.4142715E-1,-3.834405E-1,2.4829541E-1,2.184515E-2,1.4519708E-1,1.1602968E-2,2.504054E-3,-5.013035E-1,6.567965E-1,4.0743193E-1,4.1952974E-1,2.9232985E-1,7.335241E-1,1.2224356E0,7.371469E-1,4.8598948E-1,2.9152704E-2,3.348408E-1,3.6928428E-3,2.0060514E-1,6.4791486E-2,5.770603E-1,4.2723903E-1,1.4749804E-1,-1.5237562E-1,-2.2773182E-1,-5.3531523E-3,-1.0628935E-1,-4.1525933E-1,-1.6334273E-1,-3.085198E-1,-5.634877E-1,-2.3680179E-1,-3.1103978E-1,-2.8343624E-1,-1.4731207E-1,-3.0185175E-1,-3.958426E-1,-1.1198111E-1,-2.640414E-1,8.59253E-2,-1.885998E-2,-5.678302E-1,9.002369E-2,3.9042082E-1,2.0622252E-1,-4.082058E-2,-1.473341E-1,-1.7853186E-1,-3.306824E-1,5.904441E-2,6.158441E-1,-5.2958884E-4,-2.0507286E-1],"split_indices":[0,1,1,17,0,0,0,0,0,17,17,25,0,17,17,0,0,0,22,16,0,24,0,17,27,17,17,25,22,0,0,22,24,23,25,2,16,0,24,0,0,16,16,22,24,20,25,0,0,21,22,25,27,0,27,0,0,23,0,27,20,0,5,0,0,0,0,0,0,0,0,0,0,0,0,0,0,0,0,0,0,0,0,0,0,0,0,0,0,0,0,0,0,0,0,0,0,0,0,0,0,0,0,0,0,0,0,0,0,0,0,0,0,0,0,0,0,0,0,0,0,0,0,0,0],"split_type":[0,0,0,0,0,0,0,0,0,0,0,0,0,0,0,0,0,0,0,0,0,0,0,0,0,0,0,0,0,0,0,0,0,0,0,0,0,0,0,0,0,0,0,0,0,0,0,0,0,0,0,0,0,0,0,0,0,0,0,0,0,0,0,0,0,0,0,0,0,0,0,0,0,0,0,0,0,0,0,0,0,0,0,0,0,0,0,0,0,0,0,0,0,0,0,0,0,0,0,0,0,0,0,0,0,0,0,0,0,0,0,0,0,0,0,0,0,0,0,0,0,0,0,0,0],"sum_hessian":[2.5471E4,1.3534E4,1.1937E4,9.66E3,3.874E3,8.536E3,3.401E3,6.76E3,2.9E3,2.353E3,1.521E3,3.846E3,4.69E3,1.495E3,1.906E3,2.901E3,3.859E3,9.89E2,1.911E3,1.649E3,7.04E2,1.039E3,4.82E2,3.632E3,2.14E2,2.548E3,2.142E3,1.056E3,4.39E2,1.36E3,5.46E2,1.97E2,2.704E3,1.612E3,2.247E3,1.8E1,9.71E2,1.473E3,4.38E2,3.65E2,1.284E3,1.1E2,5.94E2,4.54E2,5.85E2,2.02E2,2.8E2,2.579E3,1.053E3,1.03E2,1.11E2,1.763E3,7.85E2,1.507E3,6.35E2,3E0,1.053E3,1.3E1,4.26E2,1.197E3,1.63E2,3.34E2,2.12E2,1.85E2,1.2E1,1.321E3,1.383E3,1.6E1,1.596E3,3.7E2,1.877E3,1.7E1,1E0,9E2,7.1E1,1.069E3,4.04E2,4.27E2,1.1E1,1.38E2,2.27E2,5.85E2,6.99E2,7.7E1,3.3E1,1.86E2,4.08E2,7.6E1,3.78E2,2.98E2,2.87E2,3.3E1,1.69E2,1.31E2,1.49E2,2.124E3,4.55E2,1.96E2,8.57E2,2.2E1,8.1E1,9.9E1,1.2E1,1.369E3,3.94E2,1.46E2,6.39E2,1.311E3,1.96E2,3.4E1,6.01E2,4.91E2,5.62E2,4E0,9E0,7.8E1,3.48E2,5.85E2,6.12E2,6.7E1,9.6E1,3.2E2,1.4E1,1.26E2,8.6E1],"tree_param":{"num_deleted":"0","num_feature":"32","num_nodes":"125","size_leaf_vector":"1"}},{"base_weights":[2.0774888E-2,-3.210161E-1,6.2996054E0,8.9371574E-1,-1.4575821E0,9.132219E0,3.2092907E0,7.835195E-2,2.96055E0,-1.9903506E0,-1.566883E-1,7.159202E0,1.3644152E1,2.2953448E0,5.7866654E0,-2.8645676E-1,9.1284615E-1,2.4695826E0,4.0741105E0,-1.3283007E0,-2.3698432E0,5.3222096E-1,-1.0923359E0,6.2350264E0,9.509621E0,1.168942E1,1.6727114E1,3.243853E0,3.8969466E-1,6.835891E0,2.4722607E0,2.2570941E-1,-7.7210367E-1,1.790675E0,4.51004E-1,3.075234E0,1.7514083E0,3.1100113E0,5.011265E0,-1.5389621E0,-8.253425E-1,-2.082412E0,-2.8375933E0,8.3779424E-2,1.6089292E0,-8.8123006E-1,-2.473182E0,1.3506422E1,6.0450377E0,1.0938831E1,3.759408E0,-5.02711E-1,1.198989E1,-5.565075E-1,1.7386976E1,2.6488578E0,4.0964346E0,-1.771837E-1,1.791932E0,3.8906472E0,8.092037E0,3.1661675E0,-7.3726153E-1,1.1362586E-1,5.812272E-3,-3.1662926E-2,-9.450502E-2,6.1306304E-1,1.7028031E-1,5.3872526E-2,-1.7192763E-1,2.915845E-1,5.351918E-1,3.963106E-1,1.5272467E-1,2.260923E-1,4.2488202E-1,4.424142E-1,6.742421E-1,-8.8762395E-2,-1.6766189E-1,-5.486038E-2,-1.7183077E-1,-2.2889975E-1,-1.5946639E-1,-2.968877E-1,-2.5285542E-1,1.2673001E-2,-4.0994665E-1,2.1316396E-1,5.6584757E-2,-7.0210025E-2,-2.4656408E-1,-1.5090184E-1,-3.394613E-1,1.4749801E0,2.4013844E-1,-9.084463E-3,6.174683E-1,9.9600726E-1,1.9338903E0,-1.7284337E-1,7.412037E-1,9.970338E-1,1.4489107E0,2.7080905E-1,1.8382559E0,3.0026832E-1,-1.2523486E-2,-7.3800765E-2,4.5195594E-1,2.0013836E-1,-7.940814E-2,2.8427503E-1,-4.3186164E-1,6.252081E-1,-1.313149E-1,-8.986145E-2,8.541565E-1,-3.763117E-1,4.0656033E-1],"categories":[],"categories_nodes":[],"categories_segments":[],"categories_sizes":[],"default_left":[0,0,0,0,0,0,0,0,0,0,0,0,0,0,0,0,0,0,0,0,0,0,0,0,0,0,0,0,0,0,0,0,0,0,0,0,0,0,0,0,0,0,0,0,0,0,0,0,0,0,0,0,0,0,0,0,0,0,0,0,0,0,0,0,0,0,0,0,0,0,0,0,0,0,0,0,0,0,0,0,0,0,0,0,0,0,0,0,0,0,0,0,0,0,0,0,0,0,0,0,0,0,0,0,0,0,0,0,0,0,0,0,0,0,0,0,0,0,0,0,0],"id":11,"left_children":[1,3,5,7,9,11,13,15,17,19,21,23,25,27,29,31,33,35,37,39,41,43,45,47,49,51,53,55,57,59,61,63,65,67,69,71,73,75,77,79,81,83,85,87,89,91,93,95,97,99,101,-1,103,-1,105,107,109,111,113,115,117,119,-1,-1,-1,-1,-1,-1,-1,-1,-1,-1,-1,-1,-1,-1,-1,-1,-1,-1,-1,-1,-1,-1,-1,-1,-1,-1,-1,-1,-1,-1,-1,-1,-1,-1,-1,-1,-1,-1,-1,-1,-1,-1,-1,-1,-1,-1,-1,-1,-1,-1,-1,-1,-1,-1,-1,-1,-1,-1,-1],"loss_changes":[5.453953E4,3.327708E4,1.1455504E4,1.963429E4,8.629861E3,5.991367E3,1.4683784E3,2.544085E3,1.7919355E3,2.216336E3,2.333303E3,9.7901953E2,1.0519258E3,8.410425E2,5.5341943E2,1.4465503E3,1.0297661E3,9.906787E2,8.9424805E2,3.4000732E2,7.488711E2,1.00658795E3,4.452804E2,3.9634668E2,1.0519062E3,7.132422E2,1.244123E3,1.4691382E2,1.2432158E2,4.2727393E2,3.0343146E2,4.3193298E2,2.348374E2,3.2363257E2,3.1828928E2,4.3472656E2,5.1451416E2,4.7290186E2,4.8751855E2,2.0195312E2,2.3456085E2,3.471006E2,7.907422E1,2.651776E2,3.330194E2,3.765946E2,1.7522473E2,7.504236E1,2.702295E2,6.7887695E2,5.7407263E2,0E0,5.015918E2,0E0,1.0608828E3,1.8294324E2,2.610774E2,1.5211201E2,3.012251E2,4.8745813E2,3.5524805E2,2.5836478E2,0E0,0E0,0E0,0E0,0E0,0E0,0E0,0E0,0E0,0E0,0E0,0E0,0E0,0E0,0E0,0E0,0E0,0E0,0E0,0E0,0E0,0E0,0E0,0E0,0E0,0E0,0E0,0E0,0E0,0E0,0E0,0E0,0E0,0E0,0E0,0E0,0E0,0E0,0E0,0E0,0E0,0E0,0E0,0E0,0E0,0E0,0E0,0E0,0E0,0E0,0E0,0E0,0E0,0E0,0E0,0E0,0E0,0E0,0E0],"parents":[2147483647,0,0,1,1,2,2,3,3,4,4,5,5,6,6,7,7,8,8,9,9,10,10,11,11,12,12,13,13,14,14,15,15,16,16,17,17,18,18,19,19,20,20,21,21,22,22,23,23,24,24,25,25,26,26,27,27,28,28,29,29,30,30,31,31,32,32,33,33,34,34,35,35,36,36,37,37,38,38,39,39,40,40,41,41,42,42,43,43,44,44,45,45,46,46,47,47,48,48,49,49,50,50,52,52,54,54,55,55,56,56,57,57,58,58,59,59,60,60,61,61],"right_children":[2,4,6,8,10,12,14,16,18,20,22,24,26,28,30,32,34,36,38,40,42,44,46,48,50,52,54,56,58,60,62,64,66,68,70,72,74,76,78,80,82,84,86,88,90,92,94,96,98,100,102,-1,104,-1,106,108,110,112,114,116,118,120,-1,-1,-1,-1,-1,-1,-1,-1,-1,-1,-1,-1,-1,-1,-1,-1,-1,-1,-1,-1,-1,-1,-1,-1,-1,-1,-1,-1,-1,-1,-1,-1,-1,-1,-1,-1,-1,-1,-1,-1,-1,-1,-1,-1,-1,-1,-1,-1,-1,-1,-1,-1,-1,-1,-1,-1,-1,-1,-1],"split_conditions":[1E0,5.277675E1,5.965044E1,5E0,5E0,5E0,5E0,1E0,1E0,8.033952E1,8.9331604E1,1E0,1E0,9.5213E1,1.0161834E2,2.5437117E1,2.0493374E1,2.8091072E1,6E0,1E0,9.998607E1,1E0,1.10073875E2,-1.4428572E1,9.749279E-1,4.442942E0,1.6533333E1,-1.4285715E-1,1E0,1E1,1.1682115E2,1.1270821E1,1.88E1,4.9962015E0,2.4133333E1,2.6529236E1,1.71E1,2.1E1,4.142857E0,6E0,1.72E1,1E0,1E0,2.2142857E1,6.8033605E0,1.4642858E1,2.4E1,4.258432E1,1.5E1,2.5357143E1,2E1,-5.02711E-1,2.1E1,-5.565075E-1,6E0,2.9692122E1,7E0,1.2E1,2.6E1,7.1046596E0,1.09E1,1.0285406E2,-7.3726153E-1,1.1362586E-1,5.812272E-3,-3.1662926E-2,-9.450502E-2,6.1306304E-1,1.7028031E-1,5.3872526E-2,-1.7192763E-1,2.915845E-1,5.351918E-1,3.963106E-1,1.5272467E-1,2.260923E-1,4.2488202E-1,4.424142E-1,6.742421E-1,-8.8762395E-2,-1.6766189E-1,-5.486038E-2,-1.7183077E-1,-2.2889975E-1,-1.5946639E-1,-2.968877E-1,-2.5285542E-1,1.2673001E-2,-4.0994665E-1,2.1316396E-1,5.6584757E-2,-7.0210025E-2,-2.4656408E-1,-1.5090184E-1,-3.394613E-1,1.4749801E0,2.4013844E-1,-9.084463E-3,6.174683E-1,9.9600726E-1,1.9338903E0,-1.7284337E-1,7.412037E-1,9.970338E-1,1.4489107E0,2.7080905E-1,1.8382559E0,3.0026832E-1,-1.2523486E-2,-7.3800765E-2,4.5195594E-1,2.0013836E-1,-7.940814E-2,2.8427503E-1,-4.3186164E-1,6.252081E-1,-1.313149E-1,-8.986145E-2,8.541565E-1,-3.763117E-1,4.0656033E-1],"split_indices":[13,0,0,1,1,1,1,17,17,0,0,17,17,0,0,0,0,0,1,17,0,17,0,26,6,16,25,26,17,21,0,0,25,0,25,0,25,22,26,2,25,17,17,24,27,24,5,0,24,24,22,0,21,0,22,16,22,5,2,27,25,0,0,0,0,0,0,0,0,0,0,0,0,0,0,0,0,0,0,0,0,0,0,0,0,0,0,0,0,0,0,0,0,0,0,0,0,0,0,0,0,0,0,0,0,0,0,0,0,0,0,0,0,0,0,0,0,0,0,0,0],"split_type":[0,0,0,0,0,0,0,0,0,0,0,0,0,0,0,0,0,0,0,0,0,0,0,0,0,0,0,0,0,0,0,0,0,0,0,0,0,0,0,0,0,0,0,0,0,0,0,0,0,0,0,0,0,0,0,0,0,0,0,0,0,0,0,0,0,0,0,0,0,0,0,0,0,0,0,0,0,0,0,0,0,0,0,0,0,0,0,0,0,0,0,0,0,0,0,0,0,0,0,0,0,0,0,0,0,0,0,0,0,0,0,0,0,0,0,0,0,0,0,0,0],"sum_hessian":[2.5412E4,2.4101E4,1.311E3,1.165E4,1.2451E4,6.83E2,6.28E2,8.355E3,3.295E3,8.833E3,3.618E3,4.77E2,2.06E2,4.65E2,1.63E2,5.814E3,2.541E3,2.289E3,1.006E3,3.22E3,5.613E3,2.084E3,1.534E3,3.45E2,1.32E2,1.29E2,7.7E1,3.1E2,1.55E2,1.23E2,4E1,2.83E3,2.984E3,8.75E2,1.666E3,1.24E3,1.049E3,4.98E2,5.08E2,2.268E3,9.52E2,3.48E3,2.133E3,1.472E3,6.12E2,1.332E3,2.02E2,7E0,3.38E2,1.05E2,2.7E1,2E0,1.27E2,2E0,7.5E1,1.85E2,1.25E2,1.11E2,4.4E1,3.8E1,8.5E1,3.8E1,2E0,4.39E2,2.391E3,8.22E2,2.162E3,1.6E1,8.59E2,1.602E3,6.4E1,1.161E3,7.9E1,9.5E1,9.54E2,2.87E2,2.11E2,3.82E2,1.26E2,3.97E2,1.871E3,7.28E2,2.24E2,2.442E3,1.038E3,1.491E3,6.42E2,1.458E3,1.4E1,4.07E2,2.05E2,1.198E3,1.34E2,1E2,1.02E2,6E0,1E0,7E0,3.31E2,9.6E1,9E0,1.1E1,1.6E1,7.3E1,5.4E1,5E0,7E1,1.64E2,2.1E1,1E1,1.15E2,2.4E1,8.7E1,3.8E1,6E0,2.6E1,1.2E1,4E0,8.1E1,4E0,3.4E1],"tree_param":{"num_deleted":"0","num_feature":"32","num_nodes":"121","size_leaf_vector":"1"}},{"base_weights":[1.9239647E-2,-2.8736493E-1,5.6930456E0,-8.8261205E-1,1.2074656E0,4.177873E0,9.370879E0,-1.7093315E0,-6.280715E-2,-2.014659E-1,2.2101586E0,2.113264E0,5.6427455E0,7.310266E0,1.48087635E1,-2.03201E0,-1.3234031E0,-3.7302497E-1,6.691447E-1,-4.7010636E-1,4.4154462E-1,1.8165711E0,3.1401353E0,1.2144752E0,3.413941E0,4.8725257E0,7.0294375E0,5.9379435E0,1.0080142E1,1.2417221E1,1.8476278E1,-2.1885529E0,-1.6699317E0,-1.6151302E0,-6.462584E-1,-6.844854E-1,-1.9876903E-1,-6.297698E-3,8.7839186E-1,-6.5719944E-1,4.2311054E-1,-1.4615135E0,6.4168286E-1,1.1644083E0,2.434388E0,2.3822932E0,3.9196293E0,1.0784932E0,5.4118266E0,1.3103125E0,4.4043593E0,4.244345E0,6.8336716E0,1.1897939E1,6.5192447E0,-1.4104673E0,6.399983E0,1.7636856E1,8.105804E0,1.0579427E-1,1.28003E1,-4.7154674E-1,1.921068E1,-2.4088238E-1,-1.9305389E-1,-2.0614032E-1,-1.4372021E-1,-1.7190373E-1,-1.05748475E-1,-1.5529506E-1,-4.8809048E-2,-1.6927819E-1,-6.0871333E-2,-3.178613E-2,3.333645E-2,-1.1847198E-2,2.6457545E-1,1.2213874E-1,4.0381417E-2,1.0834527E-1,-7.224174E-2,1.0037037E-1,-6.52526E-2,8.5472584E-2,-2.1368633E-1,-4.3327546E-1,6.865377E-2,-6.863682E-3,1.5248303E-1,2.9274908E-1,1.9598345E-1,2.581898E-1,-4.337008E-1,-1.2992296E-1,4.1336203E-1,6.773786E-2,2.667899E-1,1.5505886E-1,6.646204E-1,-4.8254076E-1,2.065717E-1,8.3722556E-1,3.8150224E-1,-5.132983E-2,4.6684644E-1,7.311181E-1,-4.5443115E-1,-7.1951216E-1,1.354095E0,6.721411E-1,-1.7391239E-1,-6.2967664E-1,1.819778E-1,5.881999E-1,9.805595E-1,3.8853073E-1,2.0128145E0,1.1921341E0,3.26631E-1,1.6109581E-1,-1.4522667E-1,1.0389942E0,1.6929623E0,3.3070412E0,1.7077833E0],"categories":[],"categories_nodes":[],"categories_segments":[],"categories_sizes":[],"default_left":[0,0,0,0,0,0,0,0,0,0,0,0,0,0,0,0,0,0,0,0,0,0,0,0,0,0,0,0,0,0,0,0,0,0,0,0,0,0,0,0,0,0,0,0,0,0,0,0,0,0,0,0,0,0,0,0,0,0,0,0,0,0,0,0,0,0,0,0,0,0,0,0,0,0,0,0,0,0,0,0,0,0,0,0,0,0,0,0,0,0,0,0,0,0,0,0,0,0,0,0,0,0,0,0,0,0,0,0,0,0,0,0,0,0,0,0,0,0,0,0,0,0,0,0,0],"id":12,"left_children":[1,3,5,7,9,11,13,15,17,19,21,23,25,27,29,31,33,35,37,39,41,43,45,47,49,51,53,55,57,59,61,63,65,67,69,71,73,75,77,79,81,83,85,87,89,91,93,95,97,99,101,103,105,107,109,111,113,115,117,119,121,-1,123,-1,-1,-1,-1,-1,-1,-1,-1,-1,-1,-1,-1,-1,-1,-1,-1,-1,-1,-1,-1,-1,-1,-1,-1,-1,-1,-1,-1,-1,-1,-1,-1,-1,-1,-1,-1,-1,-1,-1,-1,-1,-1,-1,-1,-1,-1,-1,-1,-1,-1,-1,-1,-1,-1,-1,-1,-1,-1,-1,-1,-1,-1],"loss_changes":[4.451838E4,2.1604365E4,7.272039E3,1.1768999E4,9.769444E3,2.8037803E3,4.1721953E3,1.0740039E3,1.9802521E3,4.970039E2,1.4730469E3,4.4943896E2,5.4677344E2,1.0006699E3,6.827617E2,2.6314062E2,7.7726953E2,3.3229114E2,3.669098E2,3.3935385E2,3.239196E2,1.1418525E3,6.99542E2,1.2600986E2,3.234176E2,4.0587598E2,3.9933887E2,6.5073047E2,1.2147139E3,3.0991797E2,7.548379E2,1.8193262E2,1.268645E2,1.576997E2,1.6961267E2,1.668219E2,2.4909839E2,1.8327104E2,3.221327E2,1.912721E2,2.2048148E2,1.2853242E2,1.7433658E2,6.151769E2,3.3544043E2,8.3067285E2,6.6427637E2,1.4163794E2,2.3058075E1,2.5098532E2,2.1827124E2,5.472036E2,4.8960425E2,6.307207E2,3.0553223E2,2.0086604E2,2.5632422E2,5.384595E2,1.3274912E3,9.374952E0,4.611045E2,0E0,5.5853516E2,0E0,0E0,0E0,0E0,0E0,0E0,0E0,0E0,0E0,0E0,0E0,0E0,0E0,0E0,0E0,0E0,0E0,0E0,0E0,0E0,0E0,0E0,0E0,0E0,0E0,0E0,0E0,0E0,0E0,0E0,0E0,0E0,0E0,0E0,0E0,0E0,0E0,0E0,0E0,0E0,0E0,0E0,0E0,0E0,0E0,0E0,0E0,0E0,0E0,0E0,0E0,0E0,0E0,0E0,0E0,0E0,0E0,0E0,0E0,0E0,0E0,0E0],"parents":[2147483647,0,0,1,1,2,2,3,3,4,4,5,5,6,6,7,7,8,8,9,9,10,10,11,11,12,12,13,13,14,14,15,15,16,16,17,17,18,18,19,19,20,20,21,21,22,22,23,23,24,24,25,25,26,26,27,27,28,28,29,29,30,30,31,31,32,32,33,33,34,34,35,35,36,36,37,37,38,38,39,39,40,40,41,41,42,42,43,43,44,44,45,45,46,46,47,47,48,48,49,49,50,50,51,51,52,52,53,53,54,54,55,55,56,56,57,57,58,58,59,59,60,60,62,62],"right_children":[2,4,6,8,10,12,14,16,18,20,22,24,26,28,30,32,34,36,38,40,42,44,46,48,50,52,54,56,58,60,62,64,66,68,70,72,74,76,78,80,82,84,86,88,90,92,94,96,98,100,102,104,106,108,110,112,114,116,118,120,122,-1,124,-1,-1,-1,-1,-1,-1,-1,-1,-1,-1,-1,-1,-1,-1,-1,-1,-1,-1,-1,-1,-1,-1,-1,-1,-1,-1,-1,-1,-1,-1,-1,-1,-1,-1,-1,-1,-1,-1,-1,-1,-1,-1,-1,-1,-1,-1,-1,-1,-1,-1,-1,-1,-1,-1,-1,-1,-1,-1,-1,-1,-1,-1],"split_conditions":[1E0,5E0,5E0,1.7413794E1,1.5933333E1,1.5666667E1,2.0857143E1,1.3966666E1,1E0,1E0,1E0,1.3533334E1,2.15E1,1.7566668E1,1E0,1E0,1E0,1.7E1,1.9433332E1,1.8E1,1.0633333E1,2.0142857E1,6E0,3E1,4.4347115E0,2.3E1,1.8857143E1,5E0,4.670067E0,9E0,4.3204937E0,1.2366667E1,1.1285714E1,2.9442575E1,1.3E1,1.5714286E1,4.3E1,1E0,8E0,2E0,1.5E1,1.2009976E1,1.976047E0,1.3E1,2.2E1,4.1E1,7E0,9.749279E-1,1.26E1,-8.660254E-1,8E0,-8.660254E-1,2.7E1,1E1,3.5989635E1,6E0,2.1E1,2E0,3E1,1.1E1,1.1814035E1,-4.7154674E-1,5.956189E0,-2.4088238E-1,-1.9305389E-1,-2.0614032E-1,-1.4372021E-1,-1.7190373E-1,-1.05748475E-1,-1.5529506E-1,-4.8809048E-2,-1.6927819E-1,-6.0871333E-2,-3.178613E-2,3.333645E-2,-1.1847198E-2,2.6457545E-1,1.2213874E-1,4.0381417E-2,1.0834527E-1,-7.224174E-2,1.0037037E-1,-6.52526E-2,8.5472584E-2,-2.1368633E-1,-4.3327546E-1,6.865377E-2,-6.863682E-3,1.5248303E-1,2.9274908E-1,1.9598345E-1,2.581898E-1,-4.337008E-1,-1.2992296E-1,4.1336203E-1,6.773786E-2,2.667899E-1,1.5505886E-1,6.646204E-1,-4.8254076E-1,2.065717E-1,8.3722556E-1,3.8150224E-1,-5.132983E-2,4.6684644E-1,7.311181E-1,-4.5443115E-1,-7.1951216E-1,1.354095E0,6.721411E-1,-1.7391239E-1,-6.2967664E-1,1.819778E-1,5.881999E-1,9.805595E-1,3.8853073E-1,2.0128145E0,1.1921341E0,3.26631E-1,1.6109581E-1,-1.4522667E-1,1.0389942E0,1.6929623E0,3.3070412E0,1.7077833E0],"split_indices":[13,1,1,25,25,25,23,25,17,17,17,25,25,25,17,17,17,21,25,21,25,23,1,2,27,21,23,22,27,20,27,25,23,16,23,23,5,14,3,22,20,16,27,22,20,21,21,6,25,9,21,9,23,21,16,1,21,2,5,2,27,0,27,0,0,0,0,0,0,0,0,0,0,0,0,0,0,0,0,0,0,0,0,0,0,0,0,0,0,0,0,0,0,0,0,0,0,0,0,0,0,0,0,0,0,0,0,0,0,0,0,0,0,0,0,0,0,0,0,0,0,0,0,0,0],"split_type":[0,0,0,0,0,0,0,0,0,0,0,0,0,0,0,0,0,0,0,0,0,0,0,0,0,0,0,0,0,0,0,0,0,0,0,0,0,0,0,0,0,0,0,0,0,0,0,0,0,0,0,0,0,0,0,0,0,0,0,0,0,0,0,0,0,0,0,0,0,0,0,0,0,0,0,0,0,0,0,0,0,0,0,0,0,0,0,0,0,0,0,0,0,0,0,0,0,0,0,0,0,0,0,0,0,0,0,0,0,0,0,0,0,0,0,0,0,0,0,0,0,0,0,0,0],"sum_hessian":[2.5589E4,2.4278E4,1.311E3,1.7364E4,6.914E3,9.3E2,3.81E2,8.645E3,8.719E3,2.875E3,4.039E3,3.87E2,5.43E2,2.78E2,1.03E2,4.706E3,3.939E3,6.124E3,2.595E3,2.028E3,8.47E2,2.84E3,1.199E3,2.3E2,1.57E2,3.52E2,1.91E2,1.88E2,9E1,6.5E1,3.8E1,3.282E3,1.424E3,2.752E3,1.187E3,2.196E3,3.928E3,6.14E2,1.981E3,1.677E3,3.51E2,8E1,7.67E2,1.383E3,1.457E3,6.1E2,5.89E2,2.24E2,6E0,5.1E1,1.06E2,2.69E2,8.3E1,1.6E1,1.75E2,1.1E1,1.77E2,1.7E1,7.3E1,2E0,6.3E1,1E0,3.7E1,1.766E3,1.516E3,5.28E2,8.96E2,2.318E3,4.34E2,1.75E2,1.012E3,1.52E2,2.044E3,3.21E3,7.18E2,5.9E2,2.4E1,1.149E3,8.32E2,6E1,1.617E3,2.28E2,1.23E2,1.8E1,6.2E1,6E0,7.61E2,3.13E2,1.07E3,7.12E2,7.45E2,5.93E2,1.7E1,2.3E1,5.66E2,1.8E2,4.4E1,2E0,4E0,5E0,4.6E1,1.2E1,9.4E1,2.2E1,2.47E2,8E1,3E0,1E0,1.5E1,1.71E2,4E0,4E0,7E0,1.56E2,2.1E1,3E0,1.4E1,4E1,3.3E1,1E0,1E0,4.2E1,2.1E1,3E0,3.4E1],"tree_param":{"num_deleted":"0","num_feature":"32","num_nodes":"125","size_leaf_vector":"1"}},{"base_weights":[-1.0202692E-2,-2.725009E-1,4.930128E0,7.8841656E-1,-1.245357E0,6.935013E0,2.3160622E0,1.22022234E-1,2.4701355E0,-1.6674453E0,-2.1945861E-1,5.115965E0,1.1346954E1,1.4472708E0,4.602756E0,6.770363E-1,-2.1306372E-1,2.851864E0,1.6251823E0,-1.2682453E0,-2.0814981E0,5.007637E-1,-9.5056295E-1,6.0505652E0,3.1501303E0,1.0294313E1,1.7160946E1,2.6883655E0,3.953248E-1,3.4159653E0,7.002961E0,2.701878E-1,9.22173E-1,5.4207902E-2,-5.6099147E-1,3.759411E0,2.6296282E0,1.5581156E0,9.045492E0,-1.0562493E0,-1.46833E0,-1.8534755E0,-2.3004563E0,9.1436887E-1,-1.0761426E-2,-8.8935417E-1,-3.9811978E0,9.460633E0,5.7246566E0,4.590685E0,7.746166E-1,1.3601122E1,8.938696E0,2.1000494E1,8.270814E0,1.5436226E0,3.8790433E0,7.110092E0,1.1108073E-1,3.9009993E0,-3.9317963E0,4.4999185E0,1.2040683E1,8.9832984E-2,-3.520543E-2,1.3338472E-2,1.0623534E-1,9.284605E-2,-1.6661622E-2,1.4086078E-2,-9.2382014E-2,4.8021537E-1,2.5091153E-1,3.3668742E-1,2.2034447E-1,2.0252548E-1,6.0955316E-2,1.5743496E0,3.0725735E-1,-7.000737E-2,-1.5646403E-1,-1.18182324E-1,-1.6942738E-1,-1.7301278E-1,-2.4764596E-1,-2.2546227E-1,-3.0921575E-1,1.13794856E-1,-3.441119E-2,-6.0283203E-2,7.726488E-2,-5.2377414E-2,-1.3247365E-1,-5.0095934E-1,5.4983664E-1,1.1249827E0,7.270899E-2,9.367472E-1,5.386482E-1,4.0271184E-1,1.3218349E0,2.3417985E-1,-2.6205167E-1,1.9737959E0,8.647403E-1,1.7896057E0,7.976489E-1,-5.652154E-1,2.2615736E0,1.5749878E0,-5.8671888E-2,3.9792484E-1,2.2557734E-2,2.7956027E-1,6.480123E-1,3.4852743E-1,1.0769796E0,7.613949E-2,-1.296379E-1,5.960478E-1,1.677848E-1,-5.631568E-1,-1.24907546E-1,-4.619792E-1,6.944839E-1,1.2744248E0,7.436066E-2],"categories":[],"categories_nodes":[],"categories_segments":[],"categories_sizes":[],"default_left":[0,0,0,0,0,0,0,0,0,0,0,0,0,0,0,0,0,0,0,0,0,0,0,0,0,0,0,0,0,0,0,0,0,0,0,0,0,0,0,0,0,0,0,0,0,0,0,0,0,0,0,0,0,0,0,0,0,0,0,0,0,0,0,0,0,0,0,0,0,0,0,0,0,0,0,0,0,0,0,0,0,0,0,0,0,0,0,0,0,0,0,0,0,0,0,0,0,0,0,0,0,0,0,0,0,0,0,0,0,0,0,0,0,0,0,0,0,0,0,0,0,0,0,0,0,0,0],"id":13,"left_children":[1,3,5,7,9,11,13,15,17,19,21,23,25,27,29,31,33,35,37,39,41,43,45,47,49,51,53,55,57,59,61,63,65,67,69,71,73,75,77,79,81,83,85,87,89,91,93,95,97,99,101,103,105,107,109,111,113,115,117,119,121,123,125,-1,-1,-1,-1,-1,-1,-1,-1,-1,-1,-1,-1,-1,-1,-1,-1,-1,-1,-1,-1,-1,-1,-1,-1,-1,-1,-1,-1,-1,-1,-1,-1,-1,-1,-1,-1,-1,-1,-1,-1,-1,-1,-1,-1,-1,-1,-1,-1,-1,-1,-1,-1,-1,-1,-1,-1,-1,-1,-1,-1,-1,-1,-1,-1],"loss_changes":[3.313079E4,2.5058793E4,6.739457E3,1.3015369E4,5.483826E3,5.7925664E3,1.107855E3,1.5472903E3,1.0584668E3,1.4805078E3,1.9450535E3,9.326455E2,1.120791E3,5.3160754E2,4.1475342E2,3.1211633E2,4.8246884E2,4.477461E2,4.974956E2,1.9233838E2,2.155664E2,3.937406E2,3.3648352E2,3.348213E2,5.747715E2,6.9428516E2,8.8446484E2,2.488971E2,4.229267E2,3.8954895E2,5.7629956E2,4.61136E2,2.1591711E2,5.6677423E2,5.74116E2,5.6681006E2,5.663154E2,4.5073853E2,3.1168665E2,4.014375E2,1.5005957E2,1.6185107E2,7.438281E1,2.8992194E2,3.8683963E2,2.8548853E2,3.7849933E2,4.4497412E2,3.4621582E2,4.5730615E2,3.519882E2,1.3797266E3,9.9493945E2,1.0318867E3,7.379474E2,3.1049805E2,2.3833264E2,8.185614E1,1.9685931E2,4.4327393E2,2.4885834E1,8.124775E2,1.1769507E2,0E0,0E0,0E0,0E0,0E0,0E0,0E0,0E0,0E0,0E0,0E0,0E0,0E0,0E0,0E0,0E0,0E0,0E0,0E0,0E0,0E0,0E0,0E0,0E0,0E0,0E0,0E0,0E0,0E0,0E0,0E0,0E0,0E0,0E0,0E0,0E0,0E0,0E0,0E0,0E0,0E0,0E0,0E0,0E0,0E0,0E0,0E0,0E0,0E0,0E0,0E0,0E0,0E0,0E0,0E0,0E0,0E0,0E0,0E0,0E0,0E0,0E0,0E0,0E0],"parents":[2147483647,0,0,1,1,2,2,3,3,4,4,5,5,6,6,7,7,8,8,9,9,10,10,11,11,12,12,13,13,14,14,15,15,16,16,17,17,18,18,19,19,20,20,21,21,22,22,23,23,24,24,25,25,26,26,27,27,28,28,29,29,30,30,31,31,32,32,33,33,34,34,35,35,36,36,37,37,38,38,39,39,40,40,41,41,42,42,43,43,44,44,45,45,46,46,47,47,48,48,49,49,50,50,51,51,52,52,53,53,54,54,55,55,56,56,57,57,58,58,59,59,60,60,61,61,62,62],"right_children":[2,4,6,8,10,12,14,16,18,20,22,24,26,28,30,32,34,36,38,40,42,44,46,48,50,52,54,56,58,60,62,64,66,68,70,72,74,76,78,80,82,84,86,88,90,92,94,96,98,100,102,104,106,108,110,112,114,116,118,120,122,124,126,-1,-1,-1,-1,-1,-1,-1,-1,-1,-1,-1,-1,-1,-1,-1,-1,-1,-1,-1,-1,-1,-1,-1,-1,-1,-1,-1,-1,-1,-1,-1,-1,-1,-1,-1,-1,-1,-1,-1,-1,-1,-1,-1,-1,-1,-1,-1,-1,-1,-1,-1,-1,-1,-1,-1,-1,-1,-1,-1,-1,-1,-1,-1,-1],"split_conditions":[1E0,5.224359E1,6.891869E1,5E0,5E0,5E0,5E0,2.1262062E1,3.4205097E1,8.601181E1,8.56454E1,4.0228592E1,2.5142857E1,8.734142E1,2.636131E1,1.3E1,3.5612217E1,1.3643206E1,2.4266666E1,7.32761E1,9.957163E1,6.2564254E0,1.7071428E1,5E0,1.8928572E1,1.4E1,1E0,-1E0,8.428572E0,4.9E1,2.4E1,2.25E1,1.0396423E1,1.95E1,1.8633333E1,2.2714285E1,2.1166666E1,2.1E1,6E0,1.69E1,1.43E1,1.4733334E1,5E1,1.6857143E1,2.1999529E1,1.00733055E2,3.4E1,9.428572E0,7.499889E0,2.1E1,1E0,3.1301258E1,3.952094E0,7.7351713E0,9E0,1.296467E1,2.3E1,7.818315E-1,2.3847744E1,1.7249313E1,1.6E1,8.350096E1,2.5E1,8.9832984E-2,-3.520543E-2,1.3338472E-2,1.0623534E-1,9.284605E-2,-1.6661622E-2,1.4086078E-2,-9.2382014E-2,4.8021537E-1,2.5091153E-1,3.3668742E-1,2.2034447E-1,2.0252548E-1,6.0955316E-2,1.5743496E0,3.0725735E-1,-7.000737E-2,-1.5646403E-1,-1.18182324E-1,-1.6942738E-1,-1.7301278E-1,-2.4764596E-1,-2.2546227E-1,-3.0921575E-1,1.13794856E-1,-3.441119E-2,-6.0283203E-2,7.726488E-2,-5.2377414E-2,-1.3247365E-1,-5.0095934E-1,5.4983664E-1,1.1249827E0,7.270899E-2,9.367472E-1,5.386482E-1,4.0271184E-1,1.3218349E0,2.3417985E-1,-2.6205167E-1,1.9737959E0,8.647403E-1,1.7896057E0,7.976489E-1,-5.652154E-1,2.2615736E0,1.5749878E0,-5.8671888E-2,3.9792484E-1,2.2557734E-2,2.7956027E-1,6.480123E-1,3.4852743E-1,1.0769796E0,7.613949E-2,-1.296379E-1,5.960478E-1,1.677848E-1,-5.631568E-1,-1.24907546E-1,-4.619792E-1,6.944839E-1,1.2744248E0,7.436066E-2],"split_indices":[13,0,0,1,1,1,1,0,0,0,0,0,23,0,16,2,0,0,25,0,0,27,24,5,24,5,31,26,23,5,2,24,16,25,25,23,25,20,1,25,25,25,5,23,16,0,20,26,16,23,31,0,27,0,2,16,2,6,16,16,2,0,20,0,0,0,0,0,0,0,0,0,0,0,0,0,0,0,0,0,0,0,0,0,0,0,0,0,0,0,0,0,0,0,0,0,0,0,0,0,0,0,0,0,0,0,0,0,0,0,0,0,0,0,0,0,0,0,0,0,0,0,0,0,0,0,0],"split_type":[0,0,0,0,0,0,0,0,0,0,0,0,0,0,0,0,0,0,0,0,0,0,0,0,0,0,0,0,0,0,0,0,0,0,0,0,0,0,0,0,0,0,0,0,0,0,0,0,0,0,0,0,0,0,0,0,0,0,0,0,0,0,0,0,0,0,0,0,0,0,0,0,0,0,0,0,0,0,0,0,0,0,0,0,0,0,0,0,0,0,0,0,0,0,0,0,0,0,0,0,0,0,0,0,0,0,0,0,0,0,0,0,0,0,0,0,0,0,0,0,0,0,0,0,0,0,0],"sum_hessian":[2.5565E4,2.4277E4,1.288E3,1.1613E4,1.2664E4,7.28E2,5.6E2,8.318E3,3.295E3,8.972E3,3.692E3,5.17E2,2.11E2,4.07E2,1.53E2,3.131E3,5.187E3,2.268E3,1.027E3,4.57E3,4.402E3,1.86E3,1.832E3,3.49E2,1.68E2,1.81E2,3E1,1.86E2,2.21E2,1.04E2,4.9E1,1.178E3,1.953E3,2.934E3,2.253E3,4.43E2,1.825E3,1.019E3,8E0,2.222E3,2.348E3,2.161E3,2.241E3,1.028E3,8.32E2,1.797E3,3.5E1,2.8E1,3.21E2,1.04E2,6.4E1,5E1,1.31E2,2E1,1E1,9.6E1,9E1,8E0,2.13E2,9.8E1,6E0,3.4E1,1.5E1,5.86E2,5.92E2,2.95E2,1.658E3,5.91E2,2.343E3,7.68E2,1.485E3,2.4E2,2.03E2,6.66E2,1.159E3,6.82E2,3.37E2,3E0,5E0,1.308E3,9.14E2,1.038E3,1.31E3,1.807E3,3.54E2,2.122E3,1.19E2,8.73E2,1.55E2,4.74E2,3.58E2,9.78E2,8.19E2,3.2E1,3E0,2.3E1,5E0,2.5E1,2.96E2,9.9E1,5E0,4.4E1,2E1,2.1E1,2.9E1,1.1E1,1.2E2,1E0,1.9E1,5E0,5E0,3.3E1,6.3E1,6.5E1,2.5E1,5E0,3E0,1.46E2,6.7E1,5E1,4.8E1,3E0,3E0,7E0,2.7E1,1.4E1,1E0],"tree_param":{"num_deleted":"0","num_feature":"32","num_nodes":"127","size_leaf_vector":"1"}},{"base_weights":[-2.245831E-2,-2.6265663E-1,4.4469767E0,7.3907036E-1,